# 100
-2.024711284320801497e-04
-6.413841038011014462e-05
-2.319910377264022827e-01
4.722476005554199219e-01
-1.287595331668853760e-01
2.385522238910198212e-02
4.027868211269378662e-01
2.545157968997955322e-01
-3.629681095480918884e-02
-4.544540047645568848e-01
-4.516862630844116211e-01
4.423307836987078190e-05
5.438229345600120723e-05
-1.676392257213592529e-01
1.230770430993288755e-05
-1.364532262086868286e-01
5.644984841346740723e-01
5.056607723236083984e-01
-6.961243152618408203e-01
2.324671000242233276e-01
3.764746487140655518e-01
4.116528108716011047e-02
-1.985709965229034424e-01
-1.410366296768188477e-01
2.262626737356185913e-01
8.759428560733795166e-02
6.315738707780838013e-02
5.569592118263244629e-01
3.734825295396149158e-04
-1.128217671066522598e-02
-2.036202251911163330e-01
3.780925571918487549e-01
2.994789183139801025e-01
5.071748495101928711e-01
9.519062587060034275e-07
1.073566228151321411e-01
3.056893944740295410e-01
-2.617141790688037872e-02
5.121510848402976990e-02
-3.500015139579772949e-01
-4.145180806517601013e-02
-6.673875451087951660e-02
-6.980714201927185059e-02
-5.796043872833251953e-01
6.032946109771728516e-01
1.842643541749566793e-05
-4.710827124654315412e-05
9.071192145347595215e-02
-3.631726503372192383e-01
3.529613912105560303e-01
8.327462524175643921e-02
5.097241401672363281e-01
1.527252942323684692e-01
-4.892849624156951904e-01
2.573354840278625488e-01
-5.268884301185607910e-01
-3.352278769016265869e-01
-2.664817657205276191e-05
-2.028991729021072388e-01
-3.551613986492156982e-01
1.502703037112951279e-02
5.285184979438781738e-01
-3.877998292446136475e-01
-1.619264632463455200e-01
2.655667960643768311e-01
6.642184598604217172e-05
7.413766533136367798e-02
-3.492257746984250844e-05
-2.467544227838516235e-01
5.658417285303585231e-05
-1.395761370658874512e-01
4.681614637374877930e-01
4.275285303592681885e-01
5.009968280792236328e-01
-6.177052259445190430e-01
4.345096647739410400e-01
-5.514410734176635742e-01
-1.903425157070159912e-01
8.198533207178115845e-02
3.105049729347229004e-01
1.669497936964035034e-01
2.235580682754516602e-01
5.216377377510070801e-01
5.140621066093444824e-01
-2.304399758577346802e-02
-1.102675721049308777e-01
5.921351313591003418e-01
9.840165730565786362e-04
1.642529787204694003e-05
5.100947022438049316e-01
-1.959132350748404860e-05
-2.652688622474670410e-01
-4.973418617737479508e-05
-3.613228797912597656e-01
1.060905400663614273e-02
-2.192789614200592041e-01
3.415900170803070068e-01
3.387899778317660093e-05
2.680755555629730225e-01
-1.376415938138961792e-01
