# 60
-2.637468576431274414e-01
-1.355374455451965332e-01
-4.095439612865447998e-01
-7.512687444686889648e-01
7.426790595054626465e-01
8.631727099418640137e-01
-1.702599227428436279e-01
8.203239440917968750e-01
6.034005880355834961e-01
-2.150600999593734741e-01
4.087450504302978516e-01
7.057340741157531738e-01
7.422947883605957031e-01
1.957605034112930298e-01
-2.280503660440444946e-01
2.619193494319915771e-01
-4.743872284889221191e-01
-2.861135900020599365e-01
8.464375138282775879e-02
-1.171204000711441040e-01
-9.058672189712524414e-01
1.960056424140930176e-01
-2.639725506305694580e-01
-2.747782468795776367e-01
-1.205510720610618591e-01
7.525429725646972656e-01
-7.841138839721679688e-01
-7.587974071502685547e-01
-7.972967624664306641e-02
1.506462097167968750e-01
-6.426145434379577637e-01
6.579453498125076294e-02
-4.588134959340095520e-02
2.679116129875183105e-01
5.289977192878723145e-01
1.428165435791015625e-01
1.260355710983276367e-01
-3.858415484428405762e-01
-2.181540131568908691e-01
-1.103584934026002884e-02
-1.191757321357727051e-01
-3.921471536159515381e-01
1.398506164550781250e-01
-2.621416151523590088e-01
3.017492592334747314e-01
5.850212574005126953e-01
-1.648082584142684937e-01
-4.241434857249259949e-02
1.863130182027816772e-01
8.743697404861450195e-01
2.789504826068878174e-01
-2.372910976409912109e-01
-2.164781987667083740e-01
8.955313563346862793e-01
8.122479915618896484e-02
-8.134922385215759277e-01
3.007781803607940674e-01
7.529286146163940430e-01
-1.037634089589118958e-01
6.999663710594177246e-01
