# 60 60
-6.781022548675537109e-01 2.591834366321563721e-01 5.880280211567878723e-02 -2.757525742053985596e-01 3.124418854713439941e-01 -2.505072355270385742e-01 -2.881585806608200073e-02 -2.385303005576133728e-02 2.070903591811656952e-02 1.037501096725463867e-01 2.962233126163482666e-01 -2.434521764516830444e-01 -8.532729744911193848e-02 -1.728729158639907837e-01 1.841538958251476288e-02 9.009025245904922485e-02 1.252514421939849854e-01 -9.106780290603637695e-01 6.573481112718582153e-02 2.178458273410797119e-01 -1.050370112061500549e-01 -2.509876191616058350e-01 -7.359503507614135742e-01 -6.359921693801879883e-01 2.739263474941253662e-01 2.407748997211456299e-01 2.027143836021423340e-01 -3.556815683841705322e-01 -4.368425160646438599e-02 -9.619309753179550171e-02 7.312513142824172974e-02 1.194009780883789062e-01 -2.855844199657440186e-01 7.818505167961120605e-01 2.535703778266906738e-01 -2.369724810123443604e-01 -2.085281312465667725e-01 -3.311016410589218140e-02 -7.100410461425781250e-01 -8.659476786851882935e-02 9.210861474275588989e-02 2.012645639479160309e-02 -2.151342034339904785e-01 -7.686190605163574219e-01 3.498880937695503235e-02 7.351936399936676025e-02 -1.351485848426818848e-01 -5.912875011563301086e-02 4.537913799285888672e-01 4.940183758735656738e-01 7.102324068546295166e-02 -8.838455379009246826e-02 -4.230137914419174194e-02 3.940408229827880859e-01 -2.757948040962219238e-01 -8.031181246042251587e-02 8.983936309814453125e-01 2.930281460285186768e-01 4.419253766536712646e-02 2.585749626159667969e-01
-4.208859801292419434e-01 -4.670300334692001343e-02 5.324618339538574219e+00 3.215909898281097412e-01 -3.237365484237670898e-01 1.701063662767410278e-01 -1.136482730507850647e-01 3.148031234741210938e-01 1.061919704079627991e-01 4.720678031444549561e-01 -3.102057576179504395e-01 2.286679297685623169e-01 7.773730903863906860e-02 1.795282214879989624e-01 1.943167597055435181e-01 3.032421879470348358e-02 -8.660023659467697144e-02 -2.631503641605377197e-01 3.101960718631744385e-01 2.448730915784835815e-02 9.014698117971420288e-02 -1.583155840635299683e-01 -5.109992027282714844e-01 -7.490128278732299805e-02 -2.524814009666442871e-01 -6.133774518966674805e-01 -3.579852879047393799e-01 6.832368969917297363e-01 -2.686926126480102539e-01 -6.807475537061691284e-02 -1.396921724081039429e-01 6.383425742387771606e-02 -8.381295949220657349e-02 4.132477343082427979e-01 2.093723565340042114e-01 3.298226892948150635e-01 6.373486667871475220e-02 4.811037331819534302e-02 -3.295621573925018311e-01 5.862340331077575684e-02 -2.128235101699829102e-01 8.534429669380187988e-01 1.613049656152725220e-01 -3.133187890052795410e-01 6.148179620504379272e-02 -2.641358137130737305e+00 -9.735622256994247437e-02 -3.072817325592041016e-01 9.778246283531188965e-02 -2.003129273653030396e-01 2.149221599102020264e-01 -2.927931547164916992e-01 -2.889594249427318573e-02 -2.753127515316009521e-01 2.122892439365386963e-01 -1.501166820526123047e-01 4.119029641151428223e-01 -6.267332434654235840e-01 -2.324454784393310547e-01 -4.383142590522766113e-01
4.770022332668304443e-01 -1.859079152345657349e-01 2.004859149456024170e-01 1.303496211767196655e-01 -3.465494811534881592e-01 -8.983373641967773438e-02 -1.504968851804733276e-01 6.187594681978225708e-02 6.446173787117004395e-02 -1.859604865312576294e-01 3.491672500967979431e-02 -6.738795898854732513e-03 3.740626573562622070e-02 3.935880959033966064e-03 -1.961605101823806763e-01 -1.752821654081344604e-01 3.847272321581840515e-02 5.568894743919372559e-01 -3.492553159594535828e-02 4.624402895569801331e-02 5.510230660438537598e-01 1.137833297252655029e-01 8.513075709342956543e-01 7.170298695564270020e-01 -2.071785479784011841e-01 -3.123119771480560303e-01 6.581941246986389160e-02 4.151289165019989014e-01 -1.262788427993655205e-03 4.413669183850288391e-02 -1.923878341913223267e-01 3.105984032154083252e-01 4.185346364974975586e-01 -6.772032380104064941e-01 -1.101637035608291626e-01 -1.515232473611831665e-01 -5.214473232626914978e-02 2.150240242481231689e-01 8.464223146438598633e-01 -1.638203393667936325e-03 -1.920940428972244263e-01 1.313993334770202637e-01 -4.509076476097106934e-02 8.193355798721313477e-01 -1.443212479352951050e-01 -2.506400831043720245e-02 3.045246899127960205e-01 -2.977866306900978088e-02 -5.240573287010192871e-01 -5.124238133430480957e-01 1.838306486606597900e-01 -2.070527672767639160e-01 -1.842806041240692139e-01 -3.819484710693359375e-01 -1.589743606746196747e-02 1.443685293197631836e-01 -5.868818163871765137e-01 -1.854281127452850342e-02 3.083902411162853241e-02 -5.184304714202880859e-02
2.451932668685913086e+00 1.876300387084484100e-02 7.724405080080032349e-02 -1.369515359401702881e-01 -2.695842683315277100e-01 9.126247465610504150e-02 -1.594172120094299316e-01 3.687978386878967285e-01 6.380427628755569458e-02 -1.339492350816726685e-01 1.079753115773200989e-01 3.100605010986328125e-01 4.341601133346557617e-01 2.139052841812372208e-03 -2.057585120201110840e-02 2.183626294136047363e-01 -1.314489990472793579e-01 2.455368041992187500e+00 2.916257381439208984e-01 -3.129680827260017395e-02 1.491109877824783325e-01 1.431268602609634399e-01 2.115648031234741211e+00 2.026421308517456055e+00 -2.404492348432540894e-01 -1.535687297582626343e-01 -1.073832064867019653e-01 -1.527375280857086182e-01 -2.226900309324264526e-01 1.161578074097633362e-01 -2.880563437938690186e-01 8.810307085514068604e-02 8.702456206083297729e-02 -2.498137474060058594e+00 1.843745261430740356e-01 2.037996500730514526e-01 1.300986707210540771e-01 -1.945319771766662598e-01 2.386992692947387695e+00 2.096674442291259766e-01 -1.246270537376403809e-01 -4.369828104972839355e-01 9.732089936733245850e-02 2.228896617889404297e+00 1.801155060529708862e-01 6.751740723848342896e-02 4.123184978961944580e-01 4.602912068367004395e-02 -9.665118455886840820e-01 -3.418844342231750488e-01 2.471620962023735046e-02 -2.540235221385955811e-01 8.195084333419799805e-02 -1.826762557029724121e-01 6.833326071500778198e-02 -2.326515465974807739e-01 -2.085392475128173828e+00 -9.341339021921157837e-02 -2.646358013153076172e-01 -1.771152019500732422e-01
-4.706159234046936035e-01 -2.766115069389343262e-01 4.201377391815185547e+00 3.397801518440246582e-01 -5.968388915061950684e-01 1.320027858018875122e-01 -1.977792941033840179e-02 4.753793776035308838e-01 2.982270121574401855e-01 6.587411761283874512e-01 -2.713722586631774902e-01 4.104844033718109131e-01 7.409239560365676880e-02 1.240830402821302414e-02 6.248540058732032776e-02 -1.468833088874816895e-01 -1.655788868665695190e-01 -4.327414631843566895e-01 2.378411740064620972e-01 5.252184346318244934e-02 3.407512903213500977e-01 -3.614846765995025635e-01 -3.333661854267120361e-01 -2.643540501594543457e-01 -3.513787686824798584e-01 -2.927460074424743652e-01 -1.954194009304046631e-01 6.721568107604980469e-01 -7.840913534164428711e-02 1.652776747941970825e-01 -1.860963106155395508e-01 1.031741052865982056e-01 3.906233608722686768e-02 2.551394999027252197e-01 1.825516223907470703e-01 3.542146384716033936e-01 1.772618144750595093e-01 -1.725768893957138062e-01 -7.041521370410919189e-02 -1.020795851945877075e-01 -2.214789092540740967e-01 1.040761947631835938e+00 3.061261475086212158e-01 -2.602814435958862305e-01 1.244882941246032715e-01 -2.561361312866210938e+00 -7.910671085119247437e-02 -2.193200737237930298e-01 9.446628391742706299e-02 -3.800541162490844727e-01 4.177235811948776245e-02 -3.531647026538848877e-01 -3.563741594552993774e-02 -2.403680682182312012e-01 2.763546109199523926e-01 -3.668688833713531494e-01 1.965944096446037292e-02 -5.248794555664062500e-01 2.497194707393646240e-02 -4.093094468116760254e-01
-1.421345919370651245e-01 5.898205041885375977e-01 1.421914219856262207e+00 2.158111810684204102e+00 -2.477430820465087891e+00 -3.767637163400650024e-02 8.092126250267028809e-01 -3.650508821010589600e-01 5.976958200335502625e-02 6.890319585800170898e-01 -1.733761429786682129e+00 -3.938186466693878174e-01 7.380413264036178589e-02 -7.893016338348388672e-01 7.036948204040527344e-01 -1.025849938392639160e+00 -9.391737729310989380e-02 -3.436235189437866211e-01 -8.293108940124511719e-01 8.221257925033569336e-01 2.080347061157226562e+00 -5.043917894363403320e-01 -7.444019895046949387e-03 -6.952413916587829590e-02 7.924045920372009277e-01 -2.899853229522705078e+00 2.709039486944675446e-02 2.944157838821411133e+00 6.834654808044433594e-01 -4.575448334217071533e-01 -5.493596196174621582e-02 -4.970169961452484131e-01 1.229693554341793060e-02 3.192468285560607910e-01 8.398021757602691650e-02 -8.141068220138549805e-01 -6.979551315307617188e-01 7.016804814338684082e-02 -4.413537681102752686e-02 -7.466402053833007812e-01 7.133740186691284180e-01 8.221329450607299805e-01 -7.090485095977783203e-01 -2.200505733489990234e-01 -1.026745080947875977e+00 -8.731703162193298340e-01 -3.140880763530731201e-01 8.251481652259826660e-01 3.209816813468933105e-01 -2.361961364746093750e+00 -6.301832199096679688e-01 8.330120444297790527e-01 8.575949668884277344e-01 -1.885365366935729980e+00 -6.047967672348022461e-01 2.576802968978881836e-01 1.750205010175704956e-01 -2.683034181594848633e+00 4.786935150623321533e-01 -2.219834327697753906e+00
3.088535368442535400e-01 -1.525586545467376709e-01 -1.677951574325561523e+00 -6.252886056900024414e-01 5.670939087867736816e-01 -4.014708474278450012e-02 -4.213605523109436035e-01 -4.010496437549591064e-01 -1.786101609468460083e-01 -1.045894980430603027e+00 8.607960343360900879e-01 -1.657928079366683960e-01 -1.646124124526977539e-01 5.635457858443260193e-02 -3.237267136573791504e-01 4.070567488670349121e-01 -1.014513894915580750e-01 3.837485015392303467e-01 1.837747395038604736e-01 -2.109983861446380615e-01 -4.994292557239532471e-01 4.917986392974853516e-01 1.849544048309326172e-01 3.277653157711029053e-01 -4.630283713340759277e-01 8.880372047424316406e-01 3.727869093418121338e-01 -9.129646420478820801e-01 -1.348298937082290649e-01 1.004172489047050476e-01 3.604325652122497559e-01 9.745763242244720459e-02 9.341420978307723999e-02 -2.283471077680587769e-01 -2.386548519134521484e-01 3.552776277065277100e-01 1.493166685104370117e-01 2.173816859722137451e-01 1.267401222139596939e-02 2.297121286392211914e-01 -3.322462141513824463e-01 -1.397568106651306152e+00 4.150382578372955322e-01 2.030686661601066589e-02 3.337329626083374023e-01 1.215489983558654785e+00 3.200813531875610352e-01 -1.453035473823547363e-01 -1.059338152408599854e-01 4.656748771667480469e-01 3.977223038673400879e-01 -4.623003005981445312e-01 -1.766457706689834595e-01 1.642894446849822998e-01 1.806756108999252319e-01 2.067233324050903320e-01 -1.187114268541336060e-01 6.663376688957214355e-01 -2.039320319890975952e-01 7.774258852005004883e-01
4.018297195434570312e-01 -3.477598726749420166e-01 1.982351690530776978e-01 3.979009687900543213e-01 -3.818071782588958740e-01 -5.901804566383361816e-01 -5.385966598987579346e-02 -6.023035049438476562e-01 -6.643095612525939941e-01 3.421963751316070557e-01 -1.405687779188156128e-01 -8.058279752731323242e-01 -6.834173202514648438e-01 -1.080463826656341553e-02 4.222965613007545471e-02 -7.368814945220947266e-02 5.186284780502319336e-01 3.381552994251251221e-01 1.733062118291854858e-01 -8.356630802154541016e-02 4.708411991596221924e-01 -3.505583405494689941e-01 3.051420152187347412e-01 6.472119688987731934e-02 -1.435577273368835449e-01 -5.827021598815917969e-01 6.895484924316406250e-01 6.127862930297851562e-01 -2.642195522785186768e-01 9.339161962270736694e-02 7.500994801521301270e-01 3.195137381553649902e-01 3.665751814842224121e-01 -3.650090396404266357e-01 -3.265818059444427490e-01 -1.509747933596372604e-02 2.689633071422576904e-01 1.774685382843017578e-01 4.137804210186004639e-01 3.318432271480560303e-01 -1.785654872655868530e-01 3.596996963024139404e-01 2.086978554725646973e-01 1.452701836824417114e-01 1.316550970077514648e-01 -3.366796672344207764e-01 2.681024372577667236e-01 -3.153403401374816895e-01 -3.608388304710388184e-01 -4.560985565185546875e-01 1.522950679063796997e-01 -2.106174826622009277e-01 -7.748430967330932617e-02 -5.405269861221313477e-01 9.166619181632995605e-02 6.778979301452636719e-01 -2.308098971843719482e-01 -6.112272739410400391e-01 -3.200792372226715088e-01 -5.390068292617797852e-01
3.151369392871856689e-01 8.550279587507247925e-02 -1.990025281906127930e+00 -2.561127841472625732e-01 5.434918999671936035e-01 -5.306661128997802734e-01 -2.004363536834716797e-01 -2.852358520030975342e-01 -2.666885852813720703e-01 -9.542014002799987793e-01 5.384169816970825195e-01 -6.208157539367675781e-01 -5.332583934068679810e-02 1.123815774917602539e-01 -1.500783860683441162e-01 2.156569957733154297e-01 3.049055039882659912e-01 2.911208271980285645e-01 -1.433777064085006714e-01 -2.224704623222351074e-01 -8.826604485511779785e-02 -1.050485372543334961e-01 7.810387015342712402e-02 1.162507832050323486e-01 -5.141571536660194397e-02 5.611869692802429199e-01 4.437212049961090088e-01 -5.926546454429626465e-01 -1.132068857550621033e-01 1.355925053358078003e-01 1.389884203672409058e-01 -7.423312962055206299e-02 1.211681142449378967e-01 -2.178903967142105103e-01 -8.375275135040283203e-02 -8.285277336835861206e-02 1.565988212823867798e-01 3.445186614990234375e-01 2.525407969951629639e-01 9.970198385417461395e-03 -4.656293988227844238e-02 -2.037566184997558594e+00 -1.759405136108398438e-01 3.257260918617248535e-01 2.046112418174743652e-01 1.665244221687316895e+00 2.417031824588775635e-01 -1.640602648258209229e-01 -3.691484630107879639e-01 2.458694577217102051e-01 -2.569107571616768837e-03 1.619389653205871582e-01 -5.006099864840507507e-02 5.213350430130958557e-02 2.984467446804046631e-01 4.776656329631805420e-01 -1.439890861511230469e-01 6.272380352020263672e-01 1.704074293375015259e-01 4.146473705768585205e-01
-7.212658524513244629e-01 2.681682109832763672e-01 -2.770634740591049194e-02 -1.819658428430557251e-01 -6.094162538647651672e-02 3.269585967063903809e-01 1.141410246491432190e-01 -1.006744652986526489e-01 2.545396387577056885e-01 -3.386220708489418030e-02 -8.040762692689895630e-02 1.398400813341140747e-01 1.640471816062927246e-01 3.963170945644378662e-02 -7.023391127586364746e-02 -1.024598106741905212e-01 -3.849675655364990234e-01 -5.730629563331604004e-01 -3.055869340896606445e-01 1.651307195425033569e-01 -4.624471068382263184e-01 -3.541810810565948486e-02 -5.270082950592041016e-01 -7.233358621597290039e-01 -7.320678234100341797e-02 1.289550811052322388e-01 -1.049525737762451172e-01 -2.417032867670059204e-01 1.708804965019226074e-01 -1.498678624629974365e-01 -5.482382699847221375e-02 -5.256357416510581970e-02 -2.180019915103912354e-01 4.815663397312164307e-01 2.417373806238174438e-01 -1.854360401630401611e-01 -1.985856890678405762e-02 -6.556767225265502930e-02 -3.400509655475616455e-01 -2.658722698688507080e-01 5.950606986880302429e-02 4.300250113010406494e-02 -1.102650463581085205e-01 -4.123127460479736328e-01 1.384735703468322754e-01 6.148786842823028564e-02 -2.127480953931808472e-01 1.893840134143829346e-01 3.830935359001159668e-01 1.453362852334976196e-01 -1.002819538116455078e-01 2.196798920631408691e-01 2.160241268575191498e-02 4.187931418418884277e-01 -1.823404431343078613e-01 8.235875517129898071e-02 7.188630104064941406e-01 5.195894464850425720e-02 -3.236347064375877380e-02 2.360951453447341919e-01
2.330397218465805054e-01 -5.897090435028076172e-01 -1.411809086799621582e+00 -3.794731140136718750e+00 3.850143909454345703e+00 -2.152828872203826904e-01 -6.773936748504638672e-01 1.293743550777435303e-01 -1.095687597990036011e-01 -8.146132230758666992e-01 1.540011286735534668e+00 -2.630109786987304688e-01 6.362449377775192261e-02 4.489377140998840332e-01 -6.285718679428100586e-01 4.158363342285156250e-01 1.653128862380981445e-01 3.266781270503997803e-01 4.658013880252838135e-01 -4.332203567028045654e-01 -1.388365149497985840e+00 8.426487445831298828e-01 3.091392517089843750e-01 2.001682370901107788e-01 -5.337212681770324707e-01 3.830100059509277344e+00 -1.276943236589431763e-01 -4.362605094909667969e+00 -6.301946640014648438e-01 6.304212808609008789e-01 2.288895398378372192e-01 6.801518797874450684e-01 2.005000859498977661e-01 -3.683344423770904541e-01 4.039758071303367615e-02 6.251981854438781738e-01 7.189300060272216797e-01 -1.269974857568740845e-01 2.706791460514068604e-01 2.821605801582336426e-01 -6.734148263931274414e-01 -9.382608532905578613e-01 6.015483140945434570e-01 -5.599590763449668884e-02 7.493032217025756836e-01 9.863818287849426270e-01 9.512995183467864990e-02 -6.806505918502807617e-01 -4.086513444781303406e-02 2.388552665710449219e+00 3.021453022956848145e-01 -4.017415046691894531e-01 -3.162724971771240234e-01 8.086125850677490234e-01 5.969086885452270508e-01 -2.129966579377651215e-02 -1.914165765047073364e-01 3.908478736877441406e+00 -4.995854794979095459e-01 3.874660491943359375e+00
-2.087806701660156250e+00 2.243956625461578369e-01 -1.262311730533838272e-02 -1.580251753330230713e-01 2.880842983722686768e-01 -4.353874921798706055e-01 2.953583002090454102e-01 -3.055910766124725342e-01 -2.797607779502868652e-01 1.531814783811569214e-01 -9.568913280963897705e-02 -5.761218070983886719e-02 -8.201254904270172119e-02 -2.127056121826171875e-01 7.236217707395553589e-02 4.510732740163803101e-02 2.839477658271789551e-01 -2.122888803482055664e+00 -2.933520078659057617e-01 1.370882056653499603e-02 -2.005923241376876831e-01 -2.555148005485534668e-01 -2.067556858062744141e+00 -1.704376935958862305e+00 6.985787302255630493e-02 1.253556162118911743e-01 3.430517017841339111e-01 -1.450503319501876831e-01 -8.771024644374847412e-02 -3.003062605857849121e-01 2.193512469530105591e-01 7.292126119136810303e-02 -4.662935808300971985e-02 1.950931668281555176e+00 -2.623329460620880127e-01 -2.445982098579406738e-01 -7.399167120456695557e-02 3.314698040485382080e-01 -2.065249443054199219e+00 -3.058225475251674652e-02 2.206813693046569824e-01 -4.413703083992004395e-02 -2.139035314321517944e-01 -1.986936450004577637e+00 -2.842658460140228271e-01 -2.261687070131301880e-01 -2.804609835147857666e-01 3.781175240874290466e-02 6.133697628974914551e-01 1.433263421058654785e-01 -3.095151185989379883e-01 2.816344238817691803e-02 1.337326914072036743e-01 2.417889535427093506e-01 -8.373639732599258423e-02 2.361542880535125732e-01 1.983647823333740234e+00 6.351013481616973877e-02 3.416371941566467285e-01 2.711951732635498047e-01
-1.724008023738861084e-01 -5.456037521362304688e-01 -7.726905345916748047e-01 -9.687616825103759766e-01 1.043736100196838379e+00 6.978140473365783691e-01 -2.559964954853057861e-01 6.760120987892150879e-01 3.579207956790924072e-01 -4.797320663928985596e-01 6.044452190399169922e-01 8.173300027847290039e-01 3.175643086433410645e-01 5.481506586074829102e-01 1.096303462982177734e-01 -1.501578092575073242e-01 -1.445309221744537354e-01 8.362074941396713257e-02 1.701306924223899841e-02 -5.342576503753662109e-01 -1.290615558624267578e+00 3.845767080783843994e-01 -7.479563355445861816e-02 -1.462110280990600586e-01 -4.480360150337219238e-01 1.334124565124511719e+00 -5.777010321617126465e-01 -1.261191964149475098e+00 -4.519825279712677002e-01 -2.146578580141067505e-02 -1.100601553916931152e-01 2.773588597774505615e-01 1.424244139343500137e-03 6.536290049552917480e-02 3.309980332851409912e-01 2.500551640987396240e-01 2.927933037281036377e-01 -1.938150972127914429e-01 -3.443108871579170227e-02 2.078782767057418823e-01 -1.274912506341934204e-01 -4.579711258411407471e-01 3.617517948150634766e-01 -2.066700905561447144e-01 9.596214443445205688e-02 5.574367046356201172e-01 1.199587658047676086e-01 -3.010338544845581055e-01 -8.018644293770194054e-04 1.235085248947143555e+00 4.729968011379241943e-01 -7.137824892997741699e-01 -4.888698458671569824e-01 1.238222956657409668e+00 4.764043688774108887e-01 -6.937850713729858398e-01 2.803526818752288818e-01 9.171627759933471680e-01 -3.252153098583221436e-01 1.178582549095153809e+00
1.148613452911376953e+00 -1.153531577438116074e-02 7.361326366662979126e-02 1.083139106631278992e-01 -2.350632399320602417e-01 3.074221611022949219e-01 -4.959949105978012085e-02 1.738905906677246094e-01 -4.102858528494834900e-02 -2.388321459293365479e-01 -1.201220788061618805e-02 2.220694869756698608e-01 3.170649111270904541e-01 1.415566653013229370e-01 -2.798124849796295166e-01 -1.296229511499404907e-01 -2.857392728328704834e-01 1.132598519325256348e+00 8.407439291477203369e-02 -1.345831751823425293e-01 2.474597394466400146e-01 -1.067955791950225830e-01 1.118769764900207520e+00 7.020980715751647949e-01 -5.251611582934856415e-03 -2.820162475109100342e-01 -1.387381851673126221e-01 1.097876578569412231e-01 -1.777427345514297485e-01 -7.587309926748275757e-02 -1.315670758485794067e-01 -7.890459895133972168e-02 6.586783379316329956e-02 -9.219433665275573730e-01 1.305017769336700439e-01 -7.242569327354431152e-02 -7.084167003631591797e-02 -8.867477066814899445e-03 8.541623950004577637e-01 -1.448269486427307129e-01 -1.998628675937652588e-01 -2.821973562240600586e-01 6.085079163312911987e-02 9.616265296936035156e-01 1.419496387243270874e-01 1.710984855890274048e-01 5.496383309364318848e-01 -1.344621181488037109e-01 -6.758723855018615723e-01 -4.943266510963439941e-02 7.254019379615783691e-02 -1.821637302637100220e-01 -1.303804367780685425e-01 -3.633950650691986084e-01 2.388003095984458923e-02 -3.428865596652030945e-02 -8.375748395919799805e-01 -2.854889035224914551e-01 -1.771137267351150513e-01 1.474835127592086792e-01
4.026618301868438721e-01 4.629252254962921143e-01 -3.887962102890014648e+00 -4.849784076213836670e-01 4.874346852302551270e-01 1.157136284746229649e-03 3.756844401359558105e-01 -2.709231078624725342e-01 -6.725633889436721802e-02 -9.261191487312316895e-01 3.773814141750335693e-01 -3.165024816989898682e-01 2.371769212186336517e-02 -4.574670791625976562e-01 -6.099902093410491943e-02 1.518001705408096313e-01 -3.101849742233753204e-02 3.948205709457397461e-01 -1.170881185680627823e-02 4.150196909904479980e-01 -1.594895124435424805e-01 -4.885074123740196228e-02 5.026536583900451660e-01 3.447597026824951172e-01 4.315897226333618164e-01 4.482488036155700684e-01 -2.530734054744243622e-02 -5.180723071098327637e-01 1.507606636732816696e-02 -2.585858106613159180e-01 2.954587042331695557e-01 -3.001498281955718994e-01 1.719450950622558594e-01 -4.213376641273498535e-01 -9.810873866081237793e-02 -1.611979603767395020e-01 -4.508911669254302979e-01 8.819337934255599976e-02 1.502294838428497314e-01 -3.541559576988220215e-01 1.742436289787292480e-01 -7.074956297874450684e-01 -4.084026813507080078e-01 2.852879762649536133e-01 8.938633650541305542e-02 1.998883724212646484e+00 2.615425586700439453e-01 1.681051850318908691e-01 -2.295059859752655029e-01 2.775908708572387695e-01 -2.512373626232147217e-01 3.690874278545379639e-01 8.508764952421188354e-02 2.874623239040374756e-01 -9.522836655378341675e-02 2.403650134801864624e-01 -4.725170731544494629e-01 4.946008622646331787e-01 -3.497682511806488037e-02 4.638929367065429688e-01
5.624240636825561523e-01 4.553071856498718262e-01 -3.571662187576293945e+00 -3.865029215812683105e-01 3.177124261856079102e-01 -1.544684022665023804e-01 1.834099441766738892e-01 2.711774082854390144e-03 -5.217986181378364563e-03 -9.634496569633483887e-01 2.333441525697708130e-01 -2.672061324119567871e-01 -1.281908154487609863e-01 -4.909713864326477051e-01 5.683911219239234924e-02 -5.506829544901847839e-02 -1.474673599004745483e-01 2.991341054439544678e-01 -2.013380527496337891e-01 1.716049015522003174e-01 -1.585640907287597656e-01 8.605956286191940308e-02 3.852056264877319336e-01 1.108903139829635620e-01 2.477730065584182739e-01 4.610811173915863037e-01 -7.837472856044769287e-02 -6.215241551399230957e-01 2.592734694480895996e-01 -2.192076444625854492e-01 1.419779509305953979e-01 -2.889390662312507629e-02 1.493402174673974514e-03 -2.815097868442535400e-01 -6.116832420229911804e-02 -7.311122864484786987e-02 -1.404630988836288452e-01 1.012622192502021790e-02 5.019161701202392578e-01 8.444020524621009827e-03 6.995690613985061646e-02 -6.250439882278442383e-01 -2.689769566059112549e-01 4.302702248096466064e-01 1.705929189920425415e-01 1.802079200744628906e+00 -1.333355344831943512e-02 1.659464389085769653e-01 -4.971546828746795654e-01 -3.285627812147140503e-02 -3.409747779369354248e-01 1.245360970497131348e-01 2.719967365264892578e-01 -9.543706476688385010e-02 1.668199449777603149e-01 2.465568035840988159e-01 -5.388234853744506836e-01 2.152056992053985596e-01 2.137194424867630005e-01 4.273043274879455566e-01
3.178379535675048828e-01 -5.899515748023986816e-01 -1.230322957038879395e+00 -2.150325059890747070e+00 1.818210601806640625e+00 -6.371808797121047974e-02 -6.769092082977294922e-01 1.449673715978860855e-02 8.620499819517135620e-02 -6.896604895591735840e-01 1.949053168296813965e+00 9.172784537076950073e-02 1.967311799526214600e-01 4.526197314262390137e-01 -4.924250543117523193e-01 6.115919351577758789e-01 -1.825714558362960815e-01 -5.123135447502136230e-02 4.864555299282073975e-01 -6.593002080917358398e-01 -1.672055840492248535e+00 2.925184667110443115e-01 6.457947939634323120e-02 2.763200700283050537e-01 -4.971510767936706543e-01 2.438078641891479492e+00 -4.197929799556732178e-02 -2.791106939315795898e+00 -4.763995707035064697e-01 8.077425360679626465e-01 -1.617497950792312622e-01 4.974062740802764893e-01 3.206302523612976074e-01 -2.108349353075027466e-01 1.883249613456428051e-03 8.351894021034240723e-01 6.688762307167053223e-01 5.550318583846092224e-02 7.421775162220001221e-02 4.628459811210632324e-01 -5.677084326744079590e-01 -5.591033101081848145e-01 5.402055978775024414e-01 3.280135095119476318e-01 9.220988750457763672e-01 7.121686339378356934e-01 4.303771257400512695e-02 -5.445758700370788574e-01 -2.915419936180114746e-01 1.592421650886535645e+00 7.173518538475036621e-01 -5.852516293525695801e-01 -8.391852378845214844e-01 1.085270524024963379e+00 5.064350962638854980e-01 7.661826163530349731e-02 -8.692719042301177979e-03 2.061389446258544922e+00 -5.989444255828857422e-01 1.930724382400512695e+00
1.274558663368225098e+00 1.052482351660728455e-01 -1.610738486051559448e-01 3.558889329433441162e-01 -2.512896656990051270e-01 1.945961862802505493e-01 -1.560921669006347656e-01 2.076007276773452759e-01 3.304970860481262207e-01 -2.888732552528381348e-01 -2.144083827733993530e-01 2.259526699781417847e-01 1.679314225912094116e-01 -1.886837370693683624e-02 3.790595754981040955e-02 -2.336622476577758789e-01 1.269197277724742889e-02 1.032790303230285645e+00 1.299289464950561523e-01 -1.942227482795715332e-01 4.768323898315429688e-01 -1.391859799623489380e-01 1.307117342948913574e+00 1.043962717056274414e+00 -1.684981137514114380e-01 -2.396559417247772217e-01 -1.444582939147949219e-01 1.839446276426315308e-01 -5.345259606838226318e-02 -1.688026189804077148e-01 -2.677334547042846680e-01 1.229356676340103149e-01 1.133626177906990051e-01 -9.320002794265747070e-01 2.882327735424041748e-01 1.602206826210021973e-01 -1.503962092101573944e-02 -1.087846979498863220e-01 8.659974932670593262e-01 -9.727124869823455811e-02 -2.716524526476860046e-02 1.628190428018569946e-01 2.733886837959289551e-01 9.163248538970947266e-01 2.128142416477203369e-01 -2.405192703008651733e-01 3.933937549591064453e-01 -1.755231022834777832e-01 -5.602484345436096191e-01 -4.191412925720214844e-01 2.313038408756256104e-01 -1.056975573301315308e-01 -2.574983239173889160e-01 -2.804646492004394531e-01 4.348278418183326721e-02 -1.762873381376266479e-01 -1.064349293708801270e+00 -4.833041429519653320e-01 1.007523015141487122e-01 -2.054090052843093872e-01
9.437344670295715332e-01 6.368194520473480225e-02 -2.743884027004241943e-01 1.871086210012435913e-01 -2.844441235065460205e-01 4.578198119997978210e-02 1.193367391824722290e-01 3.906023800373077393e-01 1.443138569593429565e-01 -2.727535665035247803e-01 7.747085392475128174e-02 3.823549151420593262e-01 3.301296010613441467e-02 1.399398893117904663e-01 -2.246383428573608398e-01 5.096379667520523071e-02 -2.587392032146453857e-01 1.094554543495178223e+00 1.538280397653579712e-01 -1.791151612997055054e-02 2.853822708129882812e-01 1.708522625267505646e-02 1.105266332626342773e+00 7.926623821258544922e-01 9.377030283212661743e-02 -2.883789539337158203e-01 -1.668683290481567383e-01 6.517067085951566696e-03 -1.896641552448272705e-01 -4.790546000003814697e-02 -2.823677659034729004e-01 2.290849685668945312e-01 1.880903095006942749e-01 -9.416472911834716797e-01 3.780769705772399902e-01 1.014207396656274796e-02 1.917249262332916260e-01 -2.213643491268157959e-01 1.147660851478576660e+00 -1.604515761137008667e-01 8.720255643129348755e-02 -3.326613903045654297e-01 -1.040376946330070496e-01 8.226429820060729980e-01 -5.316629633307456970e-02 -8.343619108200073242e-02 2.205922454595565796e-01 -2.420903593301773071e-01 -7.332061529159545898e-01 -2.995568811893463135e-01 9.323181211948394775e-02 9.891837835311889648e-02 4.469367861747741699e-02 -1.820991635322570801e-01 8.679894357919692993e-02 -3.372332155704498291e-01 -1.007937550544738770e+00 -1.632040739059448242e-01 1.015989705920219421e-01 3.204329172149300575e-03
1.375377297401428223e+00 -1.554000526666641235e-01 -5.721249431371688843e-02 -7.452169805765151978e-02 -1.216625273227691650e-01 3.331831097602844238e-01 -1.680556833744049072e-01 2.249125093221664429e-01 3.730561733245849609e-01 -2.293902449309825897e-02 -8.428013324737548828e-02 1.422307640314102173e-01 1.687985956668853760e-01 1.646601855754852295e-01 -2.516371309757232666e-01 1.533164978027343750e-01 -2.388036996126174927e-01 1.093892931938171387e+00 -1.025265380740165710e-01 -1.788027584552764893e-02 1.954649984836578369e-01 -8.526371419429779053e-02 1.003032803535461426e+00 1.167330980300903320e+00 -2.487542778253555298e-01 -8.425825275480747223e-03 -2.913058102130889893e-01 8.172965049743652344e-02 1.862030476331710815e-01 -3.963920846581459045e-02 -3.686059713363647461e-01 2.812021411955356598e-03 2.502086460590362549e-01 -1.391767621040344238e+00 1.360192745923995972e-01 -3.407834470272064209e-02 2.463898211717605591e-01 -3.215120136737823486e-01 1.320909142494201660e+00 2.279352694749832153e-01 4.200530424714088440e-02 -6.800262629985809326e-02 1.075034886598587036e-01 1.045871257781982422e+00 -1.237608790397644043e-01 2.693968415260314941e-01 5.039756894111633301e-01 8.982006460428237915e-02 -8.047863245010375977e-01 -1.469781249761581421e-01 5.166231840848922729e-02 2.600636519491672516e-02 3.875555470585823059e-02 -3.302290141582489014e-01 -7.418474648147821426e-03 -3.354479670524597168e-01 -1.241227626800537109e+00 -3.351829200983047485e-02 -2.219953685998916626e-01 -1.491436362266540527e-01
-3.792127668857574463e-01 -3.555366992950439453e-01 6.227943897247314453e+00 4.832638800144195557e-01 -2.305637598037719727e-01 1.728914529085159302e-01 -4.487657248973846436e-01 3.766355514526367188e-01 1.352939009666442871e-01 5.802265405654907227e-01 -3.112252801656723022e-02 2.918452620506286621e-01 9.289573878049850464e-02 1.357079595327377319e-01 2.000950463116168976e-02 1.019218936562538147e-01 -1.589039713144302368e-01 -3.270477354526519775e-01 6.851620227098464966e-02 -2.901172637939453125e-01 1.616953611373901367e-01 -1.880555897951126099e-01 -3.717649579048156738e-01 -3.514147698879241943e-01 -5.366269126534461975e-02 -5.048762559890747070e-01 -3.231572508811950684e-01 6.640537381172180176e-01 -1.176325604319572449e-02 1.149895042181015015e-01 4.926238954067230225e-02 -5.426615010946989059e-03 -1.817649751901626587e-01 2.022989690303802490e-01 2.553427591919898987e-03 4.861213639378547668e-02 1.118932366371154785e-01 8.656420395709574223e-04 -4.652355611324310303e-01 5.847818683832883835e-03 -1.585520207881927490e-01 4.849342703819274902e-01 1.259264815598726273e-02 -3.535724580287933350e-01 1.436688750982284546e-01 -2.863795518875122070e+00 -2.004205733537673950e-01 -1.307985000312328339e-02 5.673535913228988647e-02 -2.863419950008392334e-01 1.552855670452117920e-01 -5.441563576459884644e-02 -1.885548532009124756e-01 -3.552165031433105469e-01 -1.694964915513992310e-01 -3.866313993930816650e-01 3.611053526401519775e-01 -3.559356629848480225e-01 -1.280833035707473755e-01 -4.459672570228576660e-01
-1.825242638587951660e+00 1.626247167587280273e-01 3.142977058887481689e-01 6.990036368370056152e-02 1.855376958847045898e-01 -4.486108720302581787e-01 2.119547277688980103e-01 -3.114756345748901367e-01 -2.289861440658569336e-01 -6.591192446649074554e-03 -1.560495048761367798e-01 -2.359137535095214844e-01 -9.144325554370880127e-02 -2.027581185102462769e-01 -8.409191668033599854e-02 -6.769999116659164429e-02 2.627024054527282715e-01 -1.598870873451232910e+00 3.683445602655410767e-02 8.326215296983718872e-02 -1.579236090183258057e-01 -3.030472099781036377e-01 -1.613504767417907715e+00 -1.555210113525390625e+00 -2.208994887769222260e-02 1.863415390253067017e-01 2.235941886901855469e-01 -1.591750532388687134e-01 2.119413316249847412e-01 -1.232770532369613647e-01 1.570778191089630127e-01 -1.200206577777862549e-01 3.404159843921661377e-02 1.952325820922851562e+00 -2.154963165521621704e-01 -1.745740324258804321e-01 -2.296411246061325073e-01 3.358812034130096436e-01 -1.816293120384216309e+00 9.347636997699737549e-02 -1.244636103510856628e-01 1.162652298808097839e-02 -1.861152425408363342e-02 -1.707462549209594727e+00 -2.688276171684265137e-01 -2.755635976791381836e-01 -4.201517701148986816e-01 2.457758039236068726e-01 7.056983113288879395e-01 -6.653936207294464111e-02 -1.422021538019180298e-01 2.642599642276763916e-01 -9.605936706066131592e-02 1.444792300462722778e-01 -1.145298779010772705e-01 7.340997457504272461e-02 1.810941576957702637e+00 -1.530280411243438721e-01 8.546573668718338013e-02 8.714634180068969727e-02
2.773200035095214844e+00 1.740284115076065063e-01 -4.720791801810264587e-02 1.084940508008003235e-01 -1.013939455151557922e-01 4.263046681880950928e-01 4.142282530665397644e-03 4.290256202220916748e-01 3.680446445941925049e-01 -2.867202758789062500e-01 1.686389297246932983e-01 3.753380179405212402e-01 3.216770589351654053e-01 -9.528555721044540405e-02 4.306101799011230469e-02 1.342033743858337402e-01 -1.895635277032852173e-01 3.172785758972167969e+00 -3.875846276059746742e-03 -1.171901472844183445e-03 3.026078641414642334e-01 6.248477101325988770e-02 2.955652475357055664e+00 2.729151010513305664e+00 -1.474560499191284180e-01 2.417673468589782715e-01 -1.087137013673782349e-01 3.608079254627227783e-02 1.617948859930038452e-01 -1.072316169738769531e-01 -4.857360124588012695e-01 -1.813800632953643799e-01 1.347617506980895996e-01 -2.858452558517456055e+00 4.370477795600891113e-01 -1.271190121769905090e-02 8.744449168443679810e-02 -2.327902466058731079e-01 2.837106943130493164e+00 5.435917526483535767e-02 -1.249583065509796143e-01 -5.139642953872680664e-01 2.063722163438796997e-02 2.931854486465454102e+00 1.941795796155929565e-01 1.919360756874084473e-01 1.991666108369827271e-01 2.492212653160095215e-01 -1.117812991142272949e+00 -9.686937928199768066e-02 -1.967485100030899048e-01 -1.340706050395965576e-01 -1.232554540038108826e-01 2.380410209298133850e-02 2.304137498140335083e-01 -3.544169068336486816e-01 -2.816722154617309570e+00 4.775119945406913757e-02 3.225690871477127075e-02 4.059687256813049316e-03
-1.549717485904693604e-01 -7.097114324569702148e-01 -1.171624064445495605e+00 -3.253787040710449219e+00 3.007776021957397461e+00 3.829931020736694336e-01 -8.426171541213989258e-01 4.254644513130187988e-01 4.530678316950798035e-02 -6.304347515106201172e-01 1.433396697044372559e+00 3.524492681026458740e-01 1.337070949375629425e-02 8.309642076492309570e-01 -9.575886726379394531e-01 1.108020782470703125e+00 -3.029248304665088654e-02 2.159898728132247925e-02 7.899056077003479004e-01 -6.880016326904296875e-01 -2.356867313385009766e+00 1.348817199468612671e-01 -7.097177952527999878e-02 -1.029606461524963379e-01 -8.057498931884765625e-01 3.436896085739135742e+00 -6.670762300491333008e-01 -4.132454872131347656e+00 -8.357263803482055664e-01 9.042182564735412598e-01 -2.910650968551635742e-01 5.557398796081542969e-01 3.443301916122436523e-01 1.394257247447967529e-01 3.623428642749786377e-01 6.716187000274658203e-01 6.366320252418518066e-01 -2.894489765167236328e-01 1.055225506424903870e-01 9.275063872337341309e-01 -8.947251439094543457e-01 -4.116136729717254639e-01 8.311045169830322266e-01 -1.638737879693508148e-02 8.882393836975097656e-01 4.842162132263183594e-01 -6.736856698989868164e-02 -7.862549424171447754e-01 2.119258744642138481e-03 2.595265626907348633e+00 8.400620818138122559e-01 -8.910285830497741699e-01 -7.221648097038269043e-01 2.156313419342041016e+00 3.391861915588378906e-01 -4.916551113128662109e-01 -1.645443588495254517e-01 3.369630336761474609e+00 -8.662458062171936035e-01 2.842628240585327148e+00
-6.989554762840270996e-01 -2.063144892454147339e-01 1.069885373115539551e+00 -2.199694328010082245e-02 -9.345380961894989014e-02 -2.584184333682060242e-02 -9.601663798093795776e-02 -2.489280700683593750e-02 -9.250274300575256348e-02 6.829499006271362305e-01 -2.006051093339920044e-01 -2.367676943540573120e-01 -2.597251534461975098e-01 4.411197602748870850e-01 1.303127408027648926e-01 1.688921749591827393e-01 3.012106418609619141e-01 -5.632240176200866699e-01 -1.292547676712274551e-03 -4.899266362190246582e-02 7.795653492212295532e-02 -1.230151355266571045e-01 -6.789362430572509766e-01 -5.048886537551879883e-01 -1.653373688459396362e-01 -2.210768014192581177e-01 4.096282720565795898e-01 3.987413346767425537e-01 -8.752119541168212891e-02 3.483986258506774902e-01 2.135609090328216553e-01 3.723227977752685547e-01 -3.000065088272094727e-01 4.733176827430725098e-01 -3.698650896549224854e-01 3.918958008289337158e-01 4.181312918663024902e-01 2.101157307624816895e-01 -4.107082486152648926e-01 3.684142529964447021e-01 -1.904949396848678589e-01 7.508849501609802246e-01 1.467851251363754272e-01 -4.581693708896636963e-01 -1.563230156898498535e-01 -1.022122025489807129e+00 -5.035406351089477539e-01 -3.133977949619293213e-01 7.454078793525695801e-01 -7.478315383195877075e-02 7.855160534381866455e-02 -2.060863524675369263e-01 -2.491659075021743774e-01 -3.058952977880835533e-03 -8.120730519294738770e-02 1.264953613281250000e-01 3.531023263931274414e-01 -2.930229604244232178e-01 -3.477082252502441406e-01 -3.456020057201385498e-01
-3.124952018260955811e-01 -1.774446964263916016e-01 3.527480840682983398e+00 3.350440561771392822e-01 -3.089444339275360107e-01 1.084554716944694519e-01 -1.411501467227935791e-01 1.053896322846412659e-01 -1.037718206644058228e-01 3.923653960227966309e-01 4.065418150275945663e-03 2.436997294425964355e-01 1.810419186949729919e-02 1.519114524126052856e-01 5.789562314748764038e-02 -1.070607975125312805e-01 -2.214135043323040009e-02 -1.401441097259521484e-01 3.792749345302581787e-01 -5.388171970844268799e-02 3.299603462219238281e-01 -2.568508088588714600e-01 -2.229370027780532837e-01 -2.088207751512527466e-01 -2.169214934110641479e-01 -6.111481189727783203e-01 -2.915459275245666504e-01 2.285232245922088623e-01 -2.426844239234924316e-01 -8.319974690675735474e-02 -1.162820085883140564e-01 3.452351093292236328e-01 4.898585844784975052e-03 5.360649228096008301e-01 1.309802383184432983e-01 4.119878411293029785e-01 1.400446742773056030e-01 -1.592451333999633789e-01 -4.068657755851745605e-01 -7.923361845314502716e-03 -1.966321915388107300e-01 8.712095022201538086e-01 3.201376497745513916e-01 -2.684099674224853516e-01 -9.847185015678405762e-02 -2.039103507995605469e+00 3.195447102189064026e-02 7.246441207826137543e-03 3.012422621250152588e-01 -2.912119925022125244e-01 2.276804447174072266e-01 -3.674975633621215820e-01 -8.798483014106750488e-02 -3.225038647651672363e-01 -3.105169534683227539e-01 -2.228786498308181763e-01 4.781064689159393311e-01 -2.227462679147720337e-01 -4.632968828082084656e-02 -4.589008688926696777e-01
-6.110271215438842773e-01 -1.965190321207046509e-01 8.591035008430480957e-01 2.564320862293243408e-01 -3.499234318733215332e-01 -4.114867150783538818e-01 -1.809363812208175659e-01 -4.602376520633697510e-01 -1.262424737215042114e-01 6.824749112129211426e-01 2.600990980863571167e-02 -3.083133995532989502e-01 -8.910274505615234375e-02 1.643847376108169556e-01 -1.896047890186309814e-01 2.196555584669113159e-01 3.093576133251190186e-01 -4.914117455482482910e-01 6.106784194707870483e-02 -2.627708613872528076e-01 -2.710775434970855713e-01 6.033531948924064636e-02 -7.715700864791870117e-01 -6.494145989418029785e-01 -2.605830430984497070e-01 -3.400004506111145020e-01 4.493375420570373535e-01 3.622529506683349609e-01 -2.326887845993041992e-01 7.564277853816747665e-03 2.418677657842636108e-01 3.625398278236389160e-01 -5.417768955230712891e-01 8.960480690002441406e-01 -2.236149609088897705e-01 1.518687605857849121e-01 4.202227890491485596e-01 1.883015632629394531e-01 -6.322893500328063965e-01 1.619471907615661621e-01 -1.722440719604492188e-01 7.345132231712341309e-01 6.495974212884902954e-02 -4.692269265651702881e-01 2.470234632492065430e-01 -9.200867414474487305e-01 -2.423481494188308716e-01 -7.692101597785949707e-02 1.398563027381896973e+00 -5.762914940714836121e-02 2.958649992942810059e-01 -2.832333445549011230e-01 -3.700464963912963867e-01 5.987992882728576660e-02 -3.715939521789550781e-01 2.933809161186218262e-01 8.315702676773071289e-01 -2.402869015932083130e-01 -3.120019100606441498e-02 -1.300822347402572632e-01
1.458883732557296753e-01 7.756827026605606079e-02 -4.912539482116699219e+00 -3.572075664997100830e-01 4.461694657802581787e-01 -2.953479886054992676e-01 4.334719479084014893e-01 -4.230771958827972412e-02 4.599635489284992218e-03 -2.893611490726470947e-01 1.677638441324234009e-01 -3.900289237499237061e-01 5.449830740690231323e-02 -1.278017163276672363e-01 -6.939221918582916260e-02 -1.207712572067975998e-02 1.738491952419281006e-01 3.507728874683380127e-01 -4.747045040130615234e-02 5.933178588747978210e-02 8.303059637546539307e-02 7.456457242369651794e-03 3.012485802173614502e-01 3.717997968196868896e-01 2.325228750705718994e-01 3.005159795284271240e-01 6.443660706281661987e-02 -4.772832095623016357e-01 2.542623877525329590e-01 3.386597963981330395e-04 3.486787080764770508e-01 -1.181786507368087769e-01 2.288210242986679077e-01 -1.869653463363647461e-01 -1.137091070413589478e-01 -2.940165698528289795e-01 -4.028012454509735107e-01 4.891368374228477478e-02 3.638387322425842285e-01 -2.823064625263214111e-01 1.449100971221923828e-01 -5.062665939331054688e-01 -3.006978519260883331e-02 4.023007452487945557e-01 -1.931506395339965820e-02 2.502575635910034180e+00 3.145706951618194580e-01 1.628543734550476074e-01 -4.308917820453643799e-01 3.731783926486968994e-01 -7.599342614412307739e-02 1.288105845451354980e-01 2.034662663936614990e-01 -2.777044661343097687e-02 -2.483073174953460693e-01 1.448268145322799683e-01 -3.342547416687011719e-01 5.439363718032836914e-01 -4.044418036937713623e-02 3.649833202362060547e-01
4.840196073055267334e-01 1.671540141105651855e-01 -1.056760668754577637e+00 -2.010107934474945068e-01 1.760898530483245850e-01 3.085355162620544434e-01 3.698565661907196045e-01 3.789859116077423096e-01 2.206106781959533691e-01 -4.486030936241149902e-01 1.687744408845901489e-01 2.894411981105804443e-01 3.463936150074005127e-01 -9.598196297883987427e-02 2.797040343284606934e-01 -1.611062884330749512e-01 3.892097389325499535e-03 7.989373803138732910e-01 -1.429703086614608765e-01 4.557176232337951660e-01 2.046650946140289307e-01 8.675551414489746094e-02 8.295503854751586914e-01 3.727568984031677246e-01 7.520014792680740356e-02 1.732941865921020508e-01 -2.742421925067901611e-01 -3.087895512580871582e-01 3.371164202690124512e-01 -2.179727852344512939e-01 -4.517653286457061768e-01 -3.507776558399200439e-01 4.934875071048736572e-01 -7.715748548507690430e-01 2.420345991849899292e-01 -1.474866420030593872e-01 -1.636748611927032471e-01 -2.906633317470550537e-01 7.227622270584106445e-01 -4.209017455577850342e-01 3.277269899845123291e-01 -8.409821987152099609e-01 -1.304039806127548218e-01 6.684494018554687500e-01 1.479171812534332275e-01 1.029839515686035156e+00 5.531702637672424316e-01 1.004068180918693542e-01 -1.381688833236694336e+00 -4.438283666968345642e-02 -1.641647666692733765e-01 2.178832590579986572e-01 2.399564832448959351e-01 -1.431517302989959717e-01 1.259774863719940186e-01 -3.524027466773986816e-01 -5.801487565040588379e-01 1.876634061336517334e-01 3.668884634971618652e-01 2.045884132385253906e-01
-9.061815738677978516e-01 2.269334644079208374e-01 1.211025938391685486e-02 -1.306036859750747681e-01 -8.873984217643737793e-03 -3.282121717929840088e-01 -7.984062284231185913e-02 -1.320160329341888428e-01 -1.452628523111343384e-01 1.689844951033592224e-02 1.507522165775299072e-01 -4.407722502946853638e-02 1.669084280729293823e-02 -1.280635595321655273e-01 1.164314802736043930e-03 -6.411632150411605835e-02 3.360274136066436768e-01 -1.159319400787353516e+00 -1.542988568544387817e-01 1.038211360573768616e-01 -3.101633116602897644e-02 1.081009730696678162e-01 -9.012075066566467285e-01 -1.125029563903808594e+00 2.907997965812683105e-01 1.080793235450983047e-02 2.319683879613876343e-01 -2.117263674736022949e-01 -1.565498113632202148e-01 -1.909813880920410156e-01 9.142934530973434448e-02 1.148333176970481873e-01 3.479981049895286560e-02 9.288996458053588867e-01 -1.850261241197586060e-01 3.448602929711341858e-02 -2.830683290958404541e-01 3.570808470249176025e-01 -7.260125279426574707e-01 1.563041284680366516e-02 -6.938720494508743286e-02 3.248778581619262695e-01 -1.077575832605361938e-01 -1.114194512367248535e+00 8.178903907537460327e-02 -3.396522104740142822e-01 -4.417417645454406738e-01 2.196152061223983765e-01 8.034147620201110840e-01 2.284555882215499878e-01 -2.307342290878295898e-01 6.447041034698486328e-02 -1.148407161235809326e-01 1.944960951805114746e-01 -3.796271383762359619e-01 2.467800974845886230e-01 1.105242729187011719e+00 6.629366427659988403e-02 -7.347527146339416504e-02 1.903847455978393555e-01
1.404863238334655762e+00 -2.729009687900543213e-01 1.513018459081649780e-01 2.669489979743957520e-01 -4.113020598888397217e-01 2.746672332286834717e-01 3.682359308004379272e-02 1.866880804300308228e-01 3.488966226577758789e-01 -1.923211812973022461e-01 -1.825112402439117432e-01 4.001384079456329346e-01 2.024392038583755493e-01 2.736804485321044922e-01 -1.722103543579578400e-02 -1.942527741193771362e-01 -2.661206722259521484e-01 1.366001367568969727e+00 -3.193166479468345642e-02 -2.761177420616149902e-01 2.898378074169158936e-01 -1.170297712087631226e-01 1.149637818336486816e+00 1.152386307716369629e+00 -2.693642675876617432e-01 -2.311668545007705688e-01 -6.265744566917419434e-02 2.197303026914596558e-01 -1.316294819116592407e-01 2.163563482463359833e-02 -3.569213449954986572e-01 1.102518476545810699e-02 -6.995809264481067657e-03 -1.423034787178039551e+00 2.487938404083251953e-01 2.486584484577178955e-01 -6.623054295778274536e-02 -2.165034264326095581e-01 1.369059681892395020e+00 5.035393312573432922e-02 -1.632183641195297241e-01 1.332491487264633179e-01 1.584543883800506592e-01 1.394005656242370605e+00 -1.366817653179168701e-01 -1.836881637573242188e-01 4.454990476369857788e-02 -1.121720746159553528e-01 -7.088895440101623535e-01 -4.577068388462066650e-01 1.967010200023651123e-01 -1.253238618373870850e-01 -2.142478823661804199e-01 -3.966874480247497559e-01 3.211195468902587891e-01 -8.591710031032562256e-02 -1.256131649017333984e+00 -3.866505026817321777e-01 -5.115158483386039734e-02 -1.670869886875152588e-01
3.717882931232452393e-01 -6.757944822311401367e-01 -1.211081147193908691e+00 -1.779049277305603027e+00 1.578765153884887695e+00 8.169473707675933838e-02 -5.885564088821411133e-01 2.760524749755859375e-01 4.231069236993789673e-02 -7.775978446006774902e-01 1.781971812248229980e+00 2.822810709476470947e-01 -3.567828238010406494e-02 6.235954761505126953e-01 -4.869692921638488770e-01 5.118390321731567383e-01 -2.416618913412094116e-01 6.490059942007064819e-02 7.604079246520996094e-01 -8.141067028045654297e-01 -1.479702353477478027e+00 4.303463101387023926e-01 6.180958822369575500e-02 -3.336824104189872742e-02 -4.041841030120849609e-01 2.078713893890380859e+00 1.076098829507827759e-01 -2.430575609207153320e+00 -4.936066865921020508e-01 3.582707047462463379e-01 4.280625656247138977e-02 6.752847433090209961e-01 3.315691351890563965e-01 4.088692739605903625e-02 1.824409961700439453e-01 4.105960428714752197e-01 4.107251763343811035e-01 -3.213180974125862122e-02 -3.278424590826034546e-02 5.475164651870727539e-01 -4.830781221389770508e-01 -7.335069179534912109e-01 7.737839818000793457e-01 1.407459229230880737e-01 7.893655896186828613e-01 8.583102822303771973e-01 4.200795665383338928e-02 -7.962603569030761719e-01 -1.410356163978576660e-01 1.513602614402770996e+00 5.565300583839416504e-01 -6.701986789703369141e-01 -5.343271493911743164e-01 1.261665940284729004e+00 3.219556808471679688e-01 -3.556551411747932434e-02 -2.765033245086669922e-01 1.782444834709167480e+00 -7.230536341667175293e-01 1.386196017265319824e+00
5.115619897842407227e-01 -5.043238773941993713e-02 -3.575458526611328125e+00 -3.412736058235168457e-01 5.722801089286804199e-01 -3.223102092742919922e-01 2.391713857650756836e-01 -2.560842931270599365e-01 -2.799686491489410400e-01 -1.275239229202270508e+00 4.303585588932037354e-01 -3.028312027454376221e-01 -2.935364544391632080e-01 -1.933842152357101440e-01 1.468080282211303711e-01 1.805618405342102051e-01 1.704958826303482056e-01 1.728046983480453491e-01 -1.389511972665786743e-01 3.015865981578826904e-01 -1.382443904876708984e-01 -2.291037291288375854e-01 1.295916140079498291e-01 7.678667455911636353e-02 7.535116374492645264e-02 2.573443055152893066e-01 5.262868404388427734e-01 -5.105811357498168945e-01 -5.862854421138763428e-02 1.054317727684974670e-01 1.318046301603317261e-01 -2.020979374647140503e-01 2.668143808841705322e-01 -2.839817702770233154e-01 -1.969838514924049377e-02 -2.215913832187652588e-01 -8.701450377702713013e-02 3.964266180992126465e-01 1.795269697904586792e-01 4.020034521818161011e-02 1.324629336595535278e-01 -1.239645600318908691e+00 -1.456920653581619263e-01 3.510447144508361816e-01 1.166856363415718079e-01 2.226100683212280273e+00 1.790842562913894653e-01 3.088148534297943115e-01 -3.032408058643341064e-01 4.165174961090087891e-01 -2.714853286743164062e-01 4.012836609035730362e-03 5.718385055661201477e-02 3.491623103618621826e-01 -1.491701304912567139e-01 1.960688680410385132e-01 -1.004497557878494263e-01 3.336474299430847168e-01 3.752162307500839233e-02 4.598163366317749023e-01
-4.708774983882904053e-01 -1.459874026477336884e-02 -1.871245801448822021e-01 6.422777473926544189e-02 1.165552511811256409e-01 1.820243448019027710e-01 -2.079889550805091858e-02 9.139925986528396606e-02 5.467090010643005371e-01 -1.450731307268142700e-01 2.140174806118011475e-01 9.044457972049713135e-02 3.570642471313476562e-01 -1.217917352914810181e-01 5.789268761873245239e-02 -1.519341617822647095e-01 -2.903125286102294922e-01 -6.882965564727783203e-01 -2.020271122455596924e-01 3.384188413619995117e-01 -4.305402934551239014e-01 -9.988074004650115967e-02 -5.207901000976562500e-01 -6.984368562698364258e-01 3.862169682979583740e-01 2.084225714206695557e-01 -3.768325224518775940e-02 -2.351860702037811279e-01 2.750818133354187012e-01 -1.789379715919494629e-01 -3.848100006580352783e-01 -2.258249074220657349e-01 -3.403994441032409668e-01 4.873771071434020996e-01 2.601312994956970215e-01 -2.183345705270767212e-01 -8.420611172914505005e-02 -1.723083257675170898e-01 -2.507827579975128174e-01 -2.248830050230026245e-01 1.698085963726043701e-01 1.708693951368331909e-01 -7.660289853811264038e-02 -4.928711950778961182e-01 5.631231516599655151e-02 5.533016845583915710e-02 -3.158695995807647705e-01 2.253955006599426270e-01 3.861819505691528320e-01 4.074314236640930176e-01 7.914798706769943237e-02 -3.645215881988406181e-03 1.894872263073921204e-02 4.555404558777809143e-02 7.062190771102905273e-02 -3.030190467834472656e-01 4.674130976200103760e-01 1.898986250162124634e-01 2.926612198352813721e-01 8.353270590305328369e-03
1.097630143165588379e+00 -6.355086341500282288e-03 7.299854606389999390e-02 1.364494264125823975e-01 -8.311390131711959839e-02 2.057880014181137085e-01 -2.793952226638793945e-01 -1.041854918003082275e-02 1.397421061992645264e-01 -1.124924346804618835e-01 -3.153531253337860107e-01 2.273007482290267944e-02 1.563369780778884888e-01 1.231304556131362915e-01 -2.575687468051910400e-01 -3.024157136678695679e-02 -3.048072159290313721e-01 1.435246706008911133e+00 1.322480738162994385e-01 -1.356190070509910583e-02 4.915055036544799805e-01 -1.209014952182769775e-01 1.400414586067199707e+00 1.299520492553710938e+00 9.791177511215209961e-02 -7.259120047092437744e-02 -3.240959942340850830e-01 3.411535620689392090e-01 1.164074689149856567e-01 -3.743703290820121765e-02 2.634172327816486359e-02 -4.766425117850303650e-03 -2.194956503808498383e-02 -1.148230314254760742e+00 3.465314209461212158e-01 -8.112955838441848755e-02 6.583181023597717285e-02 -3.366502821445465088e-01 1.408244609832763672e+00 2.121568322181701660e-01 1.081766467541456223e-02 1.166971400380134583e-03 1.363304704427719116e-01 1.302078127861022949e+00 1.832593232393264771e-01 -2.431433945894241333e-01 1.008121818304061890e-01 1.129957661032676697e-01 -7.512241601943969727e-01 -5.468776226043701172e-01 -3.020546026527881622e-02 -1.607131958007812500e-01 -1.452894210815429688e-01 -4.216867089271545410e-01 1.769428104162216187e-01 -4.049887657165527344e-01 -1.379445910453796387e+00 -2.058219909667968750e-01 1.187106817960739136e-01 -2.625718116760253906e-01
3.423580527305603027e-01 2.949820160865783691e-01 -1.494842648506164551e+00 -2.545177340507507324e-01 2.804654836654663086e-01 1.001872960478067398e-02 2.963744103908538818e-01 3.544533625245094299e-02 3.939703851938247681e-02 -1.013673305511474609e+00 3.220790922641754150e-01 -7.594991475343704224e-02 3.924868255853652954e-02 -3.875302672386169434e-01 -2.038580365478992462e-02 1.129516810178756714e-01 -1.744141876697540283e-01 6.483010649681091309e-01 -4.253451526165008545e-01 1.893395632505416870e-01 -4.699624329805374146e-02 3.434732854366302490e-01 3.329715728759765625e-01 3.207783102989196777e-01 4.743069708347320557e-01 4.391255974769592285e-01 -8.600230515003204346e-02 -3.893896937370300293e-01 6.684894114732742310e-02 6.980612874031066895e-03 4.309194162487983704e-03 -1.882641017436981201e-01 7.198019325733184814e-02 -6.407939195632934570e-01 1.431502029299736023e-02 -6.402428448200225830e-02 -4.006263613700866699e-01 1.269984990358352661e-01 3.603878617286682129e-01 -3.985158801078796387e-01 9.971680492162704468e-02 -4.953861832618713379e-01 -3.397514820098876953e-01 4.517189860343933105e-01 -1.930990517139434814e-01 1.126762270927429199e+00 1.647123247385025024e-01 2.302992641925811768e-01 -6.116701364517211914e-01 1.618395596742630005e-01 -1.493586748838424683e-01 1.617484390735626221e-01 4.394337832927703857e-01 4.066469147801399231e-02 7.315096855163574219e-01 -1.474650353193283081e-01 -4.894307255744934082e-01 2.197305858135223389e-01 3.612598478794097900e-01 1.650017797946929932e-01
1.445269942283630371e+00 -1.306592952460050583e-02 -1.449230313301086426e-01 -1.785659939050674438e-01 -1.944995671510696411e-01 1.701337695121765137e-01 -2.163864374160766602e-01 8.699326962232589722e-02 2.728471755981445312e-01 -1.947830170392990112e-01 1.108191907405853271e-01 3.641970753669738770e-01 2.458538264036178589e-01 -7.907888852059841156e-03 9.875340014696121216e-02 9.566315263509750366e-02 -5.719908047467470169e-03 1.628685474395751953e+00 1.202409416437149048e-01 -1.409528106451034546e-01 2.229813672602176666e-02 3.293631672859191895e-01 1.571972608566284180e+00 1.491616010665893555e+00 6.766065955162048340e-02 -9.709360450506210327e-02 -3.377008140087127686e-01 1.961330026388168335e-01 -3.995962440967559814e-02 1.993522495031356812e-01 -1.961028575897216797e-01 3.443279564380645752e-01 8.264786750078201294e-02 -1.408863067626953125e+00 4.987944290041923523e-02 1.079987809062004089e-01 2.203100323677062988e-01 -3.957870900630950928e-01 1.604535579681396484e+00 2.613609433174133301e-01 -1.590720415115356445e-01 -1.866460405290126801e-02 2.422952055931091309e-01 1.489657998085021973e+00 2.246397174894809723e-02 1.617400497198104858e-01 3.942412734031677246e-01 -3.269266188144683838e-01 -7.738668322563171387e-01 -1.241378933191299438e-01 3.119288086891174316e-01 -2.992832660675048828e-01 -2.684170603752136230e-01 -3.741045296192169189e-01 1.799493730068206787e-01 -4.072150290012359619e-01 -1.309498906135559082e+00 -2.118780463933944702e-01 4.960114601999521255e-03 -1.981967240571975708e-01
1.005988836288452148e+00 -7.081425189971923828e-02 -1.659566909074783325e-01 3.233315944671630859e-01 -5.365146696567535400e-02 2.108518593013286591e-02 9.085843712091445923e-02 3.758356273174285889e-01 2.184040099382400513e-02 -5.490812286734580994e-02 1.098791137337684631e-01 4.275475144386291504e-01 -5.082689225673675537e-02 -9.685855358839035034e-02 1.066467165946960449e-01 1.833688169717788696e-01 -1.975495070219039917e-01 8.616499304771423340e-01 1.301558762788772583e-01 -2.514078319072723389e-01 9.176911413669586182e-02 2.668637931346893311e-01 1.010565876960754395e+00 7.866541147232055664e-01 -1.755789667367935181e-01 -1.607849597930908203e-01 -3.358112871646881104e-01 3.005120158195495605e-01 -2.801584899425506592e-01 1.892285794019699097e-02 -8.481477946043014526e-02 3.131222911179065704e-03 -5.367680266499519348e-02 -9.721416234970092773e-01 1.821225285530090332e-01 1.060325950384140015e-01 5.273951590061187744e-02 4.097107425332069397e-02 8.992937207221984863e-01 2.765182219445705414e-02 -2.421991080045700073e-01 -3.508558496832847595e-02 2.224385291337966919e-01 1.037039995193481445e+00 1.057126596570014954e-01 1.407545208930969238e-01 2.089543491601943970e-01 3.191729262471199036e-02 -4.945833981037139893e-01 -3.885619342327117920e-01 4.290843382477760315e-02 -4.314926639199256897e-02 -1.202546432614326477e-01 -4.746865034103393555e-01 2.525912225246429443e-01 -9.955658763647079468e-02 -9.347806572914123535e-01 -2.897445559501647949e-01 5.635320022702217102e-02 -2.495712786912918091e-01
-1.297300010919570923e-01 -2.318484187126159668e-01 3.909302473068237305e+00 3.603740334510803223e-01 -6.245568990707397461e-01 2.573134005069732666e-01 -8.414539694786071777e-02 3.316434919834136963e-01 4.744727909564971924e-02 1.116748213768005371e+00 -4.798412919044494629e-01 3.784055411815643311e-01 4.175092875957489014e-01 1.606481224298477173e-01 1.546005308628082275e-01 -2.945210039615631104e-01 -2.151270210742950439e-02 -1.953076124191284180e-01 1.177464872598648071e-01 -5.881051719188690186e-02 3.274708390235900879e-01 -1.892669871449470520e-02 -3.749503791332244873e-01 -7.322344183921813965e-02 2.119708806276321411e-02 -4.039716124534606934e-01 -5.042656064033508301e-01 6.210975050926208496e-01 1.029747053980827332e-01 8.714004606008529663e-02 -1.158901602029800415e-01 3.135438263416290283e-02 -2.723397910594940186e-01 2.779756784439086914e-01 4.257534816861152649e-02 7.362574338912963867e-02 2.632478773593902588e-01 -2.323796004056930542e-01 -4.026306569576263428e-01 2.619386613368988037e-01 1.527652293443679810e-01 1.440148472785949707e+00 1.612522602081298828e-01 -3.412768840789794922e-01 1.456708461046218872e-02 -2.634264230728149414e+00 -9.870330989360809326e-02 -1.908698864281177521e-02 5.235072597861289978e-02 -3.169140815734863281e-01 2.447522878646850586e-01 1.452862052246928215e-03 -1.273138374090194702e-01 3.026526421308517456e-02 2.055790722370147705e-01 -4.201546609401702881e-01 1.307739764451980591e-01 -5.204685926437377930e-01 8.825850673019886017e-03 -3.332747220993041992e-01
2.067711763083934784e-02 4.799157977104187012e-01 1.253303885459899902e+00 1.881978273391723633e+00 -1.794404029846191406e+00 -2.626038193702697754e-01 4.556260704994201660e-01 -2.326093427836894989e-02 8.088582009077072144e-02 5.866808295249938965e-01 -1.526335954666137695e+00 -3.287631869316101074e-01 1.345472335815429688e-01 -8.283501267433166504e-01 7.017273306846618652e-01 -8.880245089530944824e-01 3.062815070152282715e-01 3.004967607557773590e-02 -7.746300697326660156e-01 4.201658368110656738e-01 1.692509770393371582e+00 -2.461876869201660156e-01 -2.895292341709136963e-01 -2.000365406274795532e-01 6.889901161193847656e-01 -2.037607431411743164e+00 1.478890776634216309e-01 2.524417877197265625e+00 7.020550966262817383e-01 -8.018265962600708008e-01 2.144491672515869141e-01 -5.924036502838134766e-01 -2.904341518878936768e-01 3.205894827842712402e-01 1.935360766947269440e-02 -7.366902232170104980e-01 -7.321941256523132324e-01 2.346084415912628174e-01 -5.677556619048118591e-02 -6.341554522514343262e-01 7.252156138420104980e-01 5.406665802001953125e-01 -6.361434459686279297e-01 6.274009356275200844e-04 -8.708866834640502930e-01 -6.637877225875854492e-01 -2.732180356979370117e-01 5.446935296058654785e-01 3.493482470512390137e-01 -1.629670143127441406e+00 -8.505665659904479980e-01 4.797753095626831055e-01 5.500390529632568359e-01 -1.153221487998962402e+00 -2.007965594530105591e-01 1.381133645772933960e-01 1.168916597962379456e-01 -1.958847880363464355e+00 4.731853604316711426e-01 -1.873870968818664551e+00
2.118159234523773193e-01 -2.430467009544372559e-01 -1.874176859855651855e+00 -4.542185664176940918e-01 3.401645123958587646e-01 -3.695823848247528076e-01 7.704276591539382935e-02 -5.285426974296569824e-01 -1.536297053098678589e-01 -8.700393438339233398e-01 3.178196549415588379e-01 -1.424369215965270996e-01 -2.041773647069931030e-01 1.031584441661834717e-01 -1.028689891099929810e-01 1.048423647880554199e-01 3.397696912288665771e-01 3.125041723251342773e-01 3.128805160522460938e-01 -6.654302775859832764e-02 -1.023001447319984436e-01 -4.111166596412658691e-01 3.635977506637573242e-01 2.039701640605926514e-01 -2.009310722351074219e-01 5.321408510208129883e-01 4.772472977638244629e-01 -8.053214550018310547e-01 1.191276237368583679e-01 2.195817381143569946e-01 3.963727653026580811e-01 2.004223912954330444e-01 1.599254012107849121e-01 -5.580627918243408203e-02 -1.591169685125350952e-01 1.971724331378936768e-01 -1.132970526814460754e-01 -1.341512775979936123e-03 8.319996297359466553e-02 2.474257647991180420e-01 4.944061115384101868e-02 -1.858993530273437500e+00 2.930819429457187653e-02 2.316674450412392616e-03 2.981152236461639404e-01 1.325643301010131836e+00 2.108249664306640625e-01 -2.059171050786972046e-01 -2.702586650848388672e-01 3.866872191429138184e-01 6.748920679092407227e-02 -6.716935336589813232e-02 4.626969993114471436e-02 1.848945170640945435e-01 2.686939537525177002e-01 2.070765644311904907e-01 -3.505241572856903076e-01 4.465641677379608154e-01 4.649603739380836487e-02 5.974743366241455078e-01
-3.215101957321166992e-01 2.758138477802276611e-01 1.416037917137145996e+00 6.720367074012756348e-01 -5.453162193298339844e-01 3.927978277206420898e-01 4.327680468559265137e-01 3.191544711589813232e-01 -6.887503713369369507e-02 8.705980777740478516e-01 -1.079478979110717773e+00 2.679450213909149170e-01 2.158271223306655884e-01 -4.852608740329742432e-01 1.831907331943511963e-01 -4.829939007759094238e-01 6.664606928825378418e-02 -4.335114955902099609e-01 -5.678077787160873413e-02 2.695639431476593018e-01 1.604951322078704834e-01 -7.813665866851806641e-01 -3.597207739949226379e-02 -1.482863277196884155e-01 1.639153510332107544e-01 -1.006393313407897949e+00 -1.998839676380157471e-01 9.706725478172302246e-01 3.045576512813568115e-01 -3.966747224330902100e-01 -1.301736980676651001e-01 -4.442360401153564453e-01 -2.873694524168968201e-02 2.376075536012649536e-01 2.174338549375534058e-01 -3.718529939651489258e-01 -1.705793142318725586e-01 1.563992202281951904e-01 -2.833086848258972168e-01 -3.274940252304077148e-01 1.432923078536987305e-01 1.051658153533935547e+00 -2.590561211109161377e-01 -3.100252747535705566e-01 -1.944853961467742920e-01 -8.895811438560485840e-01 -2.899076342582702637e-01 4.287641048431396484e-01 2.901622951030731201e-01 -5.371141433715820312e-01 -1.582400053739547729e-01 4.026113152503967285e-01 1.286441236734390259e-01 -3.140911459922790527e-01 -2.837566435337066650e-01 -2.531337738037109375e-01 9.079186618328094482e-02 -8.002743124961853027e-01 4.384745061397552490e-01 -7.444779276847839355e-01
2.582279205322265625e+00 1.534934155642986298e-02 -3.567873239517211914e-01 1.132660582661628723e-01 1.861801892518997192e-01 4.749731719493865967e-01 1.571696549654006958e-01 3.412994444370269775e-01 1.991303712129592896e-01 -1.491707861423492432e-01 -1.015716791152954102e-01 3.844217956066131592e-01 3.865131735801696777e-01 1.838221848011016846e-01 2.366718649864196777e-02 -6.234511733055114746e-02 -1.345379948616027832e-01 2.444548606872558594e+00 1.767015904188156128e-01 2.790022492408752441e-01 2.422879785299301147e-01 6.027935072779655457e-02 2.456357717514038086e+00 2.159573793411254883e+00 1.240437403321266174e-01 1.184909418225288391e-01 -7.633434981107711792e-02 -6.504777818918228149e-02 1.985851675271987915e-02 1.291260123252868652e-01 -3.037218451499938965e-01 -1.559802740812301636e-01 2.596312463283538818e-01 -2.383977413177490234e+00 2.714697420597076416e-01 -1.149683594703674316e-01 9.981083869934082031e-02 -4.302344918251037598e-01 2.223639965057373047e+00 1.591857373714447021e-01 2.791351266205310822e-02 -2.743393182754516602e-01 -8.328346535563468933e-03 2.215476751327514648e+00 -1.234414950013160706e-01 4.650965332984924316e-01 3.769681453704833984e-01 1.688750088214874268e-01 -8.376722335815429688e-01 -2.624661922454833984e-01 4.816221073269844055e-02 -1.187828555703163147e-01 -5.622711405158042908e-02 -1.218251734972000122e-01 2.571128681302070618e-02 -4.071342647075653076e-01 -2.382823705673217773e+00 -1.339939236640930176e-01 -8.393113315105438232e-02 -1.286990642547607422e-01
2.058010816574096680e+00 6.526944786310195923e-02 -1.024852544069290161e-01 3.065893352031707764e-01 7.324897497892379761e-02 9.326845407485961914e-02 -1.160113438963890076e-01 1.876678466796875000e-01 3.074222505092620850e-01 -3.061573207378387451e-01 2.939669974148273468e-02 4.936464130878448486e-01 4.546052217483520508e-01 5.179262533783912659e-02 -5.465474352240562439e-02 9.787893295288085938e-02 2.128410153090953827e-03 2.208552360534667969e+00 -1.019579637795686722e-02 1.750237792730331421e-01 5.320823192596435547e-02 9.243904054164886475e-02 2.292086839675903320e+00 2.069097518920898438e+00 7.016897201538085938e-02 -6.321793049573898315e-02 -3.139375746250152588e-01 -1.152732670307159424e-01 -1.944929212331771851e-01 2.114250659942626953e-01 -6.530585885047912598e-02 2.864224910736083984e-01 3.231074512004852295e-01 -2.285332918167114258e+00 3.152797222137451172e-01 1.384463608264923096e-01 4.646833240985870361e-02 -1.277029365301132202e-01 2.212187767028808594e+00 -4.508217796683311462e-02 -1.701779961585998535e-01 -2.847728729248046875e-01 -9.726740419864654541e-02 1.952806830406188965e+00 -1.875364966690540314e-02 2.125945314764976501e-02 4.101535677909851074e-01 1.190308555960655212e-01 -8.114709258079528809e-01 -3.063885271549224854e-01 2.368883490562438965e-01 -1.658999025821685791e-01 1.098900064826011658e-01 -9.428530186414718628e-02 3.854526281356811523e-01 -4.538723826408386230e-01 -2.053978919982910156e+00 -7.843851298093795776e-02 1.022625900804996490e-02 2.223695814609527588e-02
-4.845025762915611267e-02 -7.030858397483825684e-01 -1.255884528160095215e+00 -2.339387893676757812e+00 2.259605169296264648e+00 -2.494222670793533325e-01 -4.706406891345977783e-01 -8.234746754169464111e-02 2.131195738911628723e-02 -9.828010201454162598e-01 1.319698929786682129e+00 6.857579946517944336e-02 -6.838247179985046387e-02 3.790912032127380371e-01 -6.736508607864379883e-01 8.262556791305541992e-01 -2.545086443424224854e-01 1.944938153028488159e-01 6.238162517547607422e-01 -3.093064129352569580e-01 -1.605371713638305664e+00 5.915328264236450195e-01 5.705641116946935654e-03 1.751169562339782715e-01 -6.847642064094543457e-01 2.652004718780517578e+00 -1.478607654571533203e-01 -2.892970800399780273e+00 -5.273517370223999023e-01 4.555574357509613037e-01 -1.384626477956771851e-01 6.929135918617248535e-01 4.107909798622131348e-01 -2.584182024002075195e-01 -1.923294514417648315e-01 4.405808448791503906e-01 6.231523752212524414e-01 9.138593822717666626e-02 1.983644813299179077e-01 3.983826637268066406e-01 -4.407568573951721191e-01 -1.159321665763854980e+00 5.978496074676513672e-01 2.643716633319854736e-01 5.258827805519104004e-01 8.052585721015930176e-01 7.353979349136352539e-02 -3.189428746700286865e-01 7.464746944606304169e-03 1.699077844619750977e+00 3.739844858646392822e-01 -3.461249768733978271e-01 -3.803747892379760742e-01 1.332060694694519043e+00 4.623810648918151855e-01 -1.551019847393035889e-01 -9.938498586416244507e-02 2.324844360351562500e+00 -6.729501485824584961e-01 2.278997421264648438e+00
7.982951402664184570e-01 -7.572907209396362305e-02 4.829388484358787537e-02 1.092856973409652710e-01 -1.720498502254486084e-01 3.181791901588439941e-01 -2.301193773746490479e-01 2.219487354159355164e-02 5.102429166436195374e-02 1.045488491654396057e-01 -1.832873225212097168e-01 1.550737619400024414e-01 1.757690310478210449e-01 2.157338708639144897e-01 6.407816708087921143e-02 -1.662091761827468872e-01 -1.734292656183242798e-01 9.489772915840148926e-01 -2.567987516522407532e-02 -1.593723893165588379e-01 2.936920225620269775e-01 1.872210800647735596e-01 6.314746141433715820e-01 1.014179110527038574e+00 -1.372476220130920410e-01 -1.694090068340301514e-01 -5.854902043938636780e-02 2.038373053073883057e-01 -7.269644737243652344e-02 -1.858762949705123901e-01 -2.332468926906585693e-01 2.942073047161102295e-01 2.720639109611511230e-01 -9.406538605690002441e-01 2.134239673614501953e-01 1.678562164306640625e-01 1.846704035997390747e-01 -2.250213027000427246e-01 7.790731191635131836e-01 1.422269269824028015e-02 1.423200666904449463e-01 -2.788280844688415527e-01 7.470656931400299072e-02 6.951826214790344238e-01 -1.634152829647064209e-01 2.152445614337921143e-01 4.198939502239227295e-01 -2.058903127908706665e-01 -4.229403734207153320e-01 -3.421866297721862793e-01 -1.239619553089141846e-01 -2.512784302234649658e-01 4.052758216857910156e-03 -4.617171287536621094e-01 3.698425889015197754e-01 -3.229248821735382080e-01 -8.624065518379211426e-01 -2.522803246974945068e-01 -2.642408311367034912e-01 4.584415256977081299e-02
-2.341187298297882080e-01 3.097086250782012939e-01 1.622509241104125977e+00 9.626416563987731934e-01 -7.852793335914611816e-01 3.210722208023071289e-01 2.619987726211547852e-01 1.250186711549758911e-01 1.349199712276458740e-01 8.211873769760131836e-01 -1.182434916496276855e+00 3.254808783531188965e-01 -9.847271442413330078e-02 -2.880463004112243652e-01 4.159715175628662109e-01 -5.907329916954040527e-01 -1.578630656003952026e-01 -3.437157720327377319e-02 -4.903970956802368164e-01 5.396330356597900391e-01 3.501188158988952637e-01 -5.010457038879394531e-01 -1.492516398429870605e-01 -2.226002514362335205e-01 3.252142369747161865e-01 -1.046193242073059082e+00 -3.456652462482452393e-01 1.199680447578430176e+00 3.976167142391204834e-01 -3.078048229217529297e-01 4.913199320435523987e-02 -4.088779687881469727e-01 -1.968551129102706909e-01 2.193104326725006104e-01 2.179409563541412354e-01 -3.811814785003662109e-01 -5.353581309318542480e-01 1.581951975822448730e-01 -1.545933634042739868e-01 -3.813354671001434326e-01 4.596501588821411133e-01 1.131002664566040039e+00 -1.771057248115539551e-01 -2.419971525669097900e-01 -3.700295090675354004e-01 -1.078997135162353516e+00 -1.235069930553436279e-01 1.540654450654983521e-01 2.254358083009719849e-01 -5.372321009635925293e-01 -1.995152533054351807e-01 2.134102731943130493e-01 4.805246889591217041e-01 -4.015166163444519043e-01 -2.307885438203811646e-01 -2.349521517753601074e-01 3.786414563655853271e-01 -7.566406130790710449e-01 4.869753122329711914e-01 -5.778356194496154785e-01
2.602564990520477295e-01 1.606042534112930298e-01 -2.734849929809570312e+00 5.670686718076467514e-03 1.846566945314407349e-01 -3.924155235290527344e-01 3.398515284061431885e-02 -3.348772525787353516e-01 2.216394990682601929e-03 -1.393156647682189941e-01 2.898558676242828369e-01 -1.207531243562698364e-01 -6.628628075122833252e-02 -1.614186316728591919e-01 1.077108383178710938e-01 -6.811130046844482422e-02 -4.756191745400428772e-02 3.669777810573577881e-01 1.268441602587699890e-02 4.390311613678932190e-02 3.596940636634826660e-01 -3.483205139636993408e-01 1.583830714225769043e-01 -4.837473109364509583e-02 -1.319041475653648376e-02 1.833179742097854614e-01 3.686600923538208008e-01 8.630583435297012329e-02 -3.536400571465492249e-02 -2.958613634109497070e-01 -8.712527155876159668e-02 -7.773293554782867432e-02 -3.965334892272949219e-01 -5.569196343421936035e-01 2.107868343591690063e-01 -3.624297082424163818e-01 -2.861259281635284424e-01 -7.489854097366333008e-02 1.496099978685379028e-01 3.702114149928092957e-02 5.092421546578407288e-02 -7.632610797882080078e-01 -3.743097484111785889e-01 1.277284510433673859e-02 1.458590384572744370e-02 1.830673575401306152e+00 4.403725266456604004e-01 2.955167591571807861e-01 -7.558561563491821289e-01 1.446986496448516846e-01 1.990063115954399109e-03 2.868645787239074707e-01 -2.927184477448463440e-02 -2.780688405036926270e-01 -2.057569622993469238e-01 4.836671054363250732e-01 -3.547368347644805908e-01 1.953416317701339722e-01 -5.906099081039428711e-02 -1.042702496051788330e-01
8.721966296434402466e-02 7.566438317298889160e-01 1.212412595748901367e+00 3.555841922760009766e+00 -3.391238212585449219e+00 -4.612634778022766113e-01 8.067107796669006348e-01 -4.695967137813568115e-01 -1.533622480928897858e-02 5.865698456764221191e-01 -1.520015835762023926e+00 -2.015314698219299316e-01 6.050315499305725098e-02 -8.922916650772094727e-01 9.338290095329284668e-01 -1.025916934013366699e+00 -4.305059835314750671e-02 5.620434880256652832e-02 -7.021090388298034668e-01 6.452830433845520020e-01 3.047355175018310547e+00 -2.062706202268600464e-01 -2.314585000276565552e-01 3.709137672558426857e-03 5.590729117393493652e-01 -3.985420942306518555e+00 3.990298211574554443e-01 4.220706462860107422e+00 7.271785736083984375e-01 -7.674442529678344727e-01 1.529339998960494995e-01 -6.425453424453735352e-01 -3.170704469084739685e-02 1.145338043570518494e-01 -2.591130137443542480e-01 -5.791887640953063965e-01 -7.298109531402587891e-01 1.302291750907897949e-01 -2.012678831815719604e-01 -7.223806977272033691e-01 8.843749761581420898e-01 7.435019612312316895e-01 -7.571087479591369629e-01 7.019098103046417236e-02 -1.044288873672485352e+00 -7.244197130203247070e-01 -4.868228861596435308e-04 7.770408987998962402e-01 -3.875080030411481857e-03 -3.242624282836914062e+00 -7.517154216766357422e-01 6.115598678588867188e-01 7.358293533325195312e-01 -2.462377071380615234e+00 -3.945315182209014893e-01 3.226213753223419189e-01 3.140634298324584961e-01 -3.475465297698974609e+00 6.272273659706115723e-01 -3.321470737457275391e+00
9.447914958000183105e-01 -1.756463944911956787e-01 1.225973144173622131e-01 4.755015969276428223e-01 -9.870362281799316406e-02 8.479934185743331909e-02 -2.929031848907470703e-01 1.173528730869293213e-01 2.831547558307647705e-01 -5.799852684140205383e-02 3.626679256558418274e-02 2.526785135269165039e-01 1.507617235183715820e-01 2.964078783988952637e-01 9.322996437549591064e-02 -1.841865926980972290e-01 -2.869487404823303223e-01 1.019905805587768555e+00 -9.139653295278549194e-02 7.038478553295135498e-02 4.943236708641052246e-01 5.169812962412834167e-02 8.050376772880554199e-01 1.056114077568054199e+00 -1.887812763452529907e-01 -1.861781179904937744e-01 -3.209350258111953735e-02 2.814769148826599121e-01 -1.192064583301544189e-01 -2.034333162009716034e-02 8.296007663011550903e-02 -7.576517760753631592e-02 1.789606064558029175e-01 -1.005568027496337891e+00 4.385242238640785217e-02 4.052472114562988281e-02 -2.305481024086475372e-02 6.626364588737487793e-02 8.825978040695190430e-01 -2.600184176117181778e-03 5.394360423088073730e-02 -4.278553184121847153e-03 -6.342137604951858521e-02 1.090110421180725098e+00 -1.843059211969375610e-01 -1.330328881740570068e-01 3.592015206813812256e-01 3.829714283347129822e-02 -7.379112243652343750e-01 -4.711957573890686035e-01 8.954150974750518799e-02 4.267518222332000732e-02 -1.875135004520416260e-01 -5.414884090423583984e-01 2.934212386608123779e-01 -2.661290466785430908e-01 -7.988218665122985840e-01 -4.695859178900718689e-02 9.472121298313140869e-02 -2.719398140907287598e-01
4.479775428771972656e-01 2.441054880619049072e-01 -4.522222995758056641e+00 -5.894029140472412109e-01 5.066730380058288574e-01 -2.294231951236724854e-01 8.979985117912292480e-02 -1.783442646265029907e-01 -2.333725094795227051e-01 -3.584576249122619629e-01 1.925969719886779785e-01 -2.482215017080307007e-01 -2.586563676595687866e-02 -1.878122687339782715e-01 -2.039217948913574219e-01 1.872681826353073120e-01 2.525297701358795166e-01 3.572612106800079346e-01 -6.607212126255035400e-02 1.052407771348953247e-01 -4.257553517818450928e-01 4.191739559173583984e-01 3.219455778598785400e-01 3.348364233970642090e-01 3.346875905990600586e-01 4.564542174339294434e-01 6.108059547841548920e-03 -6.688637733459472656e-01 2.249395847320556641e-01 8.165969699621200562e-02 3.497333526611328125e-01 -8.900676667690277100e-02 1.935543715953826904e-01 -4.565043747425079346e-01 7.737701386213302612e-02 -1.299809217453002930e-01 -2.660836577415466309e-01 -1.096696108579635620e-01 3.383830487728118896e-01 -5.907943472266197205e-02 -1.126567944884300232e-01 -8.976326584815979004e-01 8.666337281465530396e-02 4.565754532814025879e-01 2.139018476009368896e-01 2.612718105316162109e+00 -3.569540381431579590e-02 4.673641547560691833e-02 -1.324230730533599854e-01 2.400344610214233398e-01 -1.218430772423744202e-01 2.539354264736175537e-01 1.826008260250091553e-01 1.563702970743179321e-01 -4.465735703706741333e-02 2.440762519836425781e-01 -4.179871678352355957e-01 5.697945356369018555e-01 -6.810279935598373413e-02 3.381034433841705322e-01
-4.039200842380523682e-01 2.270522117614746094e-01 2.159325361251831055e+00 5.774768590927124023e-01 -5.650746226310729980e-01 4.994726181030273438e-01 -1.115196049213409424e-01 3.169699311256408691e-01 5.657082051038742065e-02 1.096401214599609375e+00 -2.791140079498291016e-01 4.096332788467407227e-01 1.140622720122337341e-01 -2.204936593770980835e-01 3.636411577463150024e-02 5.234574899077415466e-02 -2.228461354970932007e-01 -4.748226702213287354e-01 -1.065119132399559021e-01 2.102159857749938965e-01 4.050322175025939941e-01 7.871915400028228760e-02 -1.213500350713729858e-01 -1.925338432192802429e-02 -2.289821393787860870e-02 -6.606536507606506348e-01 -2.191513925790786743e-01 7.677695751190185547e-01 8.475767076015472412e-02 -1.219117343425750732e-01 -3.288574516773223877e-02 -1.316137313842773438e-01 -2.390523627400398254e-02 2.080215662717819214e-01 1.569152623414993286e-01 -1.405539214611053467e-01 -1.885775774717330933e-01 -2.146429270505905151e-01 -1.984348446130752563e-01 -1.514213383197784424e-01 -1.507353782653808594e-01 2.018829822540283203e+00 1.173016503453254700e-01 -2.583472132682800293e-01 -7.336445897817611694e-02 -1.896100878715515137e+00 -3.795236051082611084e-01 -1.183285098522901535e-02 2.227412015199661255e-01 -1.988067924976348877e-01 -8.078698068857192993e-02 1.887629330158233643e-01 -1.025701761245727539e-01 -3.955850601196289062e-01 -4.016265273094177246e-01 -3.225567936897277832e-01 3.608836233615875244e-01 -6.517207026481628418e-01 -1.919542066752910614e-02 -2.237760126590728760e-01
-7.783851027488708496e-02 -8.947891592979431152e-01 -1.122573852539062500e+00 -4.320291996002197266e+00 4.358408927917480469e+00 3.723592758178710938e-01 -7.926090955734252930e-01 2.971739470958709717e-01 -3.486022818833589554e-03 -7.940719127655029297e-01 1.264368653297424316e+00 4.868500828742980957e-01 2.378258556127548218e-01 5.442701578140258789e-01 -9.045348763465881348e-01 8.960344195365905762e-01 4.333295300602912903e-02 1.358601003885269165e-01 6.889867782592773438e-01 -6.481786370277404785e-01 -2.690520524978637695e+00 2.225032597780227661e-01 1.529899239540100098e-01 -3.023871034383773804e-02 -8.475503921508789062e-01 5.366858005523681641e+00 -9.976755082607269287e-02 -6.049246788024902344e+00 -4.654513001441955566e-01 8.681416511535644531e-01 -1.037167608737945557e-01 8.723202943801879883e-01 6.878823786973953247e-02 3.860122337937355042e-02 1.829434484243392944e-01 7.136850953102111816e-01 8.952761292457580566e-01 5.415654554963111877e-02 1.190643459558486938e-01 8.727374672889709473e-01 -9.119100570678710938e-01 -4.466110169887542725e-01 6.110810041427612305e-01 8.122412115335464478e-02 9.589564204216003418e-01 9.614263772964477539e-01 2.564527690410614014e-01 -6.375338435173034668e-01 6.243079900741577148e-02 3.762896060943603516e+00 6.799119710922241211e-01 -6.875362396240234375e-01 -8.021629452705383301e-01 1.199982285499572754e+00 5.775095224380493164e-01 -1.961901038885116577e-01 8.524309098720550537e-02 4.820836544036865234e+00 -5.168838500976562500e-01 4.372425556182861328e+00
1.679535031318664551e+00 -1.779526919126510620e-01 3.973016887903213501e-02 -6.902854144573211670e-02 -1.468770503997802734e-01 6.622847914695739746e-02 4.799858853220939636e-02 3.268234133720397949e-01 3.205469548702239990e-01 -3.251715302467346191e-01 -4.907104745507240295e-02 1.198026165366172791e-01 3.058382272720336914e-01 1.557972580194473267e-01 1.132949218153953552e-01 7.472044229507446289e-02 -8.110340684652328491e-02 1.803203463554382324e+00 -1.341132670640945435e-01 -6.395321339368820190e-02 3.705879747867584229e-01 1.342367529869079590e-01 1.407944321632385254e+00 1.634679675102233887e+00 -1.583000272512435913e-01 -1.471157968044281006e-01 -4.569334685802459717e-01 7.938259840011596680e-02 -1.646609976887702942e-02 -1.094687804579734802e-01 -3.821435570716857910e-01 2.091771662235260010e-01 2.021841108798980713e-01 -1.614484786987304688e+00 8.502291887998580933e-02 2.055731713771820068e-01 2.310570925474166870e-01 -1.314624994993209839e-01 1.650457739830017090e+00 4.435699805617332458e-02 4.277827963232994080e-02 -3.404821157455444336e-01 1.052885279059410095e-01 1.457292556762695312e+00 -8.126173168420791626e-02 3.742894828319549561e-01 1.724048852920532227e-01 -1.691103726625442505e-01 -6.949355602264404297e-01 -5.447195842862129211e-03 1.981035917997360229e-01 6.455067545175552368e-02 -2.911348640918731689e-01 -5.903234705328941345e-02 3.875384628772735596e-01 -4.239951670169830322e-01 -1.400459170341491699e+00 2.620521374046802521e-02 1.752205006778240204e-02 -1.724464893341064453e-01
5.376180410385131836e-01 8.377027511596679688e-02 -1.053957343101501465e+00 -3.113383352756500244e-01 3.086439371109008789e-01 1.445528268814086914e-01 1.715874373912811279e-01 3.855480253696441650e-01 2.510439157485961914e-01 -7.785643339157104492e-01 1.922027915716171265e-01 3.971994817256927490e-01 2.921676039695739746e-01 -3.859200179576873779e-01 -8.068381994962692261e-02 -1.238583475351333618e-01 -2.708238661289215088e-01 6.585496664047241211e-01 -3.709478378295898438e-01 4.690230190753936768e-01 -7.759860157966613770e-02 -1.404369175434112549e-01 5.762890577316284180e-01 6.607006192207336426e-01 6.017220392823219299e-02 1.380737572908401489e-01 -4.044361412525177002e-01 -2.928134799003601074e-01 2.698933482170104980e-01 -3.555118143558502197e-01 -3.266093432903289795e-01 -3.613160550594329834e-01 6.353089213371276855e-01 -7.129639387130737305e-01 -7.447214331477880478e-03 -3.602632582187652588e-01 -3.962311148643493652e-01 -3.783329129219055176e-01 4.195246696472167969e-01 -3.169405162334442139e-01 1.969498693943023682e-01 -8.081663250923156738e-01 -3.400722146034240723e-01 4.777499139308929443e-01 -8.007720857858657837e-02 1.026370882987976074e+00 4.054860770702362061e-01 -8.019559085369110107e-03 -1.035529017448425293e+00 1.388788074254989624e-01 -1.195738241076469421e-01 3.014829754829406738e-01 9.137354046106338501e-02 4.141371697187423706e-03 4.817764461040496826e-02 -7.169963419437408447e-02 -4.914309978485107422e-01 2.693489491939544678e-01 9.497258067131042480e-02 -4.308661818504333496e-02
6.187783479690551758e-01 3.125249445438385010e-01 -1.091507196426391602e+00 -1.995601654052734375e-01 2.154598534107208252e-01 2.575140893459320068e-01 1.153893768787384033e-01 8.966772258281707764e-02 1.693741083145141602e-01 -7.890889644622802734e-01 4.051891341805458069e-02 6.879753619432449341e-02 2.807322740554809570e-01 -3.008611202239990234e-01 -1.403514891862869263e-01 -2.305614948272705078e-01 -2.100662589073181152e-01 3.854537308216094971e-01 -1.431937217712402344e-01 4.574330151081085205e-01 -7.557941228151321411e-02 5.418995767831802368e-02 3.476361930370330811e-01 2.362453639507293701e-01 4.629774987697601318e-01 3.734344840049743652e-01 -7.186109572649002075e-02 -3.469938337802886963e-01 3.373861014842987061e-01 -1.087801530957221985e-01 -9.328605979681015015e-02 -1.346756219863891602e-01 1.715783327817916870e-01 -6.582128405570983887e-01 -1.371029019355773926e-01 -1.741554290056228638e-01 -4.155369400978088379e-01 -2.729704380035400391e-01 2.996401786804199219e-01 -6.053260993212461472e-03 1.183556616306304932e-01 -3.318812251091003418e-01 -4.413626194000244141e-01 4.535251855850219727e-01 5.858226493000984192e-02 9.497107863426208496e-01 3.976895213127136230e-01 2.484091669321060181e-01 -6.526157855987548828e-01 4.628171399235725403e-02 -3.854818642139434814e-01 1.591030210256576538e-01 1.321079283952713013e-01 -2.854295074939727783e-02 5.536242723464965820e-01 -1.139433160424232483e-01 -4.983825385570526123e-01 3.718088194727897644e-02 1.733962297439575195e-01 1.180222406983375549e-01
9.675452709197998047e-01 -1.756663918495178223e-01 -5.978101491928100586e-02 2.230734676122665405e-01 -8.735615760087966919e-03 3.338896036148071289e-01 -2.477706819772720337e-01 3.095891177654266357e-01 1.464260369539260864e-01 -1.632674187421798706e-01 -1.529680788516998291e-01 4.991150274872779846e-02 2.173093110322952271e-01 3.570399060845375061e-02 1.280057877302169800e-01 2.220802307128906250e-01 -3.251604735851287842e-01 1.073153972625732422e+00 6.080175191164016724e-02 -2.109994292259216309e-01 4.732191860675811768e-01 -1.203143894672393799e-01 9.653539061546325684e-01 1.096585988998413086e+00 9.816882759332656860e-02 -1.745635271072387695e-01 -2.985753118991851807e-01 2.849121391773223877e-01 -1.504129618406295776e-01 2.575767636299133301e-01 -3.261370658874511719e-01 -7.851742208003997803e-02 3.661814332008361816e-01 -1.216535925865173340e+00 1.968726068735122681e-01 1.755810827016830444e-01 1.630357652902603149e-01 -2.405590862035751343e-01 9.516119360923767090e-01 -3.795118257403373718e-02 -1.800655126571655273e-01 -2.324568927288055420e-01 1.334187984466552734e-01 8.775678277015686035e-01 3.683215472847223282e-03 -6.042216345667839050e-02 2.488345354795455933e-01 5.538257956504821777e-02 -6.022233366966247559e-01 -1.853820234537124634e-01 -1.242547761648893356e-02 1.200107559561729431e-01 -2.909725606441497803e-01 -1.320530474185943604e-01 3.232289552688598633e-01 -8.975151926279067993e-02 -9.337642788887023926e-01 2.409706264734268188e-02 -6.662019342184066772e-02 -2.272941172122955322e-01
-1.721400022506713867e-01 7.468876242637634277e-01 1.291397929191589355e+00 2.872688293457031250e+00 -2.585348129272460938e+00 -4.062063694000244141e-01 8.627598285675048828e-01 -9.323764592409133911e-02 6.810053437948226929e-02 4.866026043891906738e-01 -1.385431647300720215e+00 -1.415280252695083618e-01 1.337977498769760132e-01 -6.240399479866027832e-01 9.841207861900329590e-01 -6.612221598625183105e-01 -1.164807155728340149e-01 -2.752680480480194092e-01 -7.240384817123413086e-01 8.691385984420776367e-01 2.345934629440307617e+00 -1.152338609099388123e-01 -8.130624890327453613e-02 -1.291897743940353394e-01 8.689900636672973633e-01 -3.316402196884155273e+00 5.960994586348533630e-02 3.964985847473144531e+00 8.897937536239624023e-01 -7.692978382110595703e-01 2.628621459007263184e-01 -6.501561403274536133e-01 -2.425442039966583252e-01 -9.394045174121856689e-02 9.480342268943786621e-02 -6.799763441085815430e-01 -8.310257196426391602e-01 5.770442634820938110e-02 -2.684479057788848877e-01 -8.302520513534545898e-01 8.069029450416564941e-01 7.937502264976501465e-01 -9.178467392921447754e-01 -1.515182703733444214e-01 -8.554575443267822266e-01 -6.055662631988525391e-01 -1.897899210453033447e-01 4.806138575077056885e-01 1.104058101773262024e-01 -2.642751455307006836e+00 -8.832206130027770996e-01 5.261715054512023926e-01 6.966764926910400391e-01 -1.875475645065307617e+00 -4.981631040573120117e-01 2.862587869167327881e-01 -8.062835037708282471e-02 -3.006906747817993164e+00 6.025792360305786133e-01 -2.601808786392211914e+00
2.229800224304199219e-01 -2.858347594738006592e-01 -1.645103216171264648e+00 -7.319374680519104004e-01 3.856967985630035400e-01 -2.532869875431060791e-01 -3.408482670783996582e-01 -2.755286097526550293e-01 -1.535210162401199341e-01 -9.506049156188964844e-01 6.663345694541931152e-01 -2.268060296773910522e-01 -3.307991623878479004e-01 1.625377684831619263e-01 -4.664079248905181885e-01 3.369643390178680420e-01 9.913390874862670898e-02 4.003917276859283447e-01 2.114434093236923218e-01 -6.954199820756912231e-02 -2.475377023220062256e-01 5.002827644348144531e-01 3.320001065731048584e-01 1.744667142629623413e-01 -3.046818375587463379e-01 8.115327358245849609e-01 2.320417612791061401e-01 -1.009235858917236328e+00 -1.101836711168289185e-01 2.320788055658340454e-02 1.132559776306152344e-01 2.033078372478485107e-01 3.592298030853271484e-01 -1.273017227649688721e-01 -1.624993234872817993e-01 4.576809406280517578e-01 2.313146293163299561e-01 1.846761554479598999e-01 1.276130527257919312e-01 3.282778337597846985e-02 -1.569138169288635254e-01 -1.261685609817504883e+00 4.682151079177856445e-01 3.717093765735626221e-01 3.971565365791320801e-01 1.017570257186889648e+00 1.929533928632736206e-01 -3.604238629341125488e-01 -1.427745968103408813e-01 6.027165055274963379e-01 2.371987104415893555e-01 -1.866802722215652466e-01 -2.096800208091735840e-01 2.099736183881759644e-01 2.995449304580688477e-01 3.977429866790771484e-01 4.445062950253486633e-02 7.844567894935607910e-01 -1.425194889307022095e-01 6.469650268554687500e-01
3.836484253406524658e-01 -2.435553520917892456e-01 -1.932181358337402344e+00 -6.224896907806396484e-01 6.673724055290222168e-01 -3.681395649909973145e-01 4.204486683011054993e-02 -4.032633006572723389e-01 1.582518033683300018e-02 -7.836973071098327637e-01 7.277146577835083008e-01 -2.286912798881530762e-01 -1.980373710393905640e-01 2.961173951625823975e-01 -3.262797594070434570e-01 4.270495772361755371e-01 3.759085014462471008e-02 2.540859580039978027e-01 6.950598955154418945e-02 4.186508804559707642e-02 -4.632605314254760742e-01 2.350289933383464813e-02 3.733259737491607666e-01 1.221466064453125000e-01 -1.674575507640838623e-01 7.223633527755737305e-01 1.218346804380416870e-01 -5.979943275451660156e-01 -6.722283083945512772e-03 7.774017751216888428e-02 2.048166841268539429e-01 3.498404324054718018e-01 2.541989386081695557e-01 -8.372637629508972168e-02 -1.533805876970291138e-01 4.608954186551272869e-04 1.085166931152343750e-01 2.222209274768829346e-01 3.885163366794586182e-01 5.851862207055091858e-02 -1.824310719966888428e-01 -1.685520887374877930e+00 8.669468015432357788e-02 1.523754931986331940e-02 2.553624808788299561e-01 1.412958979606628418e+00 3.482978045940399170e-01 -2.844403982162475586e-01 -7.753915339708328247e-02 1.978093236684799194e-01 -8.173031359910964966e-02 -1.334647387266159058e-01 -1.288486272096633911e-01 1.770843118429183960e-01 4.703478813171386719e-01 4.344169497489929199e-01 -1.421466767787933350e-01 5.077719092369079590e-01 -2.123898565769195557e-01 6.865863800048828125e-01
