# 100
8.542220294475555420e-02
3.054250478744506836e-01
-2.812459766864776611e-01
2.279549604281783104e-03
-4.549876973032951355e-02
9.338615089654922485e-02
6.937730312347412109e-02
1.801653504371643066e-01
-2.487777918577194214e-01
1.594551950693130493e-01
-1.604085117578506470e-01
2.837904989719390869e-01
3.791676163673400879e-01
8.158331513404846191e-01
-6.177404522895812988e-01
1.574757844209671021e-01
-3.334579467773437500e-01
-1.356904953718185425e-01
-1.555776447057723999e-01
2.198586910963058472e-01
-5.652341246604919434e-01
9.656999260187149048e-02
-4.761888459324836731e-02
-2.452868372201919556e-01
-9.725803136825561523e-02
3.120877146720886230e-01
1.389098018407821655e-01
-3.244062662124633789e-01
-8.931059241294860840e-01
-1.524532884359359741e-01
1.532013118267059326e-01
1.683740615844726562e-01
-1.352540105581283569e-01
-1.254997495561838150e-02
8.907002955675125122e-02
1.205523014068603516e-01
3.521037399768829346e-01
2.938518524169921875e-01
-1.274136453866958618e-01
-2.523245513439178467e-01
-3.731422424316406250e-01
-5.066021084785461426e-01
-1.469637304544448853e-01
-2.406071871519088745e-01
2.597715146839618683e-02
2.707767486572265625e-01
-2.832588255405426025e-01
-8.909676671028137207e-01
8.449440449476242065e-02
1.465168893337249756e-01
-1.727819442749023438e-01
-2.731859982013702393e-01
-3.340821266174316406e-01
3.142101764678955078e-01
-2.300333827733993530e-01
-1.536074094474315643e-02
-1.493113338947296143e-01
2.685586214065551758e-01
-9.531693905591964722e-02
-8.441939949989318848e-02
-2.073161154985427856e-01
-1.477232575416564941e-01
2.913725972175598145e-01
-8.299492597579956055e-01
1.673802137374877930e-01
-2.556861937046051025e-01
-8.656549453735351562e-02
-1.426253169775009155e-01
1.018482670187950134e-01
-2.789353728294372559e-01
-1.285148262977600098e-01
-7.524177432060241699e-01
9.845889359712600708e-02
-8.232631683349609375e-01
-1.147856265306472778e-01
1.684827953577041626e-01
-1.379000693559646606e-01
-1.840033680200576782e-01
1.119660213589668274e-01
1.964025758206844330e-02
-3.090978562831878662e-01
-6.300148963928222656e-01
-1.177565604448318481e-01
-9.007878601551055908e-02
2.657220959663391113e-01
3.456238806247711182e-01
-1.267853528261184692e-01
-2.492195069789886475e-01
-2.141524404287338257e-01
1.760941147804260254e-01
1.703754216432571411e-01
4.199888091534376144e-03
-3.281426131725311279e-01
-1.509478986263275146e-01
3.913944959640502930e-01
-1.337209194898605347e-01
1.011040434241294861e-01
-6.205368041992187500e-01
1.487610582262277603e-02
-3.063202202320098877e-01
