# 100 1
2.442198572680354118e-03
-3.789218841120600700e-03
-4.330876749008893967e-03
3.196948906406760216e-03
-1.696707215160131454e-03
-3.349992912262678146e-03
-4.024156369268894196e-03
-2.090636407956480980e-03
-4.989836830645799637e-03
-2.290015807375311852e-03
2.129572210833430290e-03
4.426112398505210876e-03
2.920995233580470085e-03
-2.810856676660478115e-04
6.469835992902517319e-03
-2.355732256546616554e-03
-5.496904253959655762e-03
2.988181076943874359e-03
2.822397975251078606e-03
-4.170674365013837814e-03
7.145928975660353899e-06
-3.877673996612429619e-03
6.174645386636257172e-03
-4.274045117199420929e-03
3.439618973061442375e-03
5.277695599943399429e-03
-3.545994404703378677e-03
5.331261549144983292e-03
-5.403803079389035702e-04
3.226028056815266609e-03
-2.494180807843804359e-03
-2.490201499313116074e-03
2.801705151796340942e-03
8.026191033422946930e-03
-3.679721616208553314e-03
-2.788566984236240387e-03
-4.386025015264749527e-03
3.683580318465828896e-03
3.782063722610473633e-03
-2.862648339942097664e-03
3.606333630159497261e-03
2.954593161121010780e-03
3.133193822577595711e-03
-3.773545613512396812e-03
3.562557511031627655e-03
3.856264287605881691e-03
-4.087669309228658676e-03
-1.323867618339136243e-04
-3.594437381252646446e-03
-2.946961671113967896e-03
-2.516873937565833330e-04
-4.478496033698320389e-03
6.197123322635889053e-03
-5.624561104923486710e-03
-2.847751369699835777e-03
3.897795220836997032e-03
2.728685736656188965e-03
2.908535534515976906e-03
1.958254026249051094e-03
1.309141982346773148e-03
-3.008888801559805870e-03
-7.951750885695219040e-04
3.726889612153172493e-03
-1.738166785798966885e-03
-1.738698105327785015e-03
-4.812343511730432510e-03
-1.661935006268322468e-03
2.957179211080074310e-03
-2.678310032933950424e-03
-4.864041227847337723e-03
2.234772080555558205e-03
-4.095999989658594131e-03
-1.710510230623185635e-03
-2.051262184977531433e-03
3.558211494237184525e-03
-1.903907046653330326e-03
1.486785360611975193e-03
-4.269977565854787827e-03
-3.579949727281928062e-03
-2.989804139360785484e-03
-5.002144258469343185e-03
7.291313726454973221e-03
3.810861613601446152e-03
-2.035406650975346565e-03
2.963206963613629341e-03
-5.217639263719320297e-03
2.000010106712579727e-03
3.492365125566720963e-03
8.179930038750171661e-03
-2.140834229066967964e-03
-1.373366336338222027e-03
1.977976411581039429e-03
-3.159862710162997246e-03
2.684611594304442406e-03
-3.405887633562088013e-03
1.781026716344058514e-03
-1.403843169100582600e-03
1.024238951504230499e-02
-3.262830898165702820e-03
4.930666647851467133e-03
