# 1 60
1.122244596481323242e+00 8.707392811775207520e-01 -1.027965664863586426e+00 -1.873566746711730957e+00 9.286833405494689941e-01 6.316546201705932617e-01 -6.740722060203552246e-01 -2.359708771109580994e-02 -6.129091978073120117e-01 5.659536123275756836e-01 -5.628887414932250977e-01 2.136420726776123047e+00 -4.908100664615631104e-01 -1.354674100875854492e+00 -9.189055562019348145e-01 -8.568024039268493652e-01 -5.291826725006103516e-01 -1.880539178848266602e+00 -1.210504531860351562e+00 -1.116196036338806152e+00 9.171156883239746094e-01 1.502891659736633301e+00 -9.041060805320739746e-01 -6.005712747573852539e-01 5.032262802124023438e-01 9.512658715248107910e-01 4.906938672065734863e-01 -9.122977852821350098e-01 -4.695766568183898926e-01 1.145403742790222168e+00 -2.109590053558349609e+00 -5.115263462066650391e-01 -7.884465456008911133e-01 2.822963595390319824e-01 -2.164480924606323242e+00 -7.662424445152282715e-01 -1.487975120544433594e+00 -1.503935694694519043e+00 7.980280518531799316e-01 5.267762541770935059e-01 -7.223631739616394043e-01 5.859096050262451172e-01 -1.041127324104309082e+00 -1.597099900245666504e+00 -5.612738728523254395e-01 -1.175386548042297363e+00 6.692693829536437988e-01 -4.577348232269287109e-01 6.483017802238464355e-01 -1.840357065200805664e+00 -9.149813652038574219e-01 6.653444766998291016e-01 -5.165317654609680176e-01 -1.442604780197143555e+00 -4.113465249538421631e-01 -5.489143729209899902e-01 -1.373751282691955566e+00 5.516245365142822266e-01 -6.712796688079833984e-01 -6.772835850715637207e-01
