# 60 1
9.282081387937068939e-03
6.433315575122833252e-03
-2.714110538363456726e-03
7.122448645532131195e-03
-5.714199040085077286e-03
7.940543815493583679e-03
6.608746480196714401e-03
8.038073778152465820e-03
8.100274950265884399e-03
-9.496379643678665161e-03
-7.608511950820684433e-03
5.630383733659982681e-03
7.105233613401651382e-03
-6.159834098070859909e-03
5.387513432651758194e-03
-7.316248957067728043e-03
-5.402895156294107437e-03
8.230059407651424408e-03
-5.969292018562555313e-03
5.432196892797946930e-03
6.950826384127140045e-03
-9.952732361853122711e-03
7.384531199932098389e-03
6.113844458013772964e-03
6.058235187083482742e-03
-9.025774896144866943e-03
-6.752716377377510071e-03
1.282066293060779572e-02
4.854891449213027954e-03
-7.888510823249816895e-03
-7.423404138535261154e-03
-4.901805892586708069e-03
1.576845347881317139e-02
-6.424969062209129333e-03
7.014976814389228821e-03
-4.964315332472324371e-03
-4.559466615319252014e-03
-6.487839855253696442e-03
7.402428891509771347e-03
-5.190346855670213699e-03
5.668029654771089554e-03
4.573531448841094971e-03
-6.298536900430917740e-03
6.354370154440402985e-03
-5.307100247591733932e-03
-6.365001667290925980e-03
1.082287449389696121e-02
7.810463197529315948e-03
-5.663610994815826416e-03
-5.444694776087999344e-03
-4.232888109982013702e-03
5.436614155769348145e-03
6.967881228774785995e-03
-6.353564560413360596e-03
1.542659755796194077e-02
-6.648340262472629547e-03
-7.023517508059740067e-03
-5.993091501295566559e-03
5.089764948934316635e-03
-5.762020591646432877e-03
