# 20 20
7.917692512273788452e-02 1.234384775161743164e+00 -6.554864645004272461e-01 -7.116696238517761230e-01 -4.914252460002899170e-01 -2.846203446388244629e-01 -4.343826323747634888e-02 -8.438998460769653320e-01 1.060901522636413574e+00 -5.950697064399719238e-01 -1.325853824615478516e+00 -1.860146671533584595e-01 8.185536265373229980e-01 2.933000922203063965e-01 1.340045571327209473e+00 8.851093053817749023e-01 -3.775892853736877441e-01 1.044776439666748047e+00 -6.961763650178909302e-02 -4.967449605464935303e-01
2.075947046279907227e+00 -4.198895394802093506e-01 1.134265884757041931e-01 8.298923969268798828e-01 -2.096885681152343750e+00 -2.069882154464721680e-01 6.879409309476613998e-03 9.294801205396652222e-02 -5.080714225769042969e-01 1.476823389530181885e-01 3.898189961910247803e-01 1.040472030639648438e+00 -5.028669238090515137e-01 -6.451686024665832520e-01 8.818778395652770996e-02 1.155893355607986450e-01 5.743890404701232910e-01 -1.720222085714340210e-01 7.890139222145080566e-01 5.155819058418273926e-01
-4.860272705554962158e-01 -1.560626387596130371e+00 6.053249835968017578e-01 4.321010708808898926e-01 -1.494201421737670898e-01 4.002753198146820068e-01 -9.219026565551757812e-02 1.409829854965209961e+00 -1.535780668258666992e+00 -7.696993649005889893e-02 1.575927972793579102e+00 3.634050190448760986e-01 -4.540588557720184326e-01 -6.370619684457778931e-02 -1.579576134681701660e+00 -8.804473876953125000e-01 9.755117893218994141e-01 -1.778067946434020996e+00 1.274183392524719238e-01 5.525406002998352051e-01
2.577304601669311523e+00 -4.026200473308563232e-01 1.374164223670959473e-01 6.342178583145141602e-01 -2.592498779296875000e+00 -9.567470848560333252e-02 1.837988644838333130e-01 -8.923981338739395142e-02 6.156221404671669006e-02 3.944475650787353516e-01 9.302479028701782227e-02 -2.858950793743133545e-01 -4.773626029491424561e-01 -6.544725298881530762e-01 -2.341098487377166748e-01 5.900761857628822327e-02 3.126975595951080322e-01 -8.030263334512710571e-02 9.084187150001525879e-01 2.520670294761657715e-01
-1.018953204154968262e+00 6.416876316070556641e-01 -1.144666433334350586e+00 -9.234398603439331055e-01 4.997360408306121826e-01 2.116145379841327667e-02 1.947203278541564941e-01 -8.926550745964050293e-01 4.255158603191375732e-01 -7.170120477676391602e-01 -9.866389036178588867e-01 -1.030885219573974609e+00 7.703195214271545410e-01 8.389139175415039062e-01 8.495765328407287598e-01 3.279951214790344238e-01 -9.461779594421386719e-01 4.586374759674072266e-01 -6.131169795989990234e-01 -9.103747010231018066e-01
7.159901261329650879e-01 1.415885925292968750e+00 -1.089142084121704102e+00 -8.016318082809448242e-01 -1.942526847124099731e-01 2.370910644531250000e-01 5.327086448669433594e-01 -1.555493593215942383e+00 9.578338861465454102e-01 -2.126106619834899902e-01 -1.033968806266784668e+00 3.501481711864471436e-01 7.695060372352600098e-01 7.474777698516845703e-01 8.526577353477478027e-01 1.032114505767822266e+00 -9.373829364776611328e-01 1.536024689674377441e+00 8.125235140323638916e-02 -7.465661168098449707e-01
5.500754714012145996e-01 1.267744421958923340e+00 -5.318425893783569336e-01 -2.873576879501342773e-01 -8.394669294357299805e-01 -3.614363968372344971e-01 4.903034269809722900e-01 -1.559486269950866699e+00 1.247438073158264160e+00 -1.658695489168167114e-01 -1.343871593475341797e+00 2.197190523147583008e-01 9.524063467979431152e-01 3.862279653549194336e-01 1.512347936630249023e+00 1.402508854866027832e+00 -8.915936946868896484e-01 1.184523224830627441e+00 1.446207016706466675e-01 -3.614462018013000488e-01
-5.927373170852661133e-01 -1.237939000129699707e+00 7.116743326187133789e-01 7.481094598770141602e-01 9.738999009132385254e-01 -9.818070381879806519e-02 -3.287358880043029785e-01 1.234172582626342773e+00 -1.134523510932922363e+00 -2.995217740535736084e-01 7.640732526779174805e-01 -3.546569645404815674e-01 -2.256178855895996094e-01 -5.914781093597412109e-01 -9.586051702499389648e-01 -1.119040250778198242e+00 5.416941642761230469e-01 -8.246862888336181641e-01 -5.206758379936218262e-01 2.286507636308670044e-01
4.693797528743743896e-01 1.303245306015014648e+00 -6.445158123970031738e-01 -6.723309159278869629e-01 -2.982333600521087646e-01 -2.887222766876220703e-01 1.820722222328186035e-02 -1.584679603576660156e+00 1.392891883850097656e+00 -2.548474669456481934e-01 -1.575694084167480469e+00 -3.157343566417694092e-01 9.352675676345825195e-01 5.945720672607421875e-01 1.587199687957763672e+00 1.344280600547790527e+00 -4.847402870655059814e-01 1.696710586547851562e+00 5.761914253234863281e-01 -7.398669421672821045e-02
-1.065922617912292480e+00 7.812493443489074707e-01 -5.042970776557922363e-01 -6.412540674209594727e-01 7.673847079277038574e-01 -2.409311830997467041e-01 5.101820230484008789e-01 -8.691320419311523438e-01 7.882875800132751465e-01 -2.768249809741973877e-01 -6.706423163414001465e-01 -3.978619873523712158e-01 8.059253096580505371e-01 8.069124817848205566e-01 5.166462659835815430e-01 2.999190986156463623e-01 -7.859433889389038086e-01 7.556159496307373047e-01 -1.229309082031250000e+00 -1.183797478675842285e+00
1.239763200283050537e-01 -1.298704862594604492e+00 1.226221203804016113e+00 1.149890661239624023e+00 -3.524254560470581055e-01 5.930750966072082520e-01 -6.493015289306640625e-01 1.615117788314819336e+00 -1.606506586074829102e+00 1.708684116601943970e-01 1.687071084976196289e+00 1.410685777664184570e-01 -1.007225990295410156e+00 -8.229338526725769043e-01 -1.344960212707519531e+00 -8.446158170700073242e-01 9.812594652175903320e-01 -1.472945332527160645e+00 4.598246514797210693e-01 5.920374989509582520e-01
-1.408197641372680664e+00 5.946712493896484375e-01 -4.308770895004272461e-01 -6.645193099975585938e-01 9.791864752769470215e-01 -3.827081322669982910e-01 4.531172811985015869e-01 -2.998947203159332275e-01 3.288940191268920898e-01 -5.115106105804443359e-01 -1.444721817970275879e-01 -1.054548501968383789e+00 -2.882494777441024780e-02 7.728275656700134277e-01 3.235747516155242920e-01 2.801900506019592285e-01 -4.663592576980590820e-01 2.827937901020050049e-01 -1.319793105125427246e+00 -3.381028771400451660e-01
1.808408737182617188e+00 -2.893283069133758545e-01 6.712030768394470215e-01 3.948434293270111084e-01 -2.061161994934082031e+00 1.064696013927459717e-01 -4.056164920330047607e-01 1.446181982755661011e-01 -9.604200720787048340e-02 3.154677748680114746e-01 5.993030667304992676e-01 1.257009267807006836e+00 -6.686471104621887207e-01 -4.300880134105682373e-01 -1.674560755491256714e-01 -3.579402267932891846e-01 -4.350765421986579895e-02 -5.187185108661651611e-02 1.042100429534912109e+00 4.667823910713195801e-01
-2.056020021438598633e+00 6.115948781371116638e-02 -7.205066084861755371e-02 -2.466340065002441406e-01 2.192471981048583984e+00 2.196779102087020874e-01 5.175570398569107056e-02 -3.865866959095001221e-01 2.115167826414108276e-01 -2.790500521659851074e-01 -3.452969714999198914e-02 -1.075047135353088379e+00 5.523344874382019043e-01 6.802423596382141113e-01 2.707282900810241699e-01 -1.835837364196777344e-01 -2.808820009231567383e-01 4.494126439094543457e-01 -1.011837244033813477e+00 -5.854960680007934570e-01
2.079008102416992188e+00 -3.339296579360961914e-01 3.852163553237915039e-01 3.987186551094055176e-01 -1.553441762924194336e+00 -7.443645596504211426e-02 2.005250453948974609e-01 3.390201628208160400e-01 8.699060231447219849e-02 3.289628922939300537e-01 6.016317605972290039e-01 1.205245256423950195e+00 -1.753647774457931519e-01 -1.098062023520469666e-01 -2.018117457628250122e-01 -1.678836345672607422e-01 7.136412262916564941e-01 -9.976635128259658813e-02 1.231896162033081055e+00 5.393176674842834473e-01
1.690985918045043945e+00 -1.224624663591384888e-01 3.876246511936187744e-01 5.273675322532653809e-01 -1.134019494056701660e+00 -1.403704434633255005e-01 -1.624762862920761108e-01 6.055072546005249023e-01 -4.871994853019714355e-01 8.966656923294067383e-01 1.705736219882965088e-01 1.070517420768737793e+00 1.151618082076311111e-02 -1.241041347384452820e-01 -2.817922532558441162e-01 -2.110513150691986084e-01 2.854988165199756622e-02 -3.769681751728057861e-01 1.149150729179382324e+00 7.203994393348693848e-01
-9.371035099029541016e-01 3.749125301837921143e-01 -4.468408823013305664e-01 -5.929189920425415039e-01 1.191210627555847168e+00 -5.470232963562011719e-01 4.462985396385192871e-01 -7.811337113380432129e-01 3.117875456809997559e-01 -2.450328022241592407e-01 -4.536831080913543701e-01 -3.190458714962005615e-01 1.187730729579925537e-01 9.028601050376892090e-01 7.233362793922424316e-01 -9.172575175762176514e-02 -1.982954740524291992e-01 9.093494415283203125e-01 -1.540610551834106445e+00 -7.063184380531311035e-01
-7.994251847267150879e-01 6.736844182014465332e-01 -6.761826276779174805e-01 -6.797397136688232422e-01 1.006770491600036621e+00 -2.282518893480300903e-01 8.128212392330169678e-02 -6.109687685966491699e-01 6.326329708099365234e-02 -7.417466044425964355e-01 -1.517986357212066650e-01 -5.643784403800964355e-01 5.747359395027160645e-01 4.460880160331726074e-01 6.649302840232849121e-01 6.401638388633728027e-01 -7.075440287590026855e-01 7.005174160003662109e-01 -1.503263592720031738e+00 -7.468467354774475098e-01
-1.618993163108825684e+00 2.842755019664764404e-01 -2.600938975811004639e-01 -1.682569682598114014e-01 1.626682281494140625e+00 -2.103115767240524292e-01 -1.961516737937927246e-01 -4.599712789058685303e-01 6.005175113677978516e-01 -9.592568874359130859e-01 -2.693908102810382843e-02 -9.714282751083374023e-01 4.611433446407318115e-01 6.356800794601440430e-01 6.694215536117553711e-01 5.764541402459144592e-02 -1.078916043043136597e-01 6.592464447021484375e-01 -2.101568937301635742e+00 -9.256286621093750000e-01
-2.901297993957996368e-02 2.652339935302734375e+00 -1.302942276000976562e+00 -1.112804293632507324e+00 -3.696444258093833923e-02 -2.150462567806243896e-01 1.674185842275619507e-01 -2.417217493057250977e+00 2.330755710601806641e+00 4.423675592988729477e-03 -2.493762731552124023e+00 -2.778539359569549561e-01 1.020688652992248535e+00 6.709952354431152344e-01 2.688069581985473633e+00 1.109813094139099121e+00 -7.430561780929565430e-01 2.871953487396240234e+00 -5.430432036519050598e-03 -2.079526633024215698e-01
