# 1 100
3.718610387295484543e-04 -6.065064735594205558e-05 6.439162492752075195e-01 -4.943788349628448486e-01 3.979835212230682373e-01 2.783749103546142578e-01 -3.930009305477142334e-01 1.361828565597534180e+00 -1.061427474021911621e+00 3.976011872291564941e-01 4.426114559173583984e-01 -8.705319487489759922e-06 4.466855898499488831e-07 -1.062142729759216309e+00 7.095499313436448574e-06 -9.744173884391784668e-01 -4.663926362991333008e-01 -4.363541901111602783e-01 4.644110202789306641e-01 -6.152970790863037109e-01 -6.048932075500488281e-01 9.851013422012329102e-01 6.000325679779052734e-01 5.311887860298156738e-01 -6.170810461044311523e-01 1.174860954284667969e+00 9.090876579284667969e-01 -4.347173869609832764e-01 -3.994414508342742920e-01 -8.308556675910949707e-01 5.481893420219421387e-01 -4.670709669589996338e-01 -5.492876768112182617e-01 -4.468621611595153809e-01 -3.381235001143068075e-05 1.549911379814147949e+00 -5.111952424049377441e-01 -1.280507922172546387e+00 7.401159405708312988e-01 1.803636401891708374e-01 -1.148412346839904785e+00 -1.177840471267700195e+00 -1.649306178092956543e+00 4.124554693698883057e-01 -4.200891256332397461e-01 4.205881850793957710e-06 -7.339685544138774276e-05 1.105475306510925293e+00 5.658106803894042969e-01 -4.967568516731262207e-01 1.629554986953735352e+00 -3.922144770622253418e-01 -4.829258918762207031e-01 4.038801193237304688e-01 -6.114317774772644043e-01 5.156598687171936035e-01 5.872536897659301758e-01 2.196119748987257481e-05 -1.130712866783142090e+00 5.655899643898010254e-01 9.892985224723815918e-01 -3.922854363918304443e-01 -1.060122728347778320e+00 -8.636746406555175781e-01 -7.194602489471435547e-01 5.838258221046999097e-05 1.096878767013549805e+00 -6.712186586810275912e-05 6.485667228698730469e-01 7.570035813841968775e-05 4.163708686828613281e-01 -4.140808582305908203e-01 -3.325508832931518555e-01 -4.086490571498870850e-01 4.904772043228149414e-01 -3.786578178405761719e-01 4.608437418937683105e-01 5.807473063468933105e-01 8.945234417915344238e-01 -4.639346599578857422e-01 -5.572059154510498047e-01 -5.839505195617675781e-01 -4.110139608383178711e-01 -3.955104649066925049e-01 -1.082765817642211914e+00 4.275753498077392578e-01 -4.508128762245178223e-01 4.666305780410766602e-01 -9.315337956650182605e-05 -4.973377585411071777e-01 5.164776666788384318e-06 6.498637795448303223e-01 8.704944775672629476e-05 6.013877987861633301e-01 6.044709086418151855e-01 -9.757947921752929688e-01 -5.061904788017272949e-01 7.056404865579679608e-05 -6.829018592834472656e-01 4.704906046390533447e-01
