# 100 100
5.394319444894790649e-02 1.959759742021560669e-03 -8.925861865282058716e-02 -7.598264515399932861e-02 1.846311092376708984e-01 1.797029562294483185e-02 -6.689795851707458496e-02 3.447302430868148804e-02 2.742692828178405762e-02 -5.101424083113670349e-02 -8.369684964418411255e-02 -1.390833258628845215e-01 1.882632374763488770e-01 7.028189301490783691e-02 2.237184345722198486e-02 -2.401937171816825867e-02 5.647412966936826706e-03 -1.441236287355422974e-01 -1.335668712854385376e-01 1.423117816448211670e-01 1.927377879619598389e-01 -1.794212013483047485e-01 -5.401016212999820709e-03 -4.771101230289787054e-04 -5.164956673979759216e-02 4.567818716168403625e-02 1.040736436843872070e-01 2.339862883090972900e-01 1.726107746362686157e-01 -8.062390238046646118e-02 -7.013384252786636353e-02 -3.949446976184844971e-02 4.103341698646545410e-02 -6.045862566679716110e-03 4.330100864171981812e-02 -1.139056459069252014e-01 8.806036412715911865e-02 -7.078131288290023804e-02 -4.260470718145370483e-02 -1.088562533259391785e-01 -3.847140446305274963e-02 3.994818031787872314e-02 6.560215353965759277e-02 2.903754357248544693e-04 -3.678728267550468445e-02 9.722431004047393799e-02 1.894702762365341187e-02 2.200092747807502747e-02 3.458789363503456116e-02 -7.530834525823593140e-02 -3.491171300411224365e-01 1.090651378035545349e-01 -5.621711909770965576e-02 -8.495636284351348877e-03 1.105515286326408386e-01 4.711726307868957520e-02 -5.422021262347698212e-03 1.071671321988105774e-01 -1.078363507986068726e-01 -8.374760299921035767e-02 1.430740952491760254e-01 -1.060308236628770828e-02 -1.588489301502704620e-02 4.859795793890953064e-02 -2.074382454156875610e-01 -1.619964987039566040e-01 -1.269964277744293213e-01 -6.559905409812927246e-02 -4.769941791892051697e-02 -3.770333901047706604e-02 -1.446415036916732788e-01 -1.600797846913337708e-02 -3.861607983708381653e-02 -1.170782148838043213e-01 1.045202165842056274e-01 -3.541980171576142311e-03 2.077057957649230957e-01 7.662387192249298096e-02 2.182772755622863770e-02 1.757769137620925903e-01 9.374064207077026367e-02 1.159943565726280212e-01 1.397794932126998901e-01 -1.863417960703372955e-02 -2.064840123057365417e-02 6.743557006120681763e-02 -1.025332286953926086e-01 -3.912983089685440063e-02 -1.724092103540897369e-02 7.262723892927169800e-02 -1.769807073287665844e-03 -1.393953412771224976e-01 -3.169215843081474304e-02 -1.057081893086433411e-01 7.465744763612747192e-02 -1.050945464521646500e-02 -4.500423371791839600e-02 -5.435860157012939453e-02 -5.431376770138740540e-02 1.138014495372772217e-01
6.134156137704849243e-02 -5.723806098103523254e-04 2.582527883350849152e-02 5.384942889213562012e-02 4.585346207022666931e-02 -6.295090075582265854e-03 1.142965033650398254e-01 -1.564286649227142334e-01 -7.768262177705764771e-02 6.484723091125488281e-02 -4.931356757879257202e-02 -7.440946996212005615e-02 1.442091464996337891e-01 -2.483583092689514160e-01 7.757611572742462158e-02 1.299324184656143188e-01 -2.002740092575550079e-02 1.300479322671890259e-01 -2.376929670572280884e-02 3.684139624238014221e-02 -6.666368842124938965e-01 5.259804427623748779e-02 1.595665514469146729e-02 1.818038726923987269e-04 -1.027710586786270142e-01 -1.547648310661315918e-01 1.452938765287399292e-01 -4.065236449241638184e-02 1.359798908233642578e-01 1.260279119014739990e-01 3.326640650629997253e-02 -7.862778007984161377e-02 4.383224248886108398e-02 2.904252149164676666e-02 5.587600171566009521e-03 1.028772667050361633e-01 1.058361530303955078e-01 -1.116730347275733948e-01 1.464710664004087448e-02 -4.345261678099632263e-02 -3.905999660491943359e-02 -2.176329642534255981e-01 -8.146296441555023193e-02 2.331515774130821228e-02 1.333421748131513596e-02 2.629419788718223572e-02 1.235158275812864304e-02 1.636870801448822021e-01 -1.301911845803260803e-02 -4.083426296710968018e-02 1.782956421375274658e-01 4.090729728341102600e-02 -2.767244167625904083e-02 -1.192643344402313232e-01 -1.899017207324504852e-02 -4.346444830298423767e-02 6.029399856925010681e-02 -2.530629001557826996e-02 1.015701144933700562e-02 1.649503596127033234e-02 -4.045706614851951599e-02 5.660984199494123459e-03 -6.271630059927701950e-03 2.710228860378265381e-01 -1.173461452126502991e-01 -1.636850982904434204e-01 3.268763720989227295e-01 2.874746732413768768e-02 1.590449064970016479e-01 1.148193702101707458e-01 1.105957850813865662e-01 1.112008914351463318e-01 1.742509007453918457e-01 2.028474956750869751e-01 1.042730882763862610e-01 1.913422532379627228e-02 -1.823500990867614746e-01 -7.166577875614166260e-02 -8.749821037054061890e-02 -9.713738411664962769e-02 -8.569866418838500977e-02 -9.056503325700759888e-02 1.391169279813766479e-01 1.384705957025289536e-02 4.284973442554473877e-02 -2.058954676613211632e-03 -1.903073638677597046e-01 3.690759465098381042e-02 1.049054693430662155e-02 -4.103571176528930664e-03 8.292751014232635498e-02 2.094154059886932373e-01 9.454476833343505859e-02 -5.032007116824388504e-03 1.690152585506439209e-01 6.552930176258087158e-02 8.368355780839920044e-02 1.179583463817834854e-02 -1.736828237771987915e-01 9.861835278570652008e-03
-3.393632471561431885e-01 -1.746080279350280762e+00 -1.919482052326202393e-01 -1.262629590928554535e-02 2.324980497360229492e-01 4.055145978927612305e-01 1.294398903846740723e-01 2.189534157514572144e-01 -2.445197254419326782e-01 3.268421441316604614e-02 -1.377674639225006104e-01 3.329662680625915527e-01 2.478051185607910156e-01 6.832503527402877808e-02 4.658093154430389404e-01 1.969224065542221069e-01 -4.686517417430877686e-01 -1.940093040466308594e-01 -2.566260099411010742e-01 -1.661813259124755859e-01 5.633683130145072937e-02 -3.675707802176475525e-02 -8.411996364593505859e-01 3.054666280746459961e+00 -8.835270255804061890e-02 2.348306179046630859e-01 -1.647922024130821228e-02 -4.041627347469329834e-01 -2.264492362737655640e-01 -2.268331311643123627e-02 1.244477704167366028e-01 8.131299167871475220e-02 -2.561143636703491211e-01 -6.980631351470947266e-01 2.742640674114227295e-03 3.724628314375877380e-02 4.600584208965301514e-01 4.994832277297973633e-01 3.975063934922218323e-02 -3.764823973178863525e-01 -1.289649754762649536e-01 1.952399872243404388e-02 -1.608350723981857300e-01 -4.515333771705627441e-01 -6.551817655563354492e-01 4.548808038234710693e-01 -4.318033456802368164e-01 -4.188802093267440796e-02 6.958649307489395142e-02 2.109272480010986328e-01 -3.746138215065002441e-01 -5.322192907333374023e-01 -5.236311554908752441e-01 4.486988186836242676e-01 -4.350314736366271973e-01 3.525611385703086853e-02 -1.699468493461608887e-01 4.261400997638702393e-01 5.140277091413736343e-03 2.573560364544391632e-02 -1.846839338541030884e-01 3.430684089660644531e+00 4.434160590171813965e-01 -6.048906594514846802e-03 1.502643991261720657e-02 -4.503780007362365723e-01 5.787048935890197754e-01 -1.305120587348937988e+00 1.957152783870697021e-01 -4.667456150054931641e-01 -2.400115877389907837e-01 -1.217644736170768738e-01 2.263281680643558502e-02 -8.353719860315322876e-02 -1.287963092327117920e-01 3.782546892762184143e-02 -1.129130497574806213e-01 -4.514744579792022705e-01 2.559018731117248535e-01 2.281925529241561890e-01 -5.231539011001586914e-01 4.621726274490356445e-01 -1.886300444602966309e-01 1.376381039619445801e+00 4.943258762359619141e-01 3.442060947418212891e-01 -9.300100058317184448e-02 2.208330184221267700e-01 8.036377280950546265e-02 -7.909012958407402039e-03 1.945287287235260010e-01 -2.541068315505981445e+00 -2.718139886856079102e-01 -2.221952974796295166e-01 1.492726057767868042e-01 -9.414004534482955933e-02 3.185323998332023621e-02 3.957245349884033203e-01 -7.626726292073726654e-03 1.810071468353271484e-01
2.360686361789703369e-01 1.543184876441955566e+00 -9.768112748861312866e-02 -5.814688205718994141e-01 -8.975134044885635376e-02 -3.773360252380371094e-01 4.001676738262176514e-01 7.569253444671630859e-02 -1.320906430482864380e-01 1.267456561326980591e-01 -1.211869269609451294e-01 1.650730073451995850e-01 -1.679678112268447876e-01 3.530936539173126221e-01 -1.412343502044677734e+00 1.201696619391441345e-01 1.673565953969955444e-01 -9.754279255867004395e-02 -3.245637193322181702e-02 7.511733770370483398e-01 -1.159784495830535889e-01 1.995374709367752075e-01 3.556347191333770752e-01 -1.033268213272094727e+00 -2.200783975422382355e-02 -1.229273527860641479e-01 2.732258439064025879e-01 1.817895285785198212e-02 -3.503125607967376709e-01 4.466103389859199524e-02 -6.389379501342773438e-02 6.456100940704345703e-02 -2.870899140834808350e-01 2.577986419200897217e-01 1.683442294597625732e-01 -3.440739959478378296e-02 -1.712740063667297363e-01 1.636226624250411987e-01 1.995086111128330231e-02 -1.437215059995651245e-01 8.215872943401336670e-02 -1.106440126895904541e-01 -2.101302444934844971e-01 -1.042388826608657837e-01 3.701200187206268311e-01 8.007819950580596924e-02 8.921327441930770874e-02 -4.824392497539520264e-01 3.195116519927978516e-01 1.410226374864578247e-01 2.774639129638671875e-01 -1.995826363563537598e-01 2.286692410707473755e-01 -5.696326494216918945e-02 7.072608917951583862e-02 -4.227992594242095947e-01 -4.199589788913726807e-02 1.260729730129241943e-01 -1.940750926733016968e-01 -2.322650849819183350e-01 7.372138649225234985e-02 -7.430671453475952148e-01 2.882034704089164734e-02 -1.333643645048141479e-01 2.629776298999786377e-01 -1.116483807563781738e-01 -1.544876396656036377e-01 1.949336528778076172e-01 3.498540446162223816e-02 1.256899386644363403e-01 -3.248624801635742188e-01 -2.769986093044281006e-01 -3.259463608264923096e-02 -2.293897718191146851e-01 -2.063727825880050659e-01 2.015823423862457275e-01 -2.330615520477294922e-01 -5.609707534313201904e-02 2.352203726768493652e-01 2.639559209346771240e-01 8.646883070468902588e-02 -1.168192744255065918e+00 -3.257475197315216064e-01 -6.080417037010192871e-01 4.177248105406761169e-02 -1.603017002344131470e-01 -2.131901979446411133e-01 -5.762243270874023438e-01 -1.321815252304077148e-01 8.015135675668716431e-02 -1.495268940925598145e-02 -2.918591909110546112e-02 -1.078603416681289673e-01 -4.714807868003845215e-02 3.645228222012519836e-02 -1.266223788261413574e-01 2.040468007326126099e-01 -1.715935587882995605e+00 1.068825349211692810e-01 -1.102179408073425293e+00
-3.422678709030151367e-01 -1.024249076843261719e+00 -2.079203128814697266e-01 -1.515811383724212646e-01 3.956348001956939697e-01 1.008559942245483398e+00 -1.571176946163177490e-02 9.874331206083297729e-02 -6.403383612632751465e-02 3.636395558714866638e-02 -3.542062640190124512e-02 1.862289458513259888e-01 1.374150067567825317e-01 2.788155972957611084e-01 2.967255711555480957e-01 1.944837272167205811e-01 -2.201103605329990387e-03 -9.408628940582275391e-02 -3.461539745330810547e-02 1.636648923158645630e-01 -6.543100625276565552e-02 2.800777852535247803e-01 -5.309633612632751465e-01 6.903071999549865723e-01 -3.189971148967742920e-01 -7.931895554065704346e-02 2.205291204154491425e-02 -2.137269228696823120e-01 -2.830319404602050781e-01 -1.141903027892112732e-01 2.545210719108581543e-01 1.806593984365463257e-01 -1.300848722457885742e-01 2.100556045770645142e-01 2.945124506950378418e-01 2.318615466356277466e-01 4.932093322277069092e-01 1.458428949117660522e-01 5.421807989478111267e-03 -2.864196896553039551e-01 -1.518121212720870972e-01 -1.115568429231643677e-01 -2.314232736825942993e-01 -3.427223265171051025e-01 -1.108495831489562988e+00 3.245293796062469482e-01 -2.992935180664062500e-01 -1.579288691282272339e-01 2.101901685819029808e-03 2.393880784511566162e-01 -1.025659441947937012e-01 -1.555262058973312378e-01 -3.992517590522766113e-01 4.446805119514465332e-01 -8.096566796302795410e-02 -1.730165630578994751e-01 -2.387886047363281250e-01 2.009565085172653198e-01 -2.728615999221801758e-01 -1.775567084550857544e-01 -9.586291015148162842e-02 1.496665120124816895e+00 1.709601096808910370e-02 -6.523070484399795532e-02 7.389251142740249634e-02 -2.561352588236331940e-02 6.372044682502746582e-01 -1.840426564216613770e+00 2.230219542980194092e-01 -3.010545969009399414e-01 -6.323899328708648682e-02 -3.204924166202545166e-01 2.376149743795394897e-01 -2.609911262989044189e-01 -1.660643070936203003e-01 2.398776356130838394e-03 -1.157708466053009033e-01 -3.442503511905670166e-02 4.118426889181137085e-02 4.182196781039237976e-02 -2.013581693172454834e-01 1.719565391540527344e-01 -3.093079328536987305e-01 2.994135022163391113e-01 1.942462176084518433e-01 3.768627643585205078e-01 -5.644733458757400513e-02 -2.035762071609497070e-01 1.867006868124008179e-01 2.647293731570243835e-02 1.559870392084121704e-01 -1.121676802635192871e+00 -7.201430946588516235e-02 -7.604970037937164307e-02 3.181577622890472412e-01 -1.165316775441169739e-01 3.160211741924285889e-01 2.046945840120315552e-01 3.782790899276733398e-01 -8.531409502029418945e-02
-2.608270645141601562e-01 -1.637021750211715698e-01 2.283734083175659180e-01 6.037644669413566589e-02 4.587490111589431763e-02 6.101691126823425293e-01 -1.122825518250465393e-01 4.158371128141880035e-03 1.824210435152053833e-01 -1.434592436999082565e-02 1.530831307172775269e-01 -3.249359130859375000e-01 -3.046402037143707275e-01 2.270532697439193726e-01 -8.146390318870544434e-02 -6.160779297351837158e-02 3.123832046985626221e-01 2.086784541606903076e-01 1.758454740047454834e-01 1.777858883142471313e-01 -9.651768207550048828e-01 -1.601777076721191406e-01 -4.282324016094207764e-01 1.185783967375755310e-01 1.612741127610206604e-02 -4.345800876617431641e-01 -7.813636958599090576e-02 -7.513316869735717773e-01 -4.446996748447418213e-01 2.009353786706924438e-02 -2.130625694990158081e-01 -1.325979083776473999e-01 -9.409113228321075439e-02 -1.446615308523178101e-01 -2.053201347589492798e-01 -5.222409963607788086e-02 7.221002578735351562e-01 -1.443978399038314819e-01 6.801509857177734375e-02 3.192889690399169922e-01 -6.183180212974548340e-01 -9.196822643280029297e-01 1.782192438840866089e-01 9.515929222106933594e-02 -4.220589101314544678e-01 -2.630833685398101807e-01 3.329957723617553711e-01 -2.983813583850860596e-01 6.900568027049303055e-03 6.460816413164138794e-02 -6.024104729294776917e-02 3.523383736610412598e-01 -9.409938454627990723e-01 7.892274856567382812e-01 3.239625692367553711e-01 -8.433858305215835571e-02 -4.791731014847755432e-02 -2.583758831024169922e-01 -7.364504784345626831e-02 -8.771746605634689331e-02 2.734391689300537109e-01 1.496223509311676025e-01 -3.817096054553985596e-01 -1.889029592275619507e-01 -1.660864651203155518e-01 1.528954654932022095e-01 9.250055253505706787e-02 -4.980321526527404785e-01 -1.882425136864185333e-02 3.998896777629852295e-01 2.685240656137466431e-02 -3.607912063598632812e-01 -1.507010310888290405e-01 -2.220320105552673340e-01 4.247442632913589478e-02 -1.409039646387100220e-01 9.373326599597930908e-02 1.307004243135452271e-01 -2.289264649152755737e-01 3.734201565384864807e-02 3.461059331893920898e-01 1.252949684858322144e-01 3.333727642893791199e-02 3.799427449703216553e-01 -3.480812907218933105e-01 9.122118353843688965e-01 1.680915802717208862e-02 1.350296139717102051e-01 -1.813485920429229736e-01 9.628061205148696899e-03 7.728287577629089355e-02 -1.553472131490707397e-01 2.729563415050506592e-01 -1.156216710805892944e-01 6.728417277336120605e-01 5.866934731602668762e-02 -1.603906899690628052e-01 2.588153257966041565e-02 1.527411639690399170e-01 2.950429730117321014e-02
2.847821265459060669e-02 9.989213943481445312e-01 -3.061005286872386932e-02 -4.243003129959106445e-01 -1.513234619051218033e-02 -3.711720407009124756e-01 2.935114204883575439e-01 1.674387156963348389e-01 -1.481726169586181641e-01 -2.293051965534687042e-02 -2.216781824827194214e-01 2.360789626836776733e-01 -7.180681824684143066e-02 4.881840050220489502e-01 -2.803709030151367188e+00 2.020020484924316406e-01 -1.327408403158187866e-01 -1.157867982983589172e-01 -5.842674896121025085e-02 9.394006133079528809e-01 -2.217989265918731689e-01 4.387236014008522034e-02 1.898023635149002075e-01 -8.412900567054748535e-01 1.633647829294204712e-02 -6.092312186956405640e-02 5.778978765010833740e-02 1.030232533812522888e-01 -2.686982154846191406e-01 -8.549154736101627350e-03 -8.867321535944938660e-03 9.097118675708770752e-02 -2.660864889621734619e-01 3.004793822765350342e-01 3.488265275955200195e-01 1.206213459372520447e-01 5.821443349123001099e-02 4.631566256284713745e-02 -1.136752888560295105e-01 -1.665543168783187866e-01 1.526305228471755981e-01 -5.344579368829727173e-02 -3.548319041728973389e-01 3.537484630942344666e-02 3.600670099258422852e-01 1.024704948067665100e-01 -1.079270169138908386e-01 -2.197912037372589111e-01 1.429631561040878296e-01 2.831988036632537842e-01 7.526493072509765625e-02 2.405806817114353180e-02 1.416925936937332153e-01 1.518477778881788254e-02 6.517592072486877441e-02 -5.135982632637023926e-01 -2.085353434085845947e-01 -9.625838696956634521e-02 -2.150924950838088989e-01 -1.892409324645996094e-01 -5.598879884928464890e-03 -6.452413797378540039e-01 1.171014085412025452e-01 -1.709707528352737427e-01 1.384165585041046143e-01 6.218459457159042358e-02 -2.595150470733642578e-01 2.381302267313003540e-01 2.841718196868896484e-01 -1.801917999982833862e-01 -1.326379030942916870e-01 -2.133132070302963257e-01 1.215818002820014954e-01 -3.474472165107727051e-01 -1.673787832260131836e-01 3.146748244762420654e-02 -2.621698379516601562e-01 -2.115945816040039062e-01 2.268609404563903809e-01 1.305362135171890259e-01 -1.301467418670654297e-01 -2.533222198486328125e+00 -2.776540517807006836e-01 -4.467754065990447998e-01 1.540589779615402222e-01 -2.252371162176132202e-01 -1.360222399234771729e-01 -4.712654352188110352e-01 -4.129794538021087646e-01 2.386348247528076172e-01 1.879731118679046631e-01 9.517920762300491333e-02 -9.334269911050796509e-02 -1.912775188684463501e-01 5.296678096055984497e-02 -5.380312912166118622e-03 1.414415538311004639e-01 -3.821097373962402344e+00 1.966385692358016968e-01 -1.050283670425415039e+00
-9.012056142091751099e-02 -4.124061763286590576e-01 3.108136951923370361e-01 6.621804088354110718e-02 4.045417904853820801e-02 5.360804200172424316e-01 -2.297210991382598877e-01 -2.108067572116851807e-01 2.185036689043045044e-01 -9.848426282405853271e-02 -4.635699093341827393e-02 -3.799410462379455566e-01 -1.955289095640182495e-01 3.338875770568847656e-01 2.979617565870285034e-04 6.287924200296401978e-02 1.942285299301147461e-01 -9.320725686848163605e-03 2.318114638328552246e-01 -3.035311214625835419e-02 -1.143009543418884277e+00 -2.773374617099761963e-01 -4.194150567054748535e-01 6.727451086044311523e-02 8.760686963796615601e-02 -1.718267649412155151e-01 -2.754250466823577881e-01 -9.136996865272521973e-01 -3.119838237762451172e-01 1.359386593103408813e-01 2.911550737917423248e-02 -1.808680593967437744e-01 2.743963599205017090e-01 -2.748249769210815430e-01 -6.349246948957443237e-02 -1.009262427687644958e-01 1.026639342308044434e+00 -3.503281474113464355e-01 5.283756181597709656e-02 2.118923962116241455e-01 -1.024152398109436035e+00 -1.154883146286010742e+00 1.898594647645950317e-01 9.123083949089050293e-02 -6.045207381248474121e-01 -2.758412957191467285e-01 3.004247248172760010e-01 -4.361447095870971680e-01 -1.222432106733322144e-01 2.790968865156173706e-03 -7.193549722433090210e-02 4.001341462135314941e-01 -1.075772285461425781e+00 1.063377737998962402e+00 1.237676739692687988e-01 1.209484040737152100e-01 3.758740052580833435e-02 -5.859229713678359985e-02 1.863851696252822876e-01 1.131903454661369324e-01 1.064383238554000854e-01 2.742063701152801514e-01 -1.562175005674362183e-01 -3.566286265850067139e-01 -1.720875948667526245e-01 1.792476326227188110e-01 2.273669987916946411e-01 -4.388512969017028809e-01 -2.947006225585937500e-01 3.946733474731445312e-01 2.440740466117858887e-01 -5.167241096496582031e-01 -2.167307585477828979e-01 -2.718338966369628906e-01 1.725309938192367554e-01 -1.054310649633407593e-01 2.608326077461242676e-01 3.810571432113647461e-01 -8.840244263410568237e-03 -1.215397417545318604e-01 2.478972971439361572e-01 -2.618167400360107422e-01 3.004302978515625000e-01 6.463203579187393188e-02 -1.044119000434875488e-01 1.132132649421691895e+00 3.340972214937210083e-02 7.585562020540237427e-02 -7.124383002519607544e-02 -1.844097524881362915e-01 -2.168750613927841187e-01 -2.085454910993576050e-01 2.713288962841033936e-01 3.657232597470283508e-02 1.139482378959655762e+00 3.645113110542297363e-02 -7.583303004503250122e-02 -2.573528587818145752e-01 -3.160113096237182617e-01 2.864915691316127777e-02
2.505231797695159912e-01 6.506775021553039551e-01 -3.411260247230529785e-01 -1.534259617328643799e-01 -3.946773409843444824e-01 -9.727002382278442383e-01 4.961119219660758972e-02 2.681066989898681641e-01 -5.598785877227783203e-01 2.364599406719207764e-01 -1.212772503495216370e-01 3.116298317909240723e-01 4.767681658267974854e-01 -9.853624552488327026e-02 -1.610709428787231445e-01 5.232270434498786926e-02 -3.670035302639007568e-01 -2.304068505764007568e-01 -3.751793131232261658e-02 1.938133388757705688e-01 1.377648472785949707e+00 -1.821578480303287506e-02 4.488483667373657227e-01 -4.918668270111083984e-01 -2.745158970355987549e-01 4.833923280239105225e-01 8.400531113147735596e-02 2.967489242553710938e+00 2.523820102214813232e-01 -4.578315839171409607e-02 6.430853158235549927e-02 2.141796946525573730e-01 -2.118303440511226654e-02 3.474322855472564697e-01 5.245846509933471680e-02 3.232745081186294556e-02 -2.824969053268432617e+00 3.499765992164611816e-01 -5.813056230545043945e-02 -2.857157588005065918e-01 2.713755846023559570e+00 2.660839557647705078e+00 -1.635970473289489746e-01 -2.925296723842620850e-01 1.190561294555664062e+00 4.307856559753417969e-01 -4.434807300567626953e-01 1.210447847843170166e-01 2.954979240894317627e-01 1.450189352035522461e-01 -5.542915686964988708e-02 -4.175023138523101807e-01 3.087323904037475586e+00 -3.022151231765747070e+00 -4.728824794292449951e-01 -1.923495829105377197e-01 -2.029627263545989990e-01 3.168290257453918457e-01 -1.571178585290908813e-01 -1.851048022508621216e-01 -2.432953119277954102e-01 -3.907792270183563232e-01 2.893683314323425293e-01 1.980085521936416626e-01 2.472156584262847900e-01 -5.329164862632751465e-01 -1.892226636409759521e-01 8.458492159843444824e-01 -1.779498532414436340e-02 -2.110565602779388428e-01 -2.698447406291961670e-01 2.273873686790466309e-01 1.994170546531677246e-01 3.558649122714996338e-01 -1.228459328413009644e-01 1.375239044427871704e-01 -1.188154444098472595e-01 -3.878509104251861572e-01 1.868792027235031128e-01 3.571565076708793640e-02 -3.114632368087768555e-01 4.910517856478691101e-02 -2.097029983997344971e-01 -3.610237240791320801e-01 2.848345339298248291e-01 -2.976606369018554688e+00 -1.446886360645294189e-01 -1.845590919256210327e-01 -2.504456937313079834e-01 1.896807551383972168e-01 1.247950047254562378e-01 2.150622606277465820e-01 -1.564988046884536743e-01 5.560345482081174850e-03 -2.780573844909667969e+00 -5.859316512942314148e-02 4.112302511930465698e-02 -4.721623286604881287e-02 2.756109237670898438e-01 -4.885834828019142151e-02
-2.548559010028839111e-01 -1.088126778602600098e+00 1.705608069896697998e-01 6.562508940696716309e-01 2.665727734565734863e-01 9.667325764894485474e-02 -3.603578507900238037e-01 -3.229732811450958252e-01 -5.231133848428726196e-02 -3.056133091449737549e-01 2.060294300317764282e-01 -4.434211924672126770e-02 -2.496860921382904053e-01 -1.099232792854309082e+00 1.439467668533325195e+00 -2.827967703342437744e-01 2.026102393865585327e-01 1.633019596338272095e-01 2.258039563894271851e-01 -1.058471798896789551e+00 2.258667498826980591e-01 -3.499301373958587646e-01 -3.789950907230377197e-01 9.775803089141845703e-01 4.187884628772735596e-01 -1.068920195102691650e-01 -3.032334148883819580e-01 -3.212703764438629150e-02 4.692232608795166016e-01 3.906975984573364258e-01 -4.088789522647857666e-01 -3.834937810897827148e-01 4.603448510169982910e-01 -4.283789694309234619e-01 -2.638067305088043213e-01 -1.531994789838790894e-01 1.972712725400924683e-01 -1.916579157114028931e-02 4.284175932407379150e-01 3.058416247367858887e-01 5.899231880903244019e-03 5.734363198280334473e-02 3.835443854331970215e-01 5.805497989058494568e-02 -3.038276433944702148e-01 -2.087637484073638916e-01 2.449273169040679932e-01 5.486783385276794434e-01 -3.876446783542633057e-01 -4.381916821002960205e-01 5.939011462032794952e-03 1.797110289335250854e-01 -1.734397262334823608e-01 8.146343380212783813e-02 1.202129647135734558e-01 8.299660682678222656e-01 2.761786580085754395e-01 -2.565062642097473145e-01 4.254396855831146240e-01 3.587678372859954834e-01 1.373390853404998779e-01 8.277734518051147461e-01 -4.817811399698257446e-02 5.151451230049133301e-01 -4.013361036777496338e-01 2.650877237319946289e-01 8.743044734001159668e-02 -2.631184458732604980e-01 -4.354183077812194824e-01 2.466643899679183960e-01 2.785665988922119141e-01 1.209927871823310852e-01 -2.257487177848815918e-01 4.575407803058624268e-01 4.408500790596008301e-01 -2.437998950481414795e-01 4.809400141239166260e-01 2.092865854501724243e-01 -2.748786807060241699e-01 -5.473729968070983887e-01 2.872319817543029785e-01 1.210842251777648926e+00 2.417914122343063354e-01 2.493073940277099609e-01 -2.896634042263031006e-01 4.331072047352790833e-02 1.490708440542221069e-01 4.129780530929565430e-01 6.460139155387878418e-01 -1.712155044078826904e-01 -1.895854026079177856e-01 -1.658306270837783813e-01 2.199841737747192383e-01 4.156384170055389404e-01 -1.165084466338157654e-01 3.546977937221527100e-01 -2.320371717214584351e-01 1.568589687347412109e+00 -5.403856039047241211e-01 1.033181786537170410e+00
-1.253778040409088135e-01 -1.336922526359558105e+00 -1.219661533832550049e-01 6.448168158531188965e-01 3.481841981410980225e-01 3.229192495346069336e-01 -3.122721910476684570e-01 -2.090785205364227295e-01 3.797987848520278931e-02 -2.995077669620513916e-01 1.803973317146301270e-01 -2.054198086261749268e-01 1.413038671016693115e-01 -5.507526993751525879e-01 3.412678718566894531e+00 -1.328621357679367065e-01 -1.261440962553024292e-01 5.634981766343116760e-02 2.801273465156555176e-01 -8.896742463111877441e-01 1.201076209545135498e-01 -5.236171558499336243e-02 -4.034651815891265869e-01 1.113401651382446289e+00 2.471307069063186646e-01 -1.846765875816345215e-01 -7.687439024448394775e-02 -2.226120978593826294e-01 7.640209794044494629e-02 -2.805326506495475769e-02 -1.806731969118118286e-01 -5.959042534232139587e-02 2.446213066577911377e-01 -3.772644400596618652e-01 -1.537981778383255005e-01 -2.750881612300872803e-01 1.352562755346298218e-01 4.838668555021286011e-02 2.383392602205276489e-01 -1.047965511679649353e-01 -6.770343333482742310e-02 2.754919230937957764e-01 2.601511180400848389e-01 -1.031221002340316772e-01 -2.051874697208404541e-01 7.321095466613769531e-02 1.878856569528579712e-01 2.007027268409729004e-01 -2.075819671154022217e-01 -6.636787950992584229e-02 -5.962517112493515015e-03 1.114233136177062988e-01 -1.275419164448976517e-02 -1.971420273184776306e-02 -4.711131751537322998e-02 4.783305227756500244e-01 1.186869665980339050e-01 6.950953602790832520e-02 2.249229848384857178e-01 2.726889252662658691e-01 1.666244715452194214e-01 8.992955684661865234e-01 -2.300042808055877686e-01 4.327939450740814209e-01 -1.172281131148338318e-01 1.505938917398452759e-01 5.188340693712234497e-02 -3.888595700263977051e-01 -1.489979475736618042e-01 1.057086288928985596e-01 1.136285066604614258e-01 3.093727678060531616e-02 -1.563653796911239624e-01 3.464467525482177734e-01 3.235891163349151611e-01 -3.685065805912017822e-01 2.204855829477310181e-01 1.467338949441909790e-01 -1.301732361316680908e-01 -4.227805435657501221e-01 -5.343449767678976059e-03 3.289405584335327148e+00 2.956038415431976318e-01 2.683365643024444580e-01 -1.694246977567672729e-01 1.321165859699249268e-01 -3.333979472517967224e-02 5.156367421150207520e-01 3.734188973903656006e-01 -1.303504705429077148e-01 -8.441267162561416626e-02 -2.716717682778835297e-02 6.899369880557060242e-03 1.622723639011383057e-01 3.620350360870361328e-02 9.338422119617462158e-02 -1.720384359359741211e-01 4.549981117248535156e+00 -1.704989820718765259e-01 1.145096540451049805e+00
-4.652845114469528198e-02 -5.905929356231354177e-06 7.817452400922775269e-02 -6.628780066967010498e-02 -6.703965365886688232e-02 -2.608296228572726250e-03 -1.970650702714920044e-01 5.803689733147621155e-02 -1.393281370401382446e-01 -7.117243111133575439e-02 2.053859643638134003e-02 -3.351992368698120117e-02 -8.579730242490768433e-02 -1.945440918207168579e-01 -1.891021877527236938e-01 7.020726799964904785e-02 -2.687320671975612640e-02 3.303499147295951843e-02 1.860556006431579590e-01 -1.573456265032291412e-02 2.307382225990295410e-01 6.593193858861923218e-02 -1.110464800149202347e-03 -3.424181340960785747e-05 -1.224222481250762939e-01 -2.753614261746406555e-02 -2.390089482069015503e-01 -4.573535919189453125e-02 2.109990641474723816e-02 1.013150066137313843e-01 1.381021142005920410e-01 -4.794889688491821289e-02 -8.927455544471740723e-02 1.331914827460423112e-04 2.815297432243824005e-02 8.249275386333465576e-02 1.585990786552429199e-01 9.090574830770492554e-02 -5.328870937228202820e-02 -1.235234364867210388e-01 1.614343258552253246e-03 -5.359242111444473267e-02 4.332920163869857788e-02 -1.825420856475830078e-01 3.534754505380988121e-04 -1.581387817859649658e-01 -6.844350695610046387e-02 1.398439854383468628e-01 1.567198783159255981e-01 -1.345924437046051025e-01 2.922194004058837891e-01 1.206990554928779602e-01 6.507610529661178589e-02 -8.424624800682067871e-02 -1.515813469886779785e-01 9.103085100650787354e-02 -7.395565509796142578e-02 -1.328249424695968628e-01 -1.900035589933395386e-01 -2.197410017251968384e-01 3.695879876613616943e-02 8.094278746284544468e-05 9.121211618185043335e-02 1.945890858769416809e-02 1.283799484372138977e-02 -1.021495908498764038e-01 5.679417401552200317e-03 3.968244884163141251e-03 -9.073241800069808960e-02 1.040718238800764084e-02 -6.996481120586395264e-02 4.202706813812255859e-01 1.396132539957761765e-02 1.797882467508316040e-01 2.882139198482036591e-02 -1.419014483690261841e-01 6.800887733697891235e-02 2.121292985975742340e-02 1.917823962867259979e-02 1.008697003126144409e-01 7.484707236289978027e-02 1.411733683198690414e-02 -9.705223143100738525e-02 4.882663488388061523e-04 -9.762695431709289551e-02 9.392727911472320557e-02 -1.037651766091585159e-02 1.208564615808427334e-03 -1.446286588907241821e-02 -1.227580830454826355e-01 -6.683156639337539673e-02 9.227899718098342419e-04 1.209020987153053284e-01 6.116789579391479492e-02 -7.677876949310302734e-02 -2.140785381197929382e-02 8.067814260721206665e-02 7.133130729198455811e-02 3.115470334887504578e-02 -1.829700171947479248e-02
4.017512872815132141e-02 -7.567891152575612068e-04 1.621235162019729614e-02 -6.207441538572311401e-02 3.526018932461738586e-03 -8.579984307289123535e-03 -6.161178648471832275e-02 -8.874607086181640625e-02 1.262292414903640747e-01 3.095558658242225647e-02 8.162682875990867615e-03 -3.598716575652360916e-03 1.905824989080429077e-01 8.185531198978424072e-02 -1.767134070396423340e-01 7.193216681480407715e-02 -6.210292875766754150e-02 3.733447566628456116e-02 5.779110267758369446e-02 5.188425257802009583e-02 -2.879537343978881836e-01 1.620341688394546509e-01 8.877274580299854279e-03 2.451408654451370239e-04 1.449855715036392212e-01 -1.720222085714340210e-01 -1.434208005666732788e-01 -9.385699033737182617e-02 -1.159437745809555054e-01 4.554326832294464111e-02 -1.269197463989257812e-01 -1.362153291702270508e-01 1.057012155652046204e-01 9.552279487252235413e-03 7.920255511999130249e-02 -9.014337509870529175e-02 2.852857112884521484e-03 -1.407535672187805176e-01 -1.435067206621170044e-01 1.782544106245040894e-01 -1.317670792341232300e-01 -1.417997628450393677e-01 7.276364415884017944e-02 -7.118106819689273834e-03 1.302305236458778381e-02 6.070316955447196960e-02 -7.797581702470779419e-02 5.594184156507253647e-03 1.321808844804763794e-01 -1.329578906297683716e-01 1.557074040174484253e-01 1.172120124101638794e-01 1.062605381011962891e-01 1.225993782281875610e-01 -2.836679108440876007e-02 1.199021413922309875e-01 -6.062480434775352478e-02 -6.866603624075651169e-03 -1.993462443351745605e-03 -7.312151137739419937e-03 1.131326407194137573e-01 4.753126297146081924e-03 3.922507166862487793e-03 6.986337900161743164e-02 1.170127168297767639e-01 4.318242892622947693e-02 9.810870885848999023e-02 2.168486081063747406e-02 1.918337643146514893e-01 -1.230393052101135254e-01 5.116971582174301147e-02 2.255871593952178955e-01 -9.164661914110183716e-02 -3.307119011878967285e-02 5.880902055650949478e-03 1.488271057605743408e-01 1.032090783119201660e-01 -1.532635241746902466e-01 9.804940223693847656e-02 2.758764289319515228e-02 -4.830988124012947083e-02 5.854035168886184692e-02 1.045412272214889526e-01 8.320489898324012756e-03 1.358264237642288208e-01 -9.089604020118713379e-02 -3.080305829644203186e-02 1.111317053437232971e-02 -7.553632371127605438e-03 -5.639884620904922485e-02 -9.776794165372848511e-02 9.149633347988128662e-02 -8.481492102146148682e-02 -1.330889463424682617e-01 7.303871959447860718e-02 -1.678508967161178589e-01 9.029425680637359619e-02 4.568168520927429199e-02 5.807830393314361572e-02 8.633230812847614288e-03
-9.907121956348419189e-02 3.019739687442779541e-01 -4.259368479251861572e-01 -1.801890879869461060e-02 -4.951983317732810974e-02 -4.683659672737121582e-01 1.945240646600723267e-01 2.150712907314300537e-01 -3.809845149517059326e-01 2.299071252346038818e-01 -2.731241583824157715e-01 4.072543084621429443e-01 2.744480371475219727e-01 -4.169508218765258789e-01 1.529713124036788940e-01 -7.760412408970296383e-04 -4.445549547672271729e-01 -6.272417306900024414e-02 -1.869271248579025269e-01 -8.352049626410007477e-03 1.100340485572814941e+00 2.447531670331954956e-01 5.060034394264221191e-01 -2.957052886486053467e-01 -1.893658339977264404e-01 1.638485938310623169e-01 -6.571809947490692139e-02 1.068763971328735352e+00 4.941478073596954346e-01 -1.390056759119033813e-01 2.145056277513504028e-01 6.860652565956115723e-02 -1.351963877677917480e-01 2.409103214740753174e-01 2.958829700946807861e-01 3.294515982270240784e-02 -1.160368561744689941e+00 3.366520404815673828e-01 -2.363105714321136475e-01 -3.113766908645629883e-01 1.066561579704284668e+00 1.172538399696350098e+00 -3.065104223787784576e-02 -4.139380455017089844e-01 6.135979294776916504e-01 3.973619341850280762e-01 -1.794236451387405396e-01 4.038360714912414551e-01 7.598672807216644287e-02 7.617773115634918213e-02 -1.396602988243103027e-01 -3.429485857486724854e-01 9.593986868858337402e-01 -1.182758688926696777e+00 -1.220143958926200867e-01 -2.725085616111755371e-01 -2.666002511978149414e-01 2.600237131118774414e-01 -2.508156597614288330e-01 4.528147634118795395e-03 -2.515510320663452148e-01 -2.755399346351623535e-01 2.272454947233200073e-01 4.952178597450256348e-01 2.780993282794952393e-02 -2.016770243644714355e-01 -2.443930357694625854e-01 4.189285933971405029e-01 1.270690858364105225e-01 -1.868094950914382935e-01 6.598746031522750854e-02 2.309841513633728027e-01 8.129233121871948242e-02 4.165723323822021484e-01 -8.945231884717941284e-02 2.507072687149047852e-01 -6.800767034292221069e-02 -1.464454978704452515e-01 2.494330108165740967e-01 1.734980940818786621e-01 -2.229889333248138428e-01 5.089430138468742371e-02 3.498483076691627502e-02 -3.699629008769989014e-01 3.789519369602203369e-01 -1.184354662895202637e+00 -2.406429648399353027e-01 -1.002103313803672791e-01 -1.477096974849700928e-01 2.481841295957565308e-01 2.320699393749237061e-01 6.063131615519523621e-03 -2.406596094369888306e-01 -4.350890964269638062e-02 -1.013937592506408691e+00 3.469793498516082764e-02 6.625027209520339966e-02 1.638164818286895752e-01 2.145368605852127075e-02 3.445275127887725830e-02
-4.071893543004989624e-02 -1.253687660209834576e-04 -1.240763589739799500e-01 4.665057361125946045e-02 -5.106386169791221619e-02 2.911104820668697357e-03 -8.860611915588378906e-02 1.169734671711921692e-01 1.650608032941818237e-01 -6.783064454793930054e-03 -9.979558736085891724e-02 -1.230378225445747375e-01 1.157747209072113037e-02 2.049782127141952515e-01 -1.448898464441299438e-01 8.977881819009780884e-02 -1.163091436028480530e-01 3.940965980291366577e-02 5.033867433667182922e-02 -9.393328428268432617e-02 9.285773038864135742e-01 -1.602481305599212646e-01 -1.107731088995933533e-02 -2.641796891111880541e-05 1.137636750936508179e-01 8.366181701421737671e-02 2.917544450610876083e-03 6.334926187992095947e-02 -3.993161618709564209e-01 -4.588935524225234985e-02 1.197233051061630249e-01 1.586235761642456055e-01 -1.838034093379974365e-01 -2.178390324115753174e-02 -1.217058598995208740e-01 1.285630762577056885e-01 3.276741504669189453e-02 1.426576077938079834e-01 -1.298666447401046753e-01 -5.221995338797569275e-02 3.797256201505661011e-02 3.465365469455718994e-01 2.978401258587837219e-02 1.260931789875030518e-01 -3.136734245344996452e-03 1.741105914115905762e-01 5.126672610640525818e-02 -7.916790433228015900e-03 2.330279164016246796e-02 -1.548333615064620972e-01 -2.043714672327041626e-01 2.240310050547122955e-02 -7.352987676858901978e-02 7.683881372213363647e-02 -1.408220827579498291e-02 1.484698732383549213e-03 -2.994901267811655998e-03 -6.348440796136856079e-02 -2.409727312624454498e-03 -7.377836853265762329e-02 6.970284134149551392e-02 4.348348302301019430e-04 -5.187349859625101089e-03 -1.869405508041381836e-01 8.656372129917144775e-02 -1.518014818429946899e-01 -1.946515142917633057e-01 -1.027411129325628281e-02 -2.844107896089553833e-02 4.834398999810218811e-02 -9.539241902530193329e-03 -1.591705083847045898e-01 -3.797984868288040161e-02 -2.956987619400024414e-01 7.250430434942245483e-02 -1.063950210809707642e-01 -1.537947505712509155e-01 6.349823623895645142e-02 1.335684508085250854e-01 2.082682959735393524e-02 1.056551337242126465e-01 -4.619308188557624817e-02 1.026875078678131104e-01 -3.666018135845661163e-03 3.663925826549530029e-02 -1.725988537073135376e-01 3.181138262152671814e-02 4.936099518090486526e-03 2.167055197060108185e-02 -1.441293656826019287e-01 7.430063188076019287e-02 -1.214465126395225525e-01 9.270039200782775879e-02 -1.417430639266967773e-01 -9.896206110715866089e-02 1.048454791307449341e-01 -1.338408589363098145e-01 8.079115301370620728e-02 4.322982206940650940e-02 -7.141585648059844971e-02
-4.528771340847015381e-02 3.163928687572479248e-01 -3.632542490959167480e-01 -2.377901971340179443e-01 -1.112236604094505310e-01 -6.831474304199218750e-01 1.017438769340515137e-01 -3.878549486398696899e-02 -2.649427056312561035e-01 -2.896821126341819763e-02 -2.378503382205963135e-01 4.124426841735839844e-01 1.330434530973434448e-01 -4.369802176952362061e-01 3.169559314846992493e-02 -5.620780959725379944e-02 -3.743201792240142822e-01 -1.689601391553878784e-01 -3.304820880293846130e-02 8.694458752870559692e-03 1.075082182884216309e+00 -2.186690457165241241e-02 2.468984127044677734e-01 -1.942292302846908569e-01 -1.624891161918640137e-01 3.008573055267333984e-01 1.242523118853569031e-01 1.236877799034118652e+00 3.059241473674774170e-01 9.468364529311656952e-03 -5.353049933910369873e-02 1.620521396398544312e-01 5.076521262526512146e-02 4.187349379062652588e-01 2.765552103519439697e-01 1.525657176971435547e-01 -9.631584882736206055e-01 3.639703094959259033e-01 -1.226494461297988892e-02 -2.861819267272949219e-01 9.228695631027221680e-01 1.360391736030578613e+00 -2.365821599960327148e-01 -3.171854615211486816e-01 4.691906273365020752e-01 2.212329804897308350e-01 -2.887169718742370605e-01 4.383986294269561768e-01 1.484763026237487793e-01 2.946931496262550354e-02 4.094638861715793610e-03 -2.749658226966857910e-01 1.055325150489807129e+00 -1.237204551696777344e+00 -5.696330219507217407e-02 -2.247624993324279785e-01 -1.206126809120178223e-01 2.884908020496368408e-01 -2.802474498748779297e-01 5.160176008939743042e-02 -1.621409207582473755e-01 -2.581714391708374023e-01 2.800990343093872070e-01 3.547133803367614746e-01 6.807269901037216187e-02 -3.535653650760650635e-01 -7.119553536176681519e-02 6.228429079055786133e-01 -1.243028556928038597e-03 -3.184111118316650391e-01 -3.755578026175498962e-02 3.301790058612823486e-01 2.201682627201080322e-01 4.962481856346130371e-01 -1.802803725004196167e-01 2.337701767683029175e-01 -1.535423845052719116e-01 -4.505973160266876221e-01 2.862650454044342041e-01 -1.181475725024938583e-02 -4.278881549835205078e-01 7.177355885505676270e-02 5.048750340938568115e-02 -3.231902718544006348e-01 1.629563570022583008e-01 -1.043820738792419434e+00 -2.056831121444702148e-01 -2.657658159732818604e-01 -1.408031433820724487e-01 2.063374593853950500e-02 1.848263293504714966e-01 1.854402124881744385e-01 -2.889542281627655029e-01 -1.426593363285064697e-01 -1.184380292892456055e+00 -1.869074702262878418e-01 6.547516211867332458e-03 -4.106571897864341736e-02 1.466016471385955811e-01 -1.422229260206222534e-01
1.531372666358947754e-01 9.711992144584655762e-01 -1.185074895620346069e-01 -1.154736876487731934e+00 -1.353882402181625366e-01 -1.059040576219558716e-01 5.020393729209899902e-01 5.754600763320922852e-01 -2.483180165290832520e-01 7.528981566429138184e-01 -7.144727706909179688e-01 3.363597393035888672e-01 1.687150150537490845e-01 2.281848192214965820e+00 -2.505322694778442383e+00 4.663995504379272461e-01 -2.206341326236724854e-01 -7.354350090026855469e-01 -7.797067165374755859e-01 1.340366482734680176e+00 -1.939989328384399414e-01 4.984558820724487305e-01 1.796668469905853271e-01 -8.454731702804565430e-01 -8.094878196716308594e-01 1.525543481111526489e-01 7.810038924217224121e-01 1.055045351386070251e-01 -1.949389219284057617e+00 -6.747776865959167480e-01 6.977234482765197754e-01 5.549054741859436035e-01 -5.173618793487548828e-01 2.411700487136840820e-01 6.275817155838012695e-01 5.964558124542236328e-01 -5.799153074622154236e-02 2.268471717834472656e-01 -5.626550912857055664e-01 -3.710809648036956787e-01 -2.686319500207901001e-02 -1.737335473299026489e-01 -5.167317986488342285e-01 -2.930789887905120850e-01 1.855996549129486084e-01 2.538673877716064453e-01 -2.611918449401855469e-01 -2.105675220489501953e+00 6.673756241798400879e-01 5.931503772735595703e-01 -7.130753993988037109e-02 -3.595825433731079102e-01 9.556793421506881714e-02 9.306216984987258911e-02 -3.207154572010040283e-01 -1.289651751518249512e+00 -7.133469581604003906e-01 1.637029200792312622e-01 -5.639430284500122070e-01 -5.787642002105712891e-01 -1.959466040134429932e-01 -8.712905645370483398e-01 1.642039120197296143e-01 -1.991153359413146973e+00 5.896284580230712891e-01 -4.054070711135864258e-01 -3.361715376377105713e-01 2.933262288570404053e-01 7.010908722877502441e-01 -2.032700031995773315e-01 -5.556719303131103516e-01 -7.093321681022644043e-01 5.581243634223937988e-01 -1.703218221664428711e+00 -5.327292680740356445e-01 4.725427031517028809e-01 -5.749692916870117188e-01 -3.342762589454650879e-01 7.438973188400268555e-01 8.802637457847595215e-01 -2.690731883049011230e-01 -2.470586776733398438e+00 -6.779726147651672363e-01 -2.748276293277740479e-01 1.731063574552536011e-01 -1.625946909189224243e-01 -5.512666106224060059e-01 -3.994283378124237061e-01 -2.036258578300476074e-01 5.795773267745971680e-01 3.902637064456939697e-01 6.500842422246932983e-02 -1.343295574188232422e-01 -7.072868347167968750e-01 1.580944806337356567e-01 -4.840477108955383301e-01 6.219833493232727051e-01 -2.813283920288085938e+00 9.939784407615661621e-01 -1.390169620513916016e+00
2.003374844789505005e-01 9.070408940315246582e-01 -5.824333429336547852e-02 -8.785822987556457520e-01 -1.893494725227355957e-01 -1.858134716749191284e-01 6.087898612022399902e-01 2.941544353961944580e-01 -1.509869843721389771e-01 4.189594984054565430e-01 -4.450158774852752686e-01 2.049375474452972412e-01 3.224304690957069397e-02 2.051343679428100586e+00 -1.737058520317077637e+00 3.222334086894989014e-01 -2.353788018226623535e-01 -4.704676568508148193e-01 -5.970095992088317871e-01 1.149985074996948242e+00 -3.725204467773437500e-01 4.004347622394561768e-01 3.774423897266387939e-01 -7.765165567398071289e-01 -5.195204615592956543e-01 2.508403062820434570e-01 6.413872241973876953e-01 2.164295017719268799e-01 -8.566131591796875000e-01 -5.648933649063110352e-01 3.508307337760925293e-01 4.161328673362731934e-01 -5.563347339630126953e-01 2.938843667507171631e-01 5.982174873352050781e-01 5.749250650405883789e-01 4.935257881879806519e-02 4.768786951899528503e-02 -5.863478779792785645e-01 -2.150067985057830811e-01 -1.522624045610427856e-01 -2.574418187141418457e-01 -4.116030931472778320e-01 -2.942854762077331543e-01 3.490032851696014404e-01 1.261523365974426270e-01 -7.525603473186492920e-02 -1.593606472015380859e+00 4.214453399181365967e-01 3.524688184261322021e-01 -1.470510810613632202e-01 -8.956483006477355957e-02 1.642272621393203735e-01 -1.085665151476860046e-01 -1.487555205821990967e-01 -9.533671140670776367e-01 -3.526507616043090820e-01 9.964755922555923462e-02 -2.962197363376617432e-01 -3.261211514472961426e-01 -8.631786704063415527e-02 -7.531446814537048340e-01 1.554856598377227783e-01 -4.492930173873901367e-01 2.678364813327789307e-01 -2.467622607946395874e-01 -2.919517159461975098e-01 4.319138824939727783e-01 4.130103290081024170e-01 -3.053954988718032837e-02 -5.480449199676513672e-01 -4.251110553741455078e-01 4.609565436840057373e-01 -6.653907299041748047e-01 -3.890843093395233154e-01 4.754612445831298828e-01 -4.204694628715515137e-01 -2.277519553899765015e-01 5.019172430038452148e-01 6.767973303794860840e-01 -3.281651735305786133e-01 -1.879303812980651855e+00 -5.250306129455566406e-01 -6.030271053314208984e-01 2.557297348976135254e-01 -1.424298584461212158e-01 -2.670604586601257324e-01 -6.945219039916992188e-01 -3.745247423648834229e-01 5.277697443962097168e-01 4.092721641063690186e-01 -1.692980155348777771e-02 -1.842742413282394409e-02 -2.697891294956207275e-01 -6.111821159720420837e-02 -6.214512586593627930e-01 4.686920046806335449e-01 -2.152892351150512695e+00 7.261982560157775879e-01 -1.145035505294799805e+00
-8.147849887609481812e-02 -5.575582385063171387e-01 2.742276191711425781e-01 9.830963611602783203e-01 1.202926188707351685e-01 3.330195248126983643e-01 -5.672173500061035156e-01 -7.494239211082458496e-01 1.881077587604522705e-01 -7.552751898765563965e-01 5.200872421264648438e-01 -2.449145615100860596e-01 -1.687145531177520752e-01 -2.364422798156738281e+00 2.564197301864624023e+00 -5.281400680541992188e-01 2.388216108083724976e-01 7.758320569992065430e-01 4.892369806766510010e-01 -1.055706620216369629e+00 3.536298573017120361e-01 -7.513626813888549805e-01 -2.500796616077423096e-01 8.009071946144104004e-01 8.182435631752014160e-01 -2.378612458705902100e-01 -5.371823906898498535e-01 2.008754909038543701e-01 2.246403932571411133e+00 9.215880632400512695e-01 -8.893637657165527344e-01 -4.642286300659179688e-01 8.230700492858886719e-01 -1.467036753892898560e-01 -4.434210658073425293e-01 -8.185361623764038086e-01 -2.041105926036834717e-01 -4.642401337623596191e-01 7.900281548500061035e-01 2.067739367485046387e-01 -1.111792549490928650e-01 3.699504435062408447e-01 4.548293650150299072e-01 4.920241236686706543e-01 -3.495665490627288818e-01 -2.636677920818328857e-01 3.610135912895202637e-01 2.316016912460327148e+00 -6.568202376365661621e-01 -6.100183129310607910e-01 3.212155103683471680e-01 2.675151228904724121e-01 4.967450350522994995e-02 1.619956828653812408e-02 4.717675745487213135e-01 1.061246275901794434e+00 7.292099595069885254e-01 -3.305668532848358154e-01 1.069503307342529297e+00 6.064842939376831055e-01 3.479400873184204102e-01 5.265612602233886719e-01 -3.522986471652984619e-01 2.467848300933837891e+00 -5.891125798225402832e-01 1.945351511240005493e-01 1.035134047269821167e-01 -1.097089424729347229e-01 -5.156482458114624023e-01 4.471252262592315674e-01 3.831784427165985107e-01 1.657995581626892090e+00 -9.411955475807189941e-01 2.336910486221313477e+00 6.915001869201660156e-01 -4.125720858573913574e-01 4.450793564319610596e-01 1.309810280799865723e-01 -6.246284842491149902e-01 -1.107061505317687988e+00 2.847246825695037842e-01 2.618998765945434570e+00 4.921121001243591309e-01 4.636232554912567139e-01 -2.217513620853424072e-01 -1.821250170469284058e-01 1.069638609886169434e+00 2.606308162212371826e-01 9.539231657981872559e-02 -6.093266606330871582e-01 -6.923189759254455566e-01 -1.739893555641174316e-01 3.859269320964813232e-01 6.402842998504638672e-01 -9.680887311697006226e-02 4.010276794433593750e-01 -8.944388031959533691e-01 2.576784610748291016e+00 -1.199079751968383789e+00 1.118143916130065918e+00
2.040377855300903320e-01 1.481047153472900391e+00 2.910878658294677734e-01 1.911580264568328857e-01 -5.034810900688171387e-01 -7.247604131698608398e-01 5.215797200798988342e-02 6.434509158134460449e-02 3.425579965114593506e-01 -2.182761579751968384e-01 9.629120677709579468e-02 -4.268043339252471924e-01 -2.855845689773559570e-01 -1.800405792891979218e-02 -2.968913614749908447e-01 -1.805356293916702271e-01 2.698628306388854980e-01 1.011905446648597717e-01 2.111046761274337769e-01 -1.540479063987731934e-01 9.783922135829925537e-02 -9.666027873754501343e-02 9.654462337493896484e-01 -2.051852941513061523e+00 1.373573392629623413e-01 -3.204055428504943848e-01 -5.721633881330490112e-02 1.983724534511566162e-01 -4.094032570719718933e-02 1.192418485879898071e-01 -2.499925345182418823e-01 4.325047880411148071e-02 9.928106516599655151e-02 9.597545266151428223e-01 -2.637175321578979492e-01 4.390676505863666534e-03 -4.063440263271331787e-01 -4.114556014537811279e-01 2.834251224994659424e-01 3.638402819633483887e-01 3.495973646640777588e-01 2.713616192340850830e-01 8.566082268953323364e-02 4.907718896865844727e-01 6.698616147041320801e-01 -4.104213416576385498e-01 4.987846016883850098e-01 1.511654555797576904e-01 -1.477211266756057739e-01 -1.422491222620010376e-01 2.489645630121231079e-01 2.514160573482513428e-01 4.317246079444885254e-01 -5.383380055427551270e-01 2.500239312648773193e-01 1.484963484108448029e-02 5.648994818329811096e-02 -2.847068905830383301e-01 7.447674870491027832e-02 1.039403527975082397e-01 1.827287226915359497e-01 -2.966516017913818359e+00 -2.227080762386322021e-01 2.207331545650959015e-02 -2.500554025173187256e-01 4.094558358192443848e-01 -7.916673421859741211e-01 1.365681409835815430e+00 4.472369700670242310e-02 4.485086500644683838e-01 -6.618180125951766968e-02 2.282433360815048218e-01 -2.801654636859893799e-01 1.844177991151809692e-01 2.830362915992736816e-01 -1.423704326152801514e-01 2.475623637437820435e-01 3.221177160739898682e-01 -2.612466812133789062e-01 -1.143943741917610168e-01 3.143067955970764160e-01 -4.549955427646636963e-01 -2.522866427898406982e-02 -1.783644914627075195e+00 -2.580958902835845947e-01 -2.517592310905456543e-01 2.778539657592773438e-01 -8.324106037616729736e-02 -4.686379060149192810e-02 -9.259739518165588379e-02 -2.098323851823806763e-01 1.693522810935974121e+00 2.376559972763061523e-01 -9.448704309761524200e-03 -3.239130973815917969e-01 1.741258949041366577e-01 1.016536913812160492e-02 -4.465305507183074951e-01 -4.652310907840728760e-02 -1.813054084777832031e-01
2.809534668922424316e-01 2.262028932571411133e+00 -4.788618162274360657e-02 -5.483624711632728577e-02 -1.895956695079803467e-01 -2.778226435184478760e-01 2.489427104592323303e-02 -2.603760957717895508e-01 2.372195869684219360e-01 -6.232813000679016113e-02 1.542765647172927856e-01 -1.931508630514144897e-01 -2.407277226448059082e-01 2.332870513200759888e-01 -6.483078598976135254e-01 -8.721188455820083618e-02 4.667804017663002014e-02 7.081182301044464111e-02 2.560796141624450684e-01 2.972756326198577881e-01 -2.039317935705184937e-01 2.233185060322284698e-02 3.196832537651062012e-01 -1.781150937080383301e+00 1.425393372774124146e-01 2.074891142547130585e-02 -2.550374865531921387e-01 6.904287636280059814e-02 -1.851634383201599121e-01 2.740642987191677094e-02 -2.959698140621185303e-01 -2.317821681499481201e-01 2.844447195529937744e-01 5.867444276809692383e-01 1.564746722579002380e-02 -1.921126991510391235e-01 -1.443286836147308350e-01 -7.819773256778717041e-02 2.124622315168380737e-01 2.034947425127029419e-01 -3.482788428664207458e-02 -1.631159633398056030e-01 3.526385873556137085e-02 1.990491710603237152e-02 4.601083397865295410e-01 -1.561459433287382126e-02 7.773436605930328369e-02 -2.939751744270324707e-01 -1.354502439498901367e-01 -1.364906430244445801e-01 4.213918149471282959e-01 5.154713243246078491e-02 7.079028338193893433e-02 -3.822323381900787354e-01 -3.023296222090721130e-02 -6.457144021987915039e-02 2.467483878135681152e-01 -4.808590561151504517e-02 9.896442294120788574e-03 2.654434144496917725e-01 1.215986087918281555e-01 -1.244534492492675781e+00 -1.555494368076324463e-01 -6.150852516293525696e-02 1.025644131004810333e-02 1.020312756299972534e-01 -3.116303980350494385e-01 4.965767562389373779e-01 -7.664994895458221436e-02 6.250319629907608032e-02 1.186008453369140625e-01 -1.564207971096038818e-01 -2.494773268699645996e-01 -2.242129743099212646e-01 1.163521185517311096e-01 -1.229989621788263321e-02 3.041067719459533691e-01 1.749572157859802246e-01 -6.851761043071746826e-02 -2.209534198045730591e-01 2.633580863475799561e-01 -5.767325162887573242e-01 -7.491690339520573616e-04 -7.841510772705078125e-01 -2.126110047101974487e-01 -3.014277517795562744e-01 2.144179493188858032e-01 -3.141307234764099121e-01 2.605495043098926544e-02 -5.527918785810470581e-02 -1.031308025121688843e-01 3.220490813255310059e-01 8.923124521970748901e-02 1.545015275478363037e-01 -1.872774511575698853e-01 -1.783690601587295532e-02 -7.282224297523498535e-02 -6.238139271736145020e-01 4.965363442897796631e-02 -1.670715957880020142e-01
-5.864570289850234985e-02 -5.160883665084838867e-01 3.076049089431762695e-01 9.418820589780807495e-02 3.107230663299560547e-01 9.371022582054138184e-01 -1.079196259379386902e-01 -2.529744207859039307e-01 3.151889741420745850e-01 -5.258515477180480957e-02 -1.436139922589063644e-02 -2.916104495525360107e-01 -4.493082761764526367e-01 5.198935791850090027e-02 -7.635804265737533569e-02 -7.157630473375320435e-02 4.826026856899261475e-01 2.067301124334335327e-01 -6.027152016758918762e-02 -2.394332140684127808e-01 -1.558833837509155273e+00 -2.433162778615951538e-01 -4.508597254753112793e-01 5.232515335083007812e-01 6.421957165002822876e-02 -2.443187683820724487e-01 -2.587396502494812012e-01 -2.546572685241699219e+00 -4.786077439785003662e-01 3.438119590282440186e-02 -2.759555280208587646e-01 -1.466733515262603760e-01 4.644808545708656311e-02 -3.868540525436401367e-01 -2.362793385982513428e-01 5.809480207972228527e-04 2.452894926071166992e+00 -2.906976640224456787e-01 1.638248711824417114e-01 2.022782117128372192e-01 -2.495210647583007812e+00 -2.303375482559204102e+00 2.793454229831695557e-01 4.231522679328918457e-01 -1.019118547439575195e+00 -3.276961147785186768e-01 4.413657188415527344e-01 -3.465715050697326660e-01 -2.426291108131408691e-01 -1.922881603240966797e-01 8.803659677505493164e-02 4.325428307056427002e-01 -2.557534456253051758e+00 2.540440082550048828e+00 1.682294756174087524e-01 3.373908996582031250e-02 1.242350712418556213e-01 -2.898794412612915039e-01 1.437384635210037231e-02 2.706878781318664551e-01 4.238836765289306641e-01 4.206379354000091553e-01 -4.848020970821380615e-01 -3.912793397903442383e-01 -1.228018552064895630e-01 4.579606652259826660e-01 3.031199276447296143e-01 -8.428227901458740234e-01 1.771535607986152172e-05 5.326991677284240723e-01 1.991851031780242920e-01 -3.708883225917816162e-01 -3.013782203197479248e-01 -1.909375041723251343e-01 5.434030294418334961e-02 -7.873413711786270142e-02 2.362809032201766968e-01 5.574786067008972168e-01 -1.063823476433753967e-01 -1.921340376138687134e-01 5.296508073806762695e-01 1.103128418326377869e-01 1.231097504496574402e-01 3.239457905292510986e-01 -3.343110978603363037e-01 2.623987436294555664e+00 1.977653503417968750e-01 2.831276953220367432e-01 8.823943138122558594e-02 2.282690955325961113e-03 -1.843176037073135376e-01 -5.302415788173675537e-02 4.719218909740447998e-01 3.038220573216676712e-03 2.534955501556396484e+00 1.355583518743515015e-01 -2.367976494133472443e-02 2.130311280488967896e-01 -2.583661973476409912e-01 8.622697740793228149e-02
-1.839962154626846313e-01 -1.477937817573547363e+00 -2.901551723480224609e-01 -2.096596360206604004e-02 1.444454491138458252e-01 6.765444278717041016e-01 1.350773721933364868e-01 -4.599844291806221008e-02 -2.227305322885513306e-01 7.804479449987411499e-02 -1.380421519279479980e-01 4.847443997859954834e-01 2.586054503917694092e-01 -1.715401746332645416e-02 4.072790741920471191e-01 9.793583303689956665e-02 -5.459911227226257324e-01 -1.889788508415222168e-01 -1.865646541118621826e-01 1.631518639624118805e-02 -5.999621003866195679e-02 1.053190380334854126e-01 -6.908882260322570801e-01 2.549726724624633789e+00 1.655645109713077545e-02 3.813269734382629395e-01 2.114650309085845947e-01 -2.889476120471954346e-01 -3.095973748713731766e-03 -2.304285317659378052e-01 9.798762202262878418e-02 8.757499605417251587e-02 -1.824699938297271729e-01 -5.417300462722778320e-01 2.441095262765884399e-01 1.154446154832839966e-01 4.866413176059722900e-01 2.726636230945587158e-01 -8.862262219190597534e-02 -3.689870834350585938e-01 -3.286330997943878174e-01 -4.926692321896553040e-02 -2.067256271839141846e-01 -4.396193623542785645e-01 -9.382261633872985840e-01 5.249954462051391602e-01 -5.445401668548583984e-01 3.934754990041255951e-03 1.269804835319519043e-01 6.403201073408126831e-02 -3.045638203620910645e-01 -2.795879244804382324e-01 -3.233688473701477051e-01 5.580579638481140137e-01 -4.459368288516998291e-01 -2.725084125995635986e-01 -2.091013938188552856e-01 3.390236198902130127e-01 -4.028859362006187439e-02 -2.444289177656173706e-01 -1.209540069103240967e-01 2.798166036605834961e+00 4.951190054416656494e-01 4.470590129494667053e-02 -5.116370320320129395e-02 -5.688858032226562500e-01 6.159853935241699219e-01 -1.423187613487243652e+00 2.011850476264953613e-01 -3.340856432914733887e-01 -2.388284653425216675e-01 -1.021489873528480530e-01 -3.519747033715248108e-02 1.886733248829841614e-02 1.686114445328712463e-02 1.404910385608673096e-01 -1.452306807041168213e-01 -2.906373739242553711e-01 2.259646207094192505e-01 2.845479249954223633e-01 -4.397257268428802490e-01 2.680989503860473633e-01 -6.899050623178482056e-02 1.187759637832641602e+00 3.104242086410522461e-01 3.237733244895935059e-01 -2.779849171638488770e-01 -8.491897024214267731e-03 1.395834833383560181e-01 4.839616268873214722e-02 1.436982303857803345e-01 -2.470993518829345703e+00 -2.140557467937469482e-01 -5.742336064577102661e-02 4.316732287406921387e-01 -2.124425619840621948e-01 8.036643266677856445e-02 4.217643439769744873e-01 -6.098095327615737915e-03 -3.284488571807742119e-03
-3.945412635803222656e-01 -9.571909904479980469e-01 1.054970361292362213e-02 2.277730777859687805e-02 1.199422180652618408e-01 1.006330251693725586e+00 1.397795230150222778e-01 5.094391107559204102e-02 -1.022710092365741730e-02 1.989714801311492920e-01 -1.588657647371292114e-01 2.521921396255493164e-01 1.136233955621719360e-01 -8.443172276020050049e-02 1.818950176239013672e-01 7.993539422750473022e-02 -2.232665419578552246e-01 -2.156825065612792969e-01 4.245232418179512024e-02 4.158160462975502014e-02 -7.733956724405288696e-02 3.967367485165596008e-02 -8.252771496772766113e-01 1.446114659309387207e+00 -4.165739193558692932e-02 1.272307336330413818e-01 -1.342193968594074249e-02 -4.520680606365203857e-01 -9.550374001264572144e-02 -1.984926611185073853e-01 -1.597486808896064758e-02 1.321157813072204590e-01 7.810463197529315948e-03 -4.328257739543914795e-01 1.017735227942466736e-01 2.850111573934555054e-03 4.252901673316955566e-01 1.453213989734649658e-01 -1.020411625504493713e-01 -3.354048728942871094e-01 -3.841213583946228027e-01 -2.408557981252670288e-01 -9.202945977449417114e-03 -1.095608249306678772e-01 -1.144489407539367676e+00 2.470535188913345337e-01 -4.104918837547302246e-01 -9.501473605632781982e-02 2.877863496541976929e-02 1.613403111696243286e-01 -2.434296160936355591e-01 -2.105052769184112549e-01 -5.927107334136962891e-01 3.959543108940124512e-01 -2.662784159183502197e-01 -3.964793309569358826e-02 -2.460477501153945923e-01 3.099244534969329834e-01 -1.043943464756011963e-01 4.644760861992835999e-03 -2.894088029861450195e-01 1.356121778488159180e+00 3.021528422832489014e-01 5.416410788893699646e-02 2.482769489288330078e-01 -1.201621815562248230e-01 4.048298001289367676e-01 -3.312474012374877930e+00 -5.184246227145195007e-02 -3.039700984954833984e-01 -1.831993162631988525e-01 2.918954379856586456e-02 3.931674640625715256e-03 -2.536481320858001709e-01 2.113549411296844482e-02 1.205283999443054199e-01 8.361767232418060303e-02 8.047435432672500610e-02 2.140432596206665039e-02 1.106002852320671082e-01 -1.965373381972312927e-02 6.989321112632751465e-02 -8.501474559307098389e-02 9.389281272888183594e-01 1.303800195455551147e-01 4.775491952896118164e-01 5.419623851776123047e-02 1.046974882483482361e-01 1.713049709796905518e-01 1.400132477283477783e-01 6.964219734072685242e-03 -1.382817983627319336e+00 -2.377341389656066895e-01 -5.944785103201866150e-02 3.663494884967803955e-01 -1.567599028348922729e-01 4.528765007853507996e-02 2.609054148197174072e-01 8.780355006456375122e-02 6.260982900857925415e-02
2.981200814247131348e-01 1.805057525634765625e+00 4.809893667697906494e-01 2.513846457004547119e-01 -2.449377179145812988e-01 -3.618555665016174316e-01 -2.663115262985229492e-01 -1.645967960357666016e-01 3.979422152042388916e-01 -1.203887239098548889e-01 1.393526513129472733e-02 -4.742894470691680908e-01 -2.885735332965850830e-01 1.832343041896820068e-01 -4.575053751468658447e-01 -7.833155803382396698e-03 2.708423733711242676e-01 3.129714429378509521e-01 8.535007387399673462e-02 2.150966227054595947e-01 2.645529620349407196e-02 -1.374414004385471344e-02 7.044644951820373535e-01 -3.138974666595458984e+00 9.902287274599075317e-02 -2.486697584390640259e-01 -1.208415403962135315e-01 3.500379621982574463e-01 -6.372675299644470215e-02 2.113943696022033691e-01 -1.223469078540802002e-01 -1.341607570648193359e-01 1.405154466629028320e-01 2.492219209671020508e-01 -2.046801336109638214e-02 -3.980306908488273621e-03 -4.242926537990570068e-01 -4.270468950271606445e-01 2.803046703338623047e-01 3.400002419948577881e-01 3.842563629150390625e-01 3.210874646902084351e-02 2.283292561769485474e-01 3.311513960361480713e-01 8.501054644584655762e-01 -4.030141830444335938e-01 4.237070977687835693e-01 1.707264780998229980e-01 -2.280706018209457397e-01 4.167217016220092773e-02 3.315431475639343262e-01 4.546855390071868896e-01 2.514206171035766602e-01 -1.915943920612335205e-01 5.750437378883361816e-01 2.165864855051040649e-01 7.573644816875457764e-02 -3.133512139320373535e-01 -4.187294282019138336e-03 -2.786434814333915710e-02 2.775743007659912109e-01 -2.890191555023193359e+00 -3.962048888206481934e-01 7.152402400970458984e-02 -2.016693949699401855e-01 5.771163105964660645e-01 -3.567696511745452881e-01 1.191422104835510254e+00 -1.402442008256912231e-01 4.575477838516235352e-01 -2.907488681375980377e-02 1.527587771415710449e-01 -5.290558189153671265e-02 -9.593842923641204834e-02 1.579842716455459595e-01 -2.240694910287857056e-01 2.778440713882446289e-01 3.627738654613494873e-01 -1.690823882818222046e-01 1.644548773765563965e-02 5.524132847785949707e-01 -4.480866193771362305e-01 1.672122627496719360e-01 -9.081733226776123047e-01 -5.560958981513977051e-01 -3.109560310840606689e-01 3.218733966350555420e-01 -1.841454207897186279e-01 -1.453974246978759766e-01 -1.823180764913558960e-01 -2.512397468090057373e-01 2.147595167160034180e+00 4.840069115161895752e-01 2.293300479650497437e-01 -2.716401517391204834e-01 2.842451818287372589e-02 1.285722292959690094e-02 -2.487178444862365723e-01 -7.167504727840423584e-02 -2.215521484613418579e-01
-1.716283895075321198e-02 -4.374069869518280029e-01 2.965197861194610596e-01 2.014272212982177734e-01 1.509169340133666992e-01 7.083227634429931641e-01 -5.835900828242301941e-02 -1.378335207700729370e-01 4.714634716510772705e-01 -5.382928624749183655e-02 2.904590368270874023e-01 -4.177023172378540039e-01 -2.361057400703430176e-01 1.810113638639450073e-01 7.857103645801544189e-02 1.395563222467899323e-02 3.640386164188385010e-01 1.970239132642745972e-01 1.821474134922027588e-01 8.782924152910709381e-03 -1.687792778015136719e+00 -2.509104013442993164e-01 -5.992918014526367188e-01 2.998029589653015137e-01 2.666645646095275879e-01 -4.877473711967468262e-01 -2.648205161094665527e-01 -2.180954217910766602e+00 -2.511035799980163574e-01 -1.877014897763729095e-02 -4.684660956263542175e-02 -5.732332915067672729e-02 2.933830618858337402e-01 -3.381833732128143311e-01 -2.421741634607315063e-01 -1.034910529851913452e-01 2.083353042602539062e+00 -4.012871682643890381e-01 1.457072347402572632e-01 2.781711518764495850e-01 -1.951908469200134277e+00 -1.902609348297119141e+00 1.848763525485992432e-01 4.938540160655975342e-01 -9.045858383178710938e-01 -1.968694478273391724e-01 3.548661768436431885e-01 -2.498076260089874268e-01 -1.683078259229660034e-01 -2.574230432510375977e-01 5.903311818838119507e-02 4.848585128784179688e-01 -2.119271755218505859e+00 2.202461004257202148e+00 3.036529719829559326e-01 1.906742900609970093e-01 1.693997718393802643e-02 -2.350440472364425659e-01 3.078212738037109375e-01 1.798914372920989990e-01 3.302232921123504639e-01 4.147502481937408447e-01 -3.189796507358551025e-01 -1.828037202358245850e-01 -2.732617855072021484e-01 4.821430444717407227e-01 3.113660812377929688e-01 -7.367072701454162598e-01 -2.282433211803436279e-01 4.910074770450592041e-01 2.682113349437713623e-01 -3.432301878929138184e-01 -2.378898710012435913e-01 -3.956821858882904053e-01 2.394264340400695801e-01 -5.760587006807327271e-02 2.682089805603027344e-01 4.484723508358001709e-01 -2.051858454942703247e-01 -1.695146262645721436e-01 2.971015572547912598e-01 2.548055537045001984e-02 1.551537364721298218e-01 4.768182337284088135e-01 -4.021009504795074463e-01 2.034014225006103516e+00 2.869215793907642365e-03 4.879709333181381226e-02 9.163873642683029175e-02 -1.272223442792892456e-01 -2.620767652988433838e-01 -1.066037639975547791e-01 1.562676876783370972e-01 2.214646339416503906e-01 1.989470958709716797e+00 9.590128809213638306e-02 -6.389908492565155029e-02 -1.060307621955871582e-01 -2.909093499183654785e-01 4.063553363084793091e-02
-9.844450652599334717e-02 -3.324040174484252930e-01 2.872557342052459717e-01 2.129677087068557739e-01 2.097509801387786865e-01 9.006271362304687500e-01 -1.252983361482620239e-01 -5.036652088165283203e-02 2.991367876529693604e-01 -1.772277206182479858e-01 5.527668818831443787e-02 -4.386466443538665771e-01 -3.166182339191436768e-01 3.601468503475189209e-01 7.248352468013763428e-02 -2.456022650003433228e-01 3.532892763614654541e-01 1.683052331209182739e-01 2.504563033580780029e-01 -2.564857602119445801e-01 -1.439767479896545410e+00 -6.852380000054836273e-03 -4.392108619213104248e-01 2.692738771438598633e-01 7.042341679334640503e-02 -2.231773436069488525e-01 -2.272589057683944702e-01 -1.759850621223449707e+00 -3.479385375976562500e-01 2.954772412776947021e-01 -1.738984696567058563e-02 -2.868528664112091064e-01 1.973350495100021362e-01 -1.911729127168655396e-01 -1.901645362377166748e-01 -1.972723752260208130e-01 1.736485481262207031e+00 -2.617615759372711182e-01 3.040163815021514893e-01 3.911485373973846436e-01 -1.507980108261108398e+00 -1.762158513069152832e+00 2.227460145950317383e-01 2.277772724628448486e-01 -7.252351641654968262e-01 -2.882878184318542480e-01 4.225625991821289062e-01 -3.964079320430755615e-01 -2.469220906496047974e-01 -1.969890147447586060e-01 2.131592184305191040e-01 3.078795075416564941e-01 -1.799424409866333008e+00 1.548398613929748535e+00 3.623535335063934326e-01 2.429802902042865753e-02 8.292473107576370239e-02 -1.328397691249847412e-01 8.640079200267791748e-02 2.287738211452960968e-02 2.558041810989379883e-01 4.767639040946960449e-01 -2.390247136354446411e-01 -2.756063938140869141e-01 -1.904852688312530518e-01 4.770089089870452881e-01 2.592888176441192627e-01 -7.705275416374206543e-01 -1.186244413256645203e-01 4.543911218643188477e-01 -5.930210463702678680e-03 -4.780060648918151855e-01 -4.799477756023406982e-02 -1.580767780542373657e-01 1.225222200155258179e-01 -6.904269009828567505e-02 4.298762977123260498e-02 3.704497218132019043e-01 -6.103142630308866501e-03 2.262192033231258392e-02 4.814665615558624268e-01 -4.888721555471420288e-02 2.031809985637664795e-01 1.405291557312011719e-01 -2.178688049316406250e-01 1.790337324142456055e+00 2.963199913501739502e-01 3.062266707420349121e-01 -3.204051777720451355e-02 -1.902633160352706909e-01 1.853307243436574936e-03 -2.304608523845672607e-01 4.525649249553680420e-01 2.554232776165008545e-01 1.641879200935363770e+00 -4.873085999861359596e-04 -5.295153707265853882e-02 2.169735915958881378e-02 -1.273185200989246368e-02 2.095598727464675903e-01
3.281993567943572998e-01 7.986667156219482422e-01 -8.995428681373596191e-02 -1.080013513565063477e+00 -2.616480886936187744e-01 -4.427035897970199585e-02 6.374916434288024902e-01 4.491032958030700684e-01 -2.979270815849304199e-01 4.801539480686187744e-01 -5.803899765014648438e-01 3.496593832969665527e-01 2.518495023250579834e-01 1.987335920333862305e+00 -1.940814137458801270e+00 3.900524377822875977e-01 -4.078620374202728271e-01 -5.701558589935302734e-01 -5.301395058631896973e-01 1.034153342247009277e+00 -3.443393409252166748e-01 6.804798245429992676e-01 2.147126197814941406e-01 -8.960774540901184082e-01 -5.041730999946594238e-01 1.018799096345901489e-01 5.681271553039550781e-01 1.806659996509552002e-01 -1.727541446685791016e+00 -5.949910283088684082e-01 5.203047990798950195e-01 6.910340785980224609e-01 -4.547277092933654785e-01 3.340645730495452881e-01 7.295604348182678223e-01 5.119678974151611328e-01 5.079501424916088581e-04 1.906023025512695312e-01 -6.949424147605895996e-01 -2.949471175670623779e-01 -1.180581972002983093e-01 -2.219911813735961914e-01 -5.855643749237060547e-01 -1.933587789535522461e-01 4.248239099979400635e-01 3.563566207885742188e-01 -4.460623562335968018e-01 -1.865159392356872559e+00 5.594290494918823242e-01 7.203801870346069336e-01 7.108276337385177612e-02 -1.987638771533966064e-01 9.498136490583419800e-02 -1.551751885563135147e-02 -3.215058743953704834e-01 -9.432605504989624023e-01 -4.966204762458801270e-01 1.274463087320327759e-01 -5.924186706542968750e-01 -3.864956498146057129e-01 -3.139072656631469727e-01 -5.487101674079895020e-01 2.981202304363250732e-01 -1.923760771751403809e+00 3.668377995491027832e-01 -1.502729803323745728e-01 -1.943341344594955444e-01 1.143511012196540833e-01 4.542531371116638184e-01 -1.616742163896560669e-01 -3.969335258007049561e-01 -7.268995642662048340e-01 4.998600184917449951e-01 -1.745331287384033203e+00 -5.645483732223510742e-01 4.262090027332305908e-01 -6.652091741561889648e-01 -2.799841761589050293e-01 4.426173269748687744e-01 8.976315259933471680e-01 -1.507512032985687256e-01 -2.110725879669189453e+00 -4.792035520076751709e-01 -2.686174809932708740e-01 2.167704552412033081e-01 7.566849142313003540e-02 -6.953952908515930176e-01 -3.956121206283569336e-01 -3.873896300792694092e-01 6.152595877647399902e-01 4.586480557918548584e-01 1.862781941890716553e-01 -1.931453496217727661e-01 -6.635335087776184082e-01 1.098375022411346436e-01 -4.220880866050720215e-01 5.283129811286926270e-01 -2.184526681900024414e+00 9.112362861633300781e-01 -6.070141196250915527e-01
2.653260827064514160e-01 5.477555990219116211e-01 -2.191192656755447388e-01 -2.513436228036880493e-02 -1.234196200966835022e-01 -2.069381713867187500e+00 -1.417710185050964355e-01 3.345270454883575439e-02 -3.013177216053009033e-01 2.756423084065318108e-03 -1.669966280460357666e-01 4.133287966251373291e-01 2.261536419391632080e-01 -2.377587407827377319e-01 -2.080094516277313232e-01 3.971451893448829651e-02 -3.691338598728179932e-01 4.955118522047996521e-02 2.866209298372268677e-02 -9.955517202615737915e-02 2.381995320320129395e-02 -6.892160978168249130e-03 4.017572104930877686e-01 -4.784912467002868652e-01 -1.500481218099594116e-01 2.285706847906112671e-01 -3.653130307793617249e-02 2.271507978439331055e+00 1.717135161161422729e-01 -1.603785008192062378e-01 1.477757096290588379e-01 7.308579236268997192e-02 -9.911403059959411621e-02 2.582856714725494385e-01 1.276697814464569092e-01 7.390914857387542725e-02 -2.162132978439331055e+00 2.142207324504852295e-01 -4.605058580636978149e-03 -2.764923572540283203e-01 1.980317592620849609e+00 5.962854623794555664e-01 4.293444380164146423e-02 -2.818854749202728271e-01 2.270268201828002930e+00 4.775497689843177795e-02 -2.679626345634460449e-01 2.113410830497741699e-01 -1.412510275840759277e-01 1.631166338920593262e-01 -3.043403327465057373e-01 -1.913918405771255493e-01 2.830387353897094727e+00 -2.609579324722290039e+00 -3.250382542610168457e-01 3.227026015520095825e-02 -1.012969240546226501e-01 3.095067441463470459e-01 -5.125196278095245361e-02 -1.626429408788681030e-01 -2.478617429733276367e-01 -2.923540174961090088e-01 4.185552299022674561e-01 3.439520895481109619e-01 3.092723153531551361e-02 -3.174954056739807129e-01 -2.399044930934906006e-01 8.781780600547790527e-01 -4.276356101036071777e-02 -2.927844822406768799e-01 -2.997040189802646637e-02 3.509312570095062256e-01 -1.440883427858352661e-01 1.942278593778610229e-01 5.568380653858184814e-02 -9.570694714784622192e-02 8.709309995174407959e-02 -3.337567150592803955e-01 -5.880868434906005859e-02 -1.860385239124298096e-01 -3.156672716140747070e-01 1.183962449431419373e-02 1.556153446435928345e-01 -4.188232421875000000e-01 2.228538244962692261e-01 -2.597112178802490234e+00 1.823405474424362183e-01 -1.524751633405685425e-01 -1.538401097059249878e-02 -7.264718413352966309e-02 -5.658938363194465637e-02 4.337058961391448975e-01 -3.018810749053955078e-01 -1.441280543804168701e-01 -1.718890786170959473e+00 -8.029015362262725830e-02 -6.549324095249176025e-02 -2.001005113124847412e-01 -1.593944132328033447e-01 -7.050666958093643188e-02
4.405212700366973877e-01 5.441284179687500000e-01 -4.114698767662048340e-01 7.708737999200820923e-02 -3.615347445011138916e-01 -1.386683106422424316e+00 3.238688781857490540e-02 9.442120790481567383e-02 -3.964605927467346191e-01 -1.142019871622323990e-02 7.300199009478092194e-03 4.855908751487731934e-01 2.236213982105255127e-01 -1.681167185306549072e-01 -1.747267097234725952e-01 -1.024088412523269653e-01 -3.479205965995788574e-01 5.451523140072822571e-02 -1.901007145643234253e-01 1.562071405351161957e-02 1.907831802964210510e-02 1.284366250038146973e-01 5.072203278541564941e-01 -5.116918683052062988e-01 -1.399674415588378906e-01 5.544194579124450684e-01 1.292787641286849976e-01 5.605323791503906250e+00 2.170976400375366211e-01 -7.584181148558855057e-03 -2.727669663727283478e-02 -3.867900744080543518e-02 -5.419173464179039001e-02 2.598070800304412842e-01 4.318225011229515076e-02 -6.919448822736740112e-02 -5.257277965545654297e+00 3.285109400749206543e-01 -3.877923637628555298e-02 -1.212252676486968994e-01 4.903868675231933594e+00 4.210530757904052734e+00 2.235965430736541748e-02 -4.533885419368743896e-01 1.357973456382751465e+00 2.726158499717712402e-01 -4.396640658378601074e-01 1.617288887500762939e-01 -9.193274378776550293e-02 1.689153164625167847e-01 -1.036772951483726501e-01 -2.607046365737915039e-01 6.006979465484619141e+00 -5.911450862884521484e+00 -3.977359235286712646e-01 -5.736164376139640808e-02 1.196985505521297455e-02 1.777710318565368652e-01 -1.079366579651832581e-01 -9.490178525447845459e-02 -4.078644216060638428e-01 -4.418371915817260742e-01 3.445996940135955811e-01 3.103801906108856201e-01 1.107529550790786743e-01 -3.113822042942047119e-01 -4.528959393501281738e-01 8.427140116691589355e-01 1.843639612197875977e-01 -4.349777400493621826e-01 1.419784687459468842e-02 2.063554525375366211e-01 8.222775906324386597e-02 2.812068760395050049e-01 -1.821282058954238892e-01 -4.944792762398719788e-02 -2.222212404012680054e-01 -3.167135417461395264e-01 6.754569709300994873e-02 1.755183041095733643e-01 -3.109377324581146240e-01 -2.421415001153945923e-01 -1.575754880905151367e-01 -4.065913856029510498e-01 3.947712182998657227e-01 -5.816724300384521484e+00 -2.157623022794723511e-01 -1.849899441003799438e-02 -2.374120354652404785e-01 9.408527612686157227e-02 -3.812001273036003113e-02 3.902316391468048096e-01 -2.748265564441680908e-01 -5.830905959010124207e-02 -4.862458229064941406e+00 -1.254227571189403534e-02 1.075165271759033203e-01 -7.583740167319774628e-03 -4.543942213058471680e-02 -1.028649508953094482e-01
-2.785806171596050262e-02 -1.997540354728698730e+00 -3.233327269554138184e-01 -2.625151276588439941e-01 2.073676735162734985e-01 5.422752499580383301e-01 1.613557040691375732e-01 2.785932123661041260e-01 -3.636065721511840820e-01 2.318739593029022217e-01 -2.377544790506362915e-01 5.180556178092956543e-01 2.517461478710174561e-01 1.251334249973297119e-01 2.422657757997512817e-01 1.070377007126808167e-01 -4.403722882270812988e-01 -2.452912181615829468e-01 -2.683925628662109375e-01 2.043445408344268799e-02 2.607578635215759277e-01 2.806294858455657959e-01 -4.988549053668975830e-01 2.570544004440307617e+00 -9.905781596899032593e-02 5.096041560173034668e-01 1.022120341658592224e-01 -2.655980885028839111e-01 7.051020115613937378e-02 -2.697023749351501465e-01 3.477809429168701172e-01 1.730840057134628296e-01 -1.942327171564102173e-01 1.426167599856853485e-02 2.034042328596115112e-01 2.370910048484802246e-01 3.297720849514007568e-01 3.892797529697418213e-01 -2.764144539833068848e-01 -6.168817281723022461e-01 -2.715925574302673340e-01 -1.900921314954757690e-01 -3.050005733966827393e-01 -3.952495157718658447e-01 -6.717263460159301758e-01 4.226124584674835205e-01 -3.042899370193481445e-01 1.312728673219680786e-01 1.064441427588462830e-01 1.950951665639877319e-01 -5.084986090660095215e-01 -3.670700192451477051e-01 -1.672726869583129883e-01 3.746911287307739258e-01 -5.790839791297912598e-01 -4.179273918271064758e-02 -2.617658376693725586e-01 2.635713815689086914e-01 -2.588271498680114746e-01 -3.559494912624359131e-01 -5.273197889328002930e-01 3.120811223983764648e+00 2.878076136112213135e-01 -7.629579305648803711e-02 4.649639502167701721e-02 -4.147579371929168701e-01 2.271761596202850342e-01 -8.379625678062438965e-01 2.970736324787139893e-01 -3.280767202377319336e-01 -2.592274546623229980e-01 -1.781276762485504150e-01 2.723557054996490479e-01 -1.904329210519790649e-01 -2.521090209484100342e-01 6.492008268833160400e-02 -4.635139554738998413e-02 -3.840103447437286377e-01 1.613718122243881226e-01 1.039238423109054565e-01 -5.106003284454345703e-01 3.413778841495513916e-01 -2.683237195014953613e-01 9.148774147033691406e-01 5.151671171188354492e-01 1.295646131038665771e-01 -2.727172970771789551e-01 -1.266117691993713379e-01 4.433300346136093140e-02 1.392293535172939301e-02 2.918282151222229004e-01 -1.361575365066528320e+00 -3.685106337070465088e-01 -2.842925488948822021e-01 1.090442761778831482e-01 -2.417579442262649536e-01 2.595057785511016846e-01 4.418620169162750244e-01 1.515627950429916382e-01 6.781302392482757568e-02
2.142655998468399048e-01 1.336969852447509766e+00 4.568768665194511414e-02 -9.004463255405426025e-02 -2.565856277942657471e-01 -2.205346971750259399e-01 1.499672681093215942e-01 1.179807484149932861e-01 -8.413285762071609497e-02 -3.891807282343506813e-03 -9.813293814659118652e-02 1.270428746938705444e-01 -2.182162366807460785e-02 1.839618682861328125e-01 -6.959643959999084473e-01 3.043732792139053345e-02 2.011937350034713745e-01 6.014605984091758728e-02 -6.862554699182510376e-02 6.233397722244262695e-01 -2.573741972446441650e-01 -1.848070174455642700e-01 1.873128414154052734e-01 -1.230907917022705078e+00 9.370570629835128784e-02 1.343038231134414673e-01 1.135477721691131592e-01 1.072301343083381653e-01 -2.998676002025604248e-01 2.833573333919048309e-02 7.185292989015579224e-02 -1.244676578789949417e-02 8.290830999612808228e-02 4.321903586387634277e-01 -1.790488362312316895e-01 -1.883526216261088848e-03 -1.064471318386495113e-03 4.504762217402458191e-02 -3.207041695713996887e-02 -6.171939149498939514e-02 8.777834475040435791e-02 -2.134906649589538574e-01 -3.249806165695190430e-02 -9.925972670316696167e-02 3.160600662231445312e-01 -1.365352421998977661e-01 9.865631163120269775e-02 -5.286268517374992371e-02 9.578660875558853149e-02 -1.188954636454582214e-01 2.873035669326782227e-01 -1.156510859727859497e-01 -1.218639034777879715e-02 -7.986780256032943726e-02 1.360505074262619019e-01 -2.840325236320495605e-01 -3.913807123899459839e-02 3.528512641787528992e-02 -2.545267343521118164e-02 1.747096516191959381e-02 1.600941717624664307e-01 -8.573533892631530762e-01 2.525703981518745422e-03 -2.116828858852386475e-01 8.843893557786941528e-02 5.880467221140861511e-02 -2.553594410419464111e-01 4.900815486907958984e-01 -5.427413806319236755e-02 4.763730242848396301e-02 7.834961265325546265e-02 -1.566420942544937134e-01 -2.027135193347930908e-01 -2.825173139572143555e-01 9.751381352543830872e-03 1.075427830219268799e-01 -6.855548173189163208e-02 2.601065859198570251e-02 -3.407222032546997070e-02 4.452426731586456299e-02 -1.563452482223510742e-01 -8.086041808128356934e-01 -1.799776107072830200e-01 -4.004000723361968994e-01 -1.768148988485336304e-01 -2.379988729953765869e-01 -7.265232503414154053e-02 -6.598166823387145996e-01 -1.073659509420394897e-01 -1.192607218399643898e-03 -2.814842388033866882e-03 -1.157816648483276367e-01 6.649281829595565796e-02 -1.066239476203918457e-01 1.231663208454847336e-02 1.306462287902832031e-01 -1.275618076324462891e-01 -7.197819948196411133e-01 1.642635762691497803e-01 -6.825940608978271484e-01
1.905111074447631836e-01 2.030376195907592773e+00 1.595853716135025024e-01 1.537281572818756104e-01 -2.349064052104949951e-01 -3.788318037986755371e-01 -2.324436157941818237e-01 -2.009679973125457764e-01 2.442427128553390503e-01 -3.284004628658294678e-01 2.236460447311401367e-01 -3.992512077093124390e-02 -6.673780828714370728e-02 2.027446478605270386e-01 -6.584112644195556641e-01 -5.048265680670738220e-02 2.271669805049896240e-01 8.513726294040679932e-02 5.652333423495292664e-02 1.427772790193557739e-01 -2.659441232681274414e-01 -7.345598936080932617e-02 4.322728514671325684e-01 -1.741116762161254883e+00 3.911174833774566650e-01 -2.688271552324295044e-02 -1.960813105106353760e-01 2.744193673133850098e-01 -1.516975164413452148e-01 2.180915921926498413e-01 -8.054420351982116699e-02 -2.415083795785903931e-01 6.144193187355995178e-02 2.695401608943939209e-01 -2.105418294668197632e-01 -8.870512247085571289e-02 -1.339873224496841431e-01 -1.204477399587631226e-01 1.298990994691848755e-01 2.134720534086227417e-01 1.312251389026641846e-01 -1.372940689325332642e-01 2.425649017095565796e-01 3.220603764057159424e-01 4.266770482063293457e-01 -8.884040266275405884e-02 1.617156714200973511e-01 -2.504526674747467041e-01 -6.212361901998519897e-02 -1.488783359527587891e-01 1.670549660921096802e-01 2.258317470550537109e-01 2.473215609788894653e-01 -1.538843214511871338e-01 1.534355729818344116e-01 1.507038921117782593e-01 3.438660204410552979e-01 -3.144130706787109375e-01 1.684968620538711548e-01 6.430595368146896362e-02 3.351033926010131836e-01 -1.076536655426025391e+00 3.063295502215623856e-03 -7.413404434919357300e-02 -2.583186328411102295e-01 1.835575550794601440e-01 -1.174098104238510132e-01 4.489834010601043701e-01 -1.928834244608879089e-02 1.859732866287231445e-01 2.451937645673751831e-01 -1.867322325706481934e-01 -3.040607273578643799e-01 -2.450218349695205688e-01 1.704207658767700195e-01 -2.575767338275909424e-01 2.670962512493133545e-01 3.755268454551696777e-02 -2.569178640842437744e-01 -7.242780178785324097e-02 -1.860178448259830475e-02 -4.048402011394500732e-01 3.339417576789855957e-01 -6.304600238800048828e-01 -3.256943821907043457e-01 -2.786112427711486816e-01 2.146075069904327393e-01 2.492845356464385986e-01 -3.610417991876602173e-02 -2.398190349340438843e-01 -2.712355852127075195e-01 1.227939128875732422e-01 6.231367960572242737e-02 6.613831222057342529e-02 -1.328403204679489136e-01 1.054465696215629578e-01 -1.274916231632232666e-01 -5.687862038612365723e-01 -1.811698079109191895e-01 -3.406052291393280029e-01
3.339076042175292969e-01 1.077615141868591309e+00 -2.314695417881011963e-01 -7.657006978988647461e-01 -2.331339009106159210e-02 -3.284679949283599854e-01 3.907667994499206543e-01 3.443312644958496094e-01 -2.766871452331542969e-01 4.290306568145751953e-01 -3.370385468006134033e-01 1.427025347948074341e-02 2.334614247083663940e-01 1.365193724632263184e+00 -1.820719361305236816e+00 5.506357550621032715e-01 -1.905692964792251587e-01 -3.574750721454620361e-01 -2.757980525493621826e-01 1.076135277748107910e+00 -2.864385545253753662e-01 4.517642557621002197e-01 2.101481705904006958e-01 -1.033744215965270996e+00 -3.119583129882812500e-01 -1.078751683235168457e-02 5.292594432830810547e-01 -2.228647470474243164e-03 -6.167710423469543457e-01 -3.310762643814086914e-01 2.612980902194976807e-01 2.553064525127410889e-01 -4.264965057373046875e-01 3.292716443538665771e-01 3.644791543483734131e-01 3.217476308345794678e-01 -1.938047707080841064e-01 2.192098051309585571e-01 -5.336104631423950195e-01 -2.734430730342864990e-01 2.021221220493316650e-01 -8.554837107658386230e-02 -5.979528427124023438e-01 -1.968494653701782227e-01 3.153126537799835205e-01 2.425343096256256104e-01 -2.345764786005020142e-01 -8.427716493606567383e-01 4.738509356975555420e-01 5.041484832763671875e-01 -8.562149107456207275e-02 -2.686773836612701416e-01 6.523990631103515625e-02 -5.000580474734306335e-02 -1.169935017824172974e-01 -6.590275764465332031e-01 -4.430169165134429932e-01 2.552366554737091064e-01 -3.849358260631561279e-01 -3.231736421585083008e-01 -1.489258110523223877e-01 -8.907005190849304199e-01 2.260060459375381470e-01 -5.424880385398864746e-01 2.368091195821762085e-01 -1.903653889894485474e-01 -2.824153900146484375e-01 1.156655550003051758e-01 5.074434280395507812e-01 1.943526905961334705e-03 -2.439180314540863037e-01 -3.194065093994140625e-01 1.992722302675247192e-01 -5.318501591682434082e-01 -5.304254889488220215e-01 5.545074343681335449e-01 -3.225633800029754639e-01 2.113593276590108871e-03 2.930255830287933350e-01 6.596843600273132324e-01 -3.217394053936004639e-01 -1.790850043296813965e+00 -4.448501765727996826e-01 -3.515106737613677979e-01 1.278700083494186401e-01 -1.397302839905023575e-02 -3.458032011985778809e-01 -7.389478683471679688e-01 -5.841873884201049805e-01 3.193987309932708740e-01 4.237816929817199707e-01 -8.519954234361648560e-02 -2.521041333675384521e-01 -2.828613817691802979e-01 1.692714691162109375e-01 -4.438972175121307373e-01 2.647320926189422607e-01 -1.915135860443115234e+00 6.598901152610778809e-01 -1.209285855293273926e+00
-9.731956571340560913e-02 -8.072159835137426853e-05 -1.226866841316223145e-01 -1.036868989467620850e-01 -1.225531175732612610e-01 2.203777991235256195e-02 -4.637030139565467834e-02 9.930388629436492920e-02 1.260534822940826416e-01 6.612133234739303589e-02 -1.378491800278425217e-02 1.309843733906745911e-02 -8.375907316803932190e-03 2.582000792026519775e-01 -9.905034303665161133e-02 1.304354220628738403e-01 -7.517810165882110596e-02 8.587643504142761230e-02 1.780585944652557373e-01 5.798266455531120300e-02 -5.186500549316406250e-01 -3.466719761490821838e-02 -8.341819979250431061e-03 -1.333460968453437090e-04 -5.933756008744239807e-02 -4.257434234023094177e-02 -1.780597269535064697e-01 -1.401554942131042480e-01 -2.104506343603134155e-01 -1.901178248226642609e-02 -1.177848130464553833e-01 -7.949478179216384888e-02 5.255821719765663147e-02 1.197366230189800262e-02 1.170357596129179001e-02 3.854759037494659424e-02 9.520581923425197601e-03 -8.056946098804473877e-02 1.331118196249008179e-01 -8.275083452463150024e-02 -5.504785850644111633e-02 6.758711487054824829e-02 1.766747385263442993e-01 -3.143635764718055725e-02 -2.497901953756809235e-02 -7.202540338039398193e-02 -1.323050856590270996e-01 -4.730989411473274231e-02 1.263570189476013184e-01 -3.236090019345283508e-02 2.038675099611282349e-01 -1.146247684955596924e-01 -2.033344656229019165e-02 -2.268110029399394989e-02 -6.804011762142181396e-02 1.660129725933074951e-01 -1.390203088521957397e-01 1.018590256571769714e-01 -1.286110002547502518e-02 1.056952551007270813e-01 -2.014182060956954956e-01 7.470314740203320980e-04 1.046228259801864624e-01 1.130388304591178894e-01 -6.764933932572603226e-03 1.379950791597366333e-01 1.755756288766860962e-01 -2.088603936135768890e-02 -6.736179441213607788e-02 1.158115416765213013e-01 -7.912322133779525757e-02 2.181948274374008179e-01 9.051815420389175415e-02 -1.474224179983139038e-01 -9.713838994503021240e-02 2.586357668042182922e-02 -2.979658544063568115e-02 -2.289957702159881592e-01 4.669594578444957733e-03 -3.834157809615135193e-02 2.035289257764816284e-01 -1.560365874320268631e-02 -1.570317707955837250e-02 4.146486055105924606e-03 -1.852984428405761719e-01 -1.473661363124847412e-01 -1.056712716817855835e-01 1.712460070848464966e-02 7.018064614385366440e-03 1.416072398424148560e-01 6.918649375438690186e-02 8.242771029472351074e-02 1.706833541393280029e-01 -4.440010339021682739e-02 -1.399072706699371338e-01 -8.156887441873550415e-02 1.394160240888595581e-01 4.795055836439132690e-02 5.212806165218353271e-02 6.606649607419967651e-03
-1.265164837241172791e-02 -4.496009647846221924e-01 3.359518945217132568e-01 1.174483448266983032e-01 2.059217542409896851e-01 5.382153391838073730e-01 -4.397697374224662781e-02 -4.904823005199432373e-02 2.953405082225799561e-01 -9.300120174884796143e-02 1.373300701379776001e-01 -3.025311827659606934e-01 -3.809401690959930420e-01 9.938543289899826050e-02 1.553713679313659668e-01 -1.095370203256607056e-01 4.340502917766571045e-01 2.239708155393600464e-01 1.699392795562744141e-01 -3.030603565275669098e-02 -2.024370431900024414e+00 -6.823260337114334106e-02 -4.819465279579162598e-01 3.052302896976470947e-01 2.617962062358856201e-01 -4.720659554004669189e-01 -1.853445470333099365e-01 -2.454153537750244141e+00 -3.646608889102935791e-01 2.517143785953521729e-01 -2.327466607093811035e-01 -9.387979656457901001e-02 3.475101664662361145e-02 -2.508290410041809082e-01 -3.286850750446319580e-01 -2.329114824533462524e-01 2.307646989822387695e+00 -4.645987153053283691e-01 2.040119469165802002e-01 4.544135034084320068e-01 -2.459604263305664062e+00 -2.600118875503540039e+00 1.119467988610267639e-02 4.126741290092468262e-01 -8.051058053970336914e-01 -4.527070224285125732e-01 2.349761128425598145e-01 -2.121458202600479126e-01 -7.186304777860641479e-02 -1.307195425033569336e-01 -1.557548716664314270e-02 5.259460806846618652e-01 -2.382937669754028320e+00 2.507509231567382812e+00 4.685839414596557617e-01 2.108240723609924316e-01 3.396022692322731018e-02 -2.611905038356781006e-01 5.505393072962760925e-02 4.175172746181488037e-02 4.386819303035736084e-01 3.035101592540740967e-01 -4.413147270679473877e-01 -2.555292546749114990e-01 -1.144228875637054443e-01 2.826780676841735840e-01 4.052024483680725098e-01 -6.739784479141235352e-01 -2.024691700935363770e-01 4.915308356285095215e-01 1.067510768771171570e-01 -4.621405005455017090e-01 -2.067219614982604980e-01 -4.467577040195465088e-01 2.105179280042648315e-01 -2.313226908445358276e-01 8.498463034629821777e-02 2.297750264406204224e-01 -2.698256373405456543e-01 -1.394415199756622314e-01 4.544101059436798096e-01 -2.751127176452428102e-04 6.191468611359596252e-02 4.933158457279205322e-01 -1.964745372533798218e-01 2.271211624145507812e+00 2.569564282894134521e-01 2.743524909019470215e-01 2.111701518297195435e-01 -2.631441950798034668e-01 -2.102781087160110474e-01 -3.536388874053955078e-01 3.969919681549072266e-01 2.466302216053009033e-01 2.414434671401977539e+00 1.176317259669303894e-01 -3.014726340770721436e-01 -9.046361595392227173e-02 -2.571683824062347412e-01 1.743144392967224121e-01
1.764408797025680542e-01 1.600602030754089355e+00 2.281958311796188354e-01 1.541987359523773193e-01 -1.023278385400772095e-01 -1.791758239269256592e-01 -1.418890058994293213e-01 -5.492617189884185791e-02 2.689767181873321533e-01 -2.895685136318206787e-01 3.282354772090911865e-01 3.653221204876899719e-02 -2.556356787681579590e-01 1.167490184307098389e-01 -4.422938823699951172e-01 -1.917484849691390991e-01 1.123439818620681763e-01 2.340886592864990234e-01 5.751562118530273438e-02 2.375070750713348389e-01 -1.807390600442886353e-01 -2.449639290571212769e-01 3.110290169715881348e-01 -1.371768951416015625e+00 1.602494269609451294e-01 -2.914817631244659424e-01 -1.328607201576232910e-01 -4.896512255072593689e-04 -1.771137118339538574e-01 6.158214434981346130e-02 -3.624724745750427246e-01 -4.539621993899345398e-02 2.145314216613769531e-01 1.568290889263153076e-01 -2.957630455493927002e-01 -8.295845985412597656e-02 -2.811736464500427246e-01 -1.360756307840347290e-01 4.404170811176300049e-02 -3.154985897708684206e-04 3.311973810195922852e-02 5.421233922243118286e-02 1.264459341764450073e-01 2.547898888587951660e-02 3.595001399517059326e-01 -5.111847817897796631e-02 3.504339978098869324e-02 -1.839005500078201294e-01 -1.957009285688400269e-01 -3.299008011817932129e-01 1.648917347192764282e-01 1.550978869199752808e-01 9.616768360137939453e-02 -3.777644783258438110e-02 2.296878397464752197e-02 4.645697399973869324e-02 1.058317944407463074e-01 -1.586340516805648804e-01 2.495577484369277954e-01 1.204288750886917114e-01 1.268999278545379639e-01 -9.776753187179565430e-01 -2.302042692899703979e-01 -2.695065736770629883e-01 -2.118013799190521240e-01 9.396811947226524353e-03 -1.994290649890899658e-01 3.040695190429687500e-01 -1.130174994468688965e-01 4.819246940314769745e-03 2.140374109148979187e-02 -1.046903729438781738e-01 -3.272477984428405762e-01 -2.372901588678359985e-01 3.478205204010009766e-01 -2.995803393423557281e-02 1.175055950880050659e-01 1.150783225893974304e-01 -1.614662408828735352e-01 -5.328005179762840271e-02 1.366830915212631226e-01 -4.040173590183258057e-01 1.736653447151184082e-01 -5.678893327713012695e-01 3.045975463464856148e-03 -1.940360292792320251e-02 3.790942430496215820e-01 -1.554739624261856079e-01 5.597290396690368652e-02 -2.131953686475753784e-01 -7.174851745367050171e-02 2.209891006350517273e-02 2.234461344778537750e-02 1.041006594896316528e-01 2.159730531275272369e-02 2.592722773551940918e-01 -2.535009980201721191e-01 -5.001199841499328613e-01 -2.463189661502838135e-01 -3.351895511150360107e-01
2.410460114479064941e-01 4.666578173637390137e-01 -3.261809945106506348e-01 -2.130176275968551636e-01 -1.929009556770324707e-01 -1.364450335502624512e+00 1.314276307821273804e-01 2.305524349212646484e-01 -3.138078749179840088e-01 -4.997230321168899536e-02 -2.416778653860092163e-01 3.584377467632293701e-01 2.250479310750961304e-01 -2.679730951786041260e-01 1.237308885902166367e-02 2.045077383518218994e-01 -3.434608280658721924e-01 -1.189199313521385193e-01 -2.514712512493133545e-01 8.402360230684280396e-02 2.023158311843872070e+00 -3.009131364524364471e-02 6.363195776939392090e-01 -5.655485391616821289e-01 -1.039260476827621460e-01 4.624089896678924561e-01 8.849669247865676880e-02 5.505047798156738281e+00 2.001736313104629517e-01 -2.060072720050811768e-01 2.082149535417556763e-01 1.656620651483535767e-01 -2.626187503337860107e-01 5.150960087776184082e-01 -8.513328793924301863e-05 2.744831442832946777e-01 -5.438821315765380859e+00 3.481473326683044434e-01 -2.008909136056900024e-01 -1.983565390110015869e-01 5.240400314331054688e+00 5.200115203857421875e+00 -1.037095934152603149e-01 -2.399485111236572266e-01 1.453089952468872070e+00 1.459025591611862183e-01 -2.615766525268554688e-01 2.791434824466705322e-01 1.083903238177299500e-01 -3.969417884945869446e-03 -8.086454123258590698e-02 -4.810107350349426270e-01 5.511409282684326172e+00 -5.552463054656982422e+00 -2.796712517738342285e-01 -1.848580688238143921e-01 -1.807156205177307129e-01 4.636132717132568359e-01 -2.839200794696807861e-01 3.956120088696479797e-02 -3.415831029415130615e-01 -6.189957261085510254e-01 1.889914125204086304e-01 3.154628276824951172e-01 2.598061971366405487e-02 -3.331726491451263428e-01 -4.384468197822570801e-01 8.369466662406921387e-01 3.841052204370498657e-02 -4.583258926868438721e-01 -3.482656180858612061e-02 4.148113727569580078e-01 2.307858020067214966e-01 2.776640951633453369e-01 -1.637959182262420654e-01 2.719608843326568604e-01 -1.634598821401596069e-01 -6.440355181694030762e-01 -4.213552549481391907e-02 1.926850974559783936e-01 -3.277175724506378174e-01 6.655798852443695068e-02 -1.244746744632720947e-01 -3.440931141376495361e-01 3.062229156494140625e-01 -5.665786743164062500e+00 -1.763307005167007446e-01 -5.747096985578536987e-02 -1.607854962348937988e-01 -2.260293811559677124e-02 2.097520679235458374e-01 2.908351719379425049e-01 -3.510704338550567627e-01 -8.021410554647445679e-02 -5.305604934692382812e+00 -1.821864843368530273e-01 1.076212301850318909e-01 -2.785641252994537354e-01 2.290740907192230225e-01 -6.594155728816986084e-02
-6.651696562767028809e-02 -5.308306813240051270e-01 2.974559068679809570e-01 1.836296021938323975e-01 2.752335369586944580e-01 5.383322834968566895e-01 -4.211927205324172974e-02 -9.868983924388885498e-02 2.194582074880599976e-01 -5.697401612997055054e-02 -4.435313493013381958e-02 -3.286751508712768555e-01 -4.480310678482055664e-01 2.155202031135559082e-01 6.383728981018066406e-02 7.599689066410064697e-02 5.142637491226196289e-01 -3.742228075861930847e-02 2.250369191169738770e-01 1.159298866987228394e-01 -1.146953940391540527e+00 2.015263028442859650e-02 -2.715917229652404785e-01 3.159446418285369873e-01 1.659268140792846680e-02 -3.426267802715301514e-01 8.380067348480224609e-02 -1.449596762657165527e+00 -3.634933233261108398e-01 -4.891303181648254395e-02 -4.375555366277694702e-02 7.807002961635589600e-02 -2.443410269916057587e-02 -3.068872690200805664e-01 -2.618688344955444336e-02 -2.226323187351226807e-01 1.368964076042175293e+00 -2.116113901138305664e-01 1.680272817611694336e-01 9.360046684741973877e-02 -1.448333978652954102e+00 -1.324879050254821777e+00 6.936404109001159668e-02 1.779407411813735962e-01 -7.737695574760437012e-01 -3.696378469467163086e-01 3.950322568416595459e-01 -2.063777148723602295e-01 -2.210804075002670288e-01 -1.734319776296615601e-01 1.732721030712127686e-01 2.734191417694091797e-01 -1.364959836006164551e+00 1.351193189620971680e+00 2.145418226718902588e-01 -4.094498604536056519e-02 2.364551126956939697e-01 -3.949752151966094971e-01 -8.825893513858318329e-03 3.501389548182487488e-02 3.636400699615478516e-01 3.438348174095153809e-01 -3.251239657402038574e-01 -3.241237401962280273e-01 -2.302916944026947021e-01 4.689841866493225098e-01 1.279443055391311646e-01 -8.298475742340087891e-01 -1.925154402852058411e-02 3.409665822982788086e-01 2.256469279527664185e-01 -4.484444558620452881e-01 -2.835985124111175537e-01 -1.790153682231903076e-01 1.067205443978309631e-01 -7.646588236093521118e-02 6.433467566967010498e-02 4.745647609233856201e-01 -1.473263800144195557e-01 -1.905769556760787964e-01 3.511621952056884766e-01 1.646894067525863647e-01 1.728689223527908325e-01 1.891403198242187500e-01 -4.165439307689666748e-01 1.496053576469421387e+00 1.172033995389938354e-01 2.654434442520141602e-01 1.462222635746002197e-01 -1.116402745246887207e-01 -1.425964236259460449e-01 -1.632581278681755066e-02 3.525366485118865967e-01 2.038564234972000122e-01 1.253697276115417480e+00 -3.780375421047210693e-02 -3.671804443001747131e-02 3.899141447618603706e-03 -2.139418423175811768e-01 -5.697352066636085510e-02
