# 4 84
-6.753275871276855469e+00 -4.336092948913574219e+00 2.903004169464111328e+00 -5.094166755676269531e+00 3.651526927947998047e+00 -9.228426933288574219e+00 -3.250039577484130859e+00 -1.004241085052490234e+01 -1.414322757720947266e+01 2.074740600585937500e+01 -6.540404558181762695e-01 -6.872934818267822266e+00 -1.280970382690429688e+01 -2.946021080017089844e+00 -2.102711677551269531e+00 -7.842749118804931641e+00 -6.786176204681396484e+00 -1.739032173156738281e+01 -2.800913333892822266e+00 -1.003345394134521484e+01 -8.738726615905761719e+00 -1.088273715972900391e+01 -2.424982786178588867e+00 -1.496687698364257812e+01 3.766357421875000000e+00 -3.675970792770385742e+00 6.406734943389892578e+00 -4.998736381530761719e+00 -1.126780509948730469e+01 -3.826772451400756836e+00 4.455943107604980469e+00 1.187764835357666016e+01 -2.855000257492065430e+00 -1.685625839233398438e+01 -3.910165786743164062e+00 -3.700147151947021484e+00 -9.342677116394042969e+00 2.628026723861694336e+00 6.069350242614746094e+00 -5.712485313415527344e+00 2.941138267517089844e+00 -5.158374786376953125e+00 -7.339398860931396484e+00 6.084762096405029297e+00 1.641801452636718750e+01 6.543689250946044922e+00 -8.676521301269531250e+00 -3.998285770416259766e+00 -3.760645627975463867e+00 -2.633678674697875977e+00 -8.422045707702636719e+00 -9.618340492248535156e+00 -4.350725650787353516e+00 -3.554691791534423828e+00 4.373399734497070312e+00 3.674597024917602539e+00 1.356348705291748047e+01 -9.503701210021972656e+00 -8.641488075256347656e+00 -1.198937892913818359e+00 2.677372455596923828e+00 -5.581157684326171875e+00 -3.765930652618408203e+00 -8.805619239807128906e+00 -7.003840923309326172e+00 9.871578216552734375e+00 4.659867286682128906e+00 -2.512517452239990234e+00 2.903374195098876953e+00 -1.638359451293945312e+01 -6.160476684570312500e+00 -7.575889587402343750e+00 -8.852548599243164062e+00 3.598606348037719727e+00 2.456505775451660156e+00 -6.893186569213867188e+00 -1.566163825988769531e+01 5.078825473785400391e+00 -4.175261974334716797e+00 -1.118327808380126953e+01 -4.950002670288085938e+00 -7.499429225921630859e+00 -7.091550350189208984e+00 4.500162601470947266e+00
6.405113339424133301e-01 3.542589545249938965e-01 8.177024126052856445e-01 -4.141933321952819824e-01 2.035310506820678711e+00 -1.183012008666992188e+01 4.965452551841735840e-01 -1.185165023803710938e+01 6.785583972930908203e+00 -2.807693099975585938e+01 1.453993129730224609e+01 -1.263391590118408203e+01 5.692024230957031250e+00 1.744783818721771240e-01 -3.738380050659179688e+01 -8.113471031188964844e+00 4.140346944332122803e-01 8.614825248718261719e+00 -9.061694145202636719e-01 5.200826644897460938e+01 2.415621519088745117e+00 -1.245640277862548828e+01 1.034909725189208984e+01 6.857815742492675781e+00 7.699410915374755859e-01 -4.092075526714324951e-01 -2.609071433544158936e-01 2.129898667335510254e-01 5.613094329833984375e+00 -1.521160006523132324e+00 -2.789012789726257324e-01 -2.474551916122436523e+00 -7.297665476799011230e-01 7.019393920898437500e+00 -4.368318989872932434e-02 -1.328289061784744263e-01 -1.396929454803466797e+01 6.393710374832153320e-01 8.403244018554687500e+00 -2.563825035095214844e+01 5.651838779449462891e+00 -2.185494995117187500e+01 1.272159218788146973e+00 -2.143838882446289062e+01 -5.123579502105712891e+00 -1.706189990043640137e+00 3.332110166549682617e+00 -1.232611536979675293e+00 -2.100172936916351318e-01 -1.013803184032440186e-01 -1.401322364807128906e+01 -8.995759010314941406e+00 5.675464868545532227e-01 3.761116027832031250e+01 2.690734481811523438e+01 4.823284149169921875e-01 -7.966539382934570312e+00 -1.185479068756103516e+01 3.490918159484863281e+00 1.720874977111816406e+01 8.972082138061523438e-01 -9.907664358615875244e-02 -3.141645193099975586e-01 -6.637289524078369141e+00 9.424278140068054199e-01 -2.976106166839599609e+00 9.051360934972763062e-02 5.829232692718505859e+00 1.430222320556640625e+01 8.029750823974609375e+00 1.105195760726928711e+00 -1.148849487304687500e+01 -1.534162807464599609e+01 6.178955435752868652e-01 7.645136117935180664e-01 2.002519845962524414e+00 6.622344017028808594e+00 -1.251989960670471191e+00 -7.109491229057312012e-01 4.132198810577392578e+00 2.621089816093444824e-01 -1.630870437622070312e+01 2.126810789108276367e+00 -2.489874837920069695e-03
-3.388638198375701904e-01 -2.602669298648834229e-01 1.183971613645553589e-01 -2.512101829051971436e-01 1.134783327579498291e-01 7.535437583923339844e+00 -3.005991578102111816e-01 8.136494636535644531e+00 -1.857113838195800781e-01 6.484047174453735352e-01 -1.933449149131774902e+00 5.610665321350097656e+00 -1.340153664350509644e-01 -2.354473173618316650e-01 -2.206650352478027344e+01 7.645919322967529297e+00 -2.947823703289031982e-01 2.612818181514739990e-01 -2.308369427919387817e-01 -8.559521675109863281e+00 -3.045201301574707031e-01 8.054802894592285156e+00 -3.568468570709228516e+00 1.974104046821594238e-01 1.539575159549713135e-01 -2.417424321174621582e-01 2.831488132476806641e+00 -2.875580489635467529e-01 -2.858388423919677734e-01 -2.743510305881500244e-01 3.893883526325225830e-01 6.106022596359252930e-01 -2.248286604881286621e-01 4.514515399932861328e-01 -2.785181403160095215e-01 -2.450760900974273682e-01 7.912447452545166016e+00 1.269794851541519165e-01 -5.797374248504638672e-01 8.222389221191406250e+00 -2.030079269409179688e+01 6.136788845062255859e+00 -3.089826107025146484e-01 3.764451980590820312e+00 2.122424542903900146e-01 1.026110172271728516e+00 -3.456634581089019775e-01 -2.634723186492919922e-01 -2.588603496551513672e-01 -2.230538576841354370e-01 7.719039916992187500e+00 6.404886722564697266e+00 -2.902517318725585938e-01 -6.276694774627685547e+00 -3.683978080749511719e+00 2.682637572288513184e-01 2.235550642013549805e+00 6.845013618469238281e+00 -3.753657639026641846e-01 -1.185772037506103516e+01 1.250023543834686279e-01 -2.842488884925842285e-01 -2.901363670825958252e-01 5.258452892303466797e+00 -3.448228240013122559e-01 1.210064530372619629e+00 3.196530044078826904e-01 -5.070721149444580078e+00 -5.291838169097900391e+00 4.954957216978073120e-02 -3.057690560817718506e-01 6.824653625488281250e+00 7.433602333068847656e+00 1.931287497282028198e-01 1.319250017404556274e-01 -3.429292142391204834e-01 2.254081368446350098e-01 7.538602352142333984e-01 -2.387157529592514038e-01 -1.720521748065948486e-01 -2.814655005931854248e-01 4.176705837249755859e+00 -3.781290948390960693e-01 3.930119276046752930e-01
8.868744969367980957e-02 9.706056118011474609e-02 -3.302432894706726074e-01 3.449944555759429932e-01 -7.254032492637634277e-01 -1.646231174468994141e+00 4.012011364102363586e-02 -1.595124840736389160e+00 -1.974870562553405762e+00 8.708294868469238281e+00 2.437279671430587769e-01 4.755545854568481445e-01 -1.672367572784423828e+00 1.201462373137474060e-01 3.205128479003906250e+01 1.324809432029724121e+00 1.272606998682022095e-01 -2.690526247024536133e+00 4.787978827953338623e-01 -8.625531196594238281e+00 -5.257898569107055664e-01 -1.568941712379455566e+00 -1.063625097274780273e+00 -2.269211053848266602e+00 -3.187651634216308594e-01 3.340237140655517578e-01 9.408631920814514160e-01 1.666160672903060913e-01 -1.555313706398010254e+00 7.464259862899780273e-01 -1.377636343240737915e-01 6.325477361679077148e-01 4.155468046665191650e-01 -2.433496236801147461e+00 2.581956982612609863e-01 2.403040081262588501e-01 -7.586993694305419922e+00 -2.747740149497985840e-01 -2.288754940032958984e+00 -3.801617145538330078e+00 -1.852181243896484375e+01 -2.455340957641601562e+01 -1.560402214527130127e-01 -1.857652282714843750e+01 1.445862054824829102e+00 -4.358219355344772339e-02 -8.131910562515258789e-01 6.393155455589294434e-01 2.610047757625579834e-01 2.202722877264022827e-01 -2.905598402023315430e+00 -7.911135554313659668e-01 2.620700187981128693e-02 -6.319633007049560547e+00 -6.746438503265380859e+00 -3.212408423423767090e-01 -6.563662052154541016e+00 -8.662620782852172852e-01 -8.161340355873107910e-01 4.758074879646301270e-01 -3.759299218654632568e-01 2.972231209278106689e-01 3.621786534786224365e-01 -1.242678403854370117e+00 -2.060865052044391632e-02 4.131124019622802734e-01 -2.103993892669677734e-01 2.379191964864730835e-01 -1.426146626472473145e+00 -2.406051874160766602e+00 -9.519165009260177612e-02 -2.110774040222167969e+00 -2.395363748073577881e-01 -2.995063364505767822e-01 -3.087913095951080322e-01 -3.814895153045654297e-01 -2.139937162399291992e+00 -5.693956464529037476e-02 4.272072315216064453e-01 -1.182249784469604492e+00 1.632220298051834106e-01 2.558339834213256836e+00 -3.791594207286834717e-01 -2.385659068822860718e-01
