# 60
1.076086759567260742e+00
2.750867009162902832e-01
-4.632413387298583984e-03
5.871497392654418945e-01
6.238803863525390625e-01
2.300387173891067505e-01
3.764034509658813477e-01
5.007012486457824707e-01
1.997324172407388687e-03
1.439200520515441895e+00
-8.473753929138183594e-01
1.514241914264857769e-03
6.633508205413818359e-01
3.676854372024536133e-01
-7.426576614379882812e-01
-7.939108647406101227e-03
3.257063329219818115e-01
-4.805788099765777588e-01
-9.748666286468505859e-01
-9.929727315902709961e-01
9.059178829193115234e-01
-8.001811057329177856e-02
-8.645024299621582031e-01
-9.126644730567932129e-01
-9.965503811836242676e-01
-9.731523394584655762e-01
1.511221528053283691e-01
-8.567602634429931641e-01
-9.533953666687011719e-01
-7.096956968307495117e-01
9.559234380722045898e-01
7.490943074226379395e-01
-5.176498889923095703e-01
3.043301701545715332e-01
-1.009040419012308121e-02
1.075134396553039551e+00
-9.865670204162597656e-01
1.313975155353546143e-01
-9.929628372192382812e-01
-1.174894254654645920e-02
5.304714664816856384e-03
6.788400411605834961e-01
4.585837945342063904e-02
-7.471328973770141602e-01
1.245215892791748047e+00
6.723096966743469238e-01
3.867804110050201416e-01
1.273804157972335815e-01
-1.188193913549184799e-02
6.733725070953369141e-01
7.975431084632873535e-01
-7.502498626708984375e-01
2.165171056985855103e-01
1.320136524736881256e-02
-7.357107847929000854e-02
6.834536045789718628e-02
-9.408452510833740234e-01
-6.254276037216186523e-01
3.835277259349822998e-02
8.639691472053527832e-01
