# 6 60
3.311232376098632812e+01 2.233600616455078125e+00 1.907923221588134766e+00 -5.160740280151367188e+01 -8.962501883506774902e-01 2.162113380432128906e+01 1.646477317810058594e+01 -1.416853332519531250e+01 -7.459689974784851074e-01 4.533698272705078125e+01 -9.222089052200317383e-01 1.641777157783508301e+00 -2.289197540283203125e+01 3.108469963073730469e+01 -7.477291226387023926e-01 4.018748283386230469e+00 1.507808017730712891e+01 -1.023359969258308411e-01 1.449952423572540283e-01 3.519282579421997070e+00 -5.776884555816650391e-01 8.431316018104553223e-01 1.355162858963012695e-01 -1.025208905339241028e-01 2.961360692977905273e+00 -7.403605580329895020e-01 2.102583885192871094e+00 1.054026246070861816e+00 2.119236998260021210e-02 3.687958419322967529e-01 4.557435226440429688e+01 -3.457733917236328125e+01 2.114542275667190552e-01 1.848069000244140625e+01 -3.654137626290321350e-02 -5.071092844009399414e-01 1.880504369735717773e+00 2.163097000122070312e+01 1.761720061302185059e+00 1.936622262001037598e+00 5.189796686172485352e-01 3.150600624084472656e+01 1.291555404663085938e+00 1.140203714370727539e+00 3.610476684570312500e+01 3.469248199462890625e+01 -5.373707580566406250e+01 1.579895591735839844e+01 2.720612287521362305e-01 2.127227592468261719e+01 -3.586532592773437500e+01 3.434315323829650879e-01 7.502879947423934937e-02 7.462933063507080078e-01 -4.313321709632873535e-01 1.301783561706542969e+01 -7.004469633102416992e-01 -8.790975064039230347e-02 4.962047100067138672e+00 -6.552245616912841797e-01
2.951219940185546875e+01 9.599684715270996094e+00 -2.105506420135498047e+00 6.111127090454101562e+01 -2.989305686950683594e+01 1.494907951354980469e+01 1.717183113098144531e+01 1.748351097106933594e+01 -2.280860900878906250e+01 2.987406730651855469e+01 -9.296775817871093750e+00 -3.530490398406982422e+00 2.770863533020019531e+01 2.337314605712890625e+01 -1.229924869537353516e+01 -2.054572582244873047e+00 1.479108047485351562e+01 -1.597706699371337891e+01 -4.637825489044189453e+00 -6.430592536926269531e-01 -3.575901794433593750e+01 -6.196473240852355957e-01 -9.305939674377441406e+00 -7.264525413513183594e+00 2.966756224632263184e-01 -5.066045761108398438e+00 6.754025459289550781e+00 -8.226587295532226562e+00 -1.730120897293090820e+00 -1.320088291168212891e+01 2.861057472229003906e+01 4.061492919921875000e+01 -1.654546356201171875e+01 1.675331878662109375e+01 -3.629523277282714844e+00 -4.038011169433593750e+01 -2.501824617385864258e+00 1.401763916015625000e+01 3.963366746902465820e-01 -3.249089479446411133e+00 2.270025491714477539e+00 2.583775138854980469e+01 -8.108499526977539062e+00 -2.611788034439086914e+00 3.016190147399902344e+01 2.436236763000488281e+01 5.796036911010742188e+01 1.121654891967773438e+01 -5.781556963920593262e-01 2.315840148925781250e+01 4.336806106567382812e+01 -1.202294254302978516e+01 -1.734176635742187500e+01 -6.506673336029052734e+00 -2.144926452636718750e+01 8.388753890991210938e+00 -6.334760665893554688e+00 -1.456628608703613281e+01 3.964267492294311523e+00 -3.422311782836914062e+01
7.566063690185546875e+01 6.060482788085937500e+01 -2.247808265686035156e+01 1.158784408569335938e+02 -1.165612564086914062e+02 4.357398986816406250e+01 5.913727188110351562e+01 9.249959564208984375e+01 -9.662104034423828125e+01 7.423291015625000000e+01 -5.185790252685546875e+01 -2.910992240905761719e+01 1.019341506958007812e+02 5.674054718017578125e+01 -6.111240768432617188e+01 -2.617688369750976562e+01 5.611129760742187500e+01 -7.031947326660156250e+01 -3.233379364013671875e+01 -9.146630287170410156e+00 -1.247630462646484375e+02 -1.006415557861328125e+01 -5.002396774291992188e+01 -4.371011352539062500e+01 -8.081228256225585938e+00 -3.372813034057617188e+01 4.539701461791992188e+01 -5.013419723510742188e+01 -1.764652633666992188e+01 -6.320541381835937500e+01 7.285063171386718750e+01 1.058051300048828125e+02 -7.533465576171875000e+01 5.298807907104492188e+01 -2.747514152526855469e+01 -1.297227325439453125e+02 -2.337526893615722656e+01 3.526933288574218750e+01 -3.290647745132446289e+00 -2.833466148376464844e+01 6.376323699951171875e+00 6.570911407470703125e+01 -4.656608200073242188e+01 -2.309509277343750000e+01 7.776753234863281250e+01 6.180652236938476562e+01 1.109226608276367188e+02 3.671403503417968750e+01 -1.374115180969238281e+01 7.092177581787109375e+01 1.078970489501953125e+02 -6.084354019165039062e+01 -6.802634429931640625e+01 -4.077436828613281250e+01 -9.389616394042968750e+01 2.489785575866699219e+01 -3.924403762817382812e+01 -6.973081207275390625e+01 1.728584861755371094e+01 -1.236248626708984375e+02
1.540339374542236328e+01 1.532592487335205078e+01 -2.539673089981079102e+00 5.101772689819335938e+01 -3.302513885498046875e+01 6.337102413177490234e+00 1.183260345458984375e+01 2.858817291259765625e+01 -2.330136299133300781e+01 1.421809101104736328e+01 -6.833428382873535156e+00 -4.449855327606201172e+00 3.508205032348632812e+01 6.849183559417724609e+00 -9.311583518981933594e+00 -3.353600978851318359e+00 1.123625087738037109e+01 -1.301730442047119141e+01 -3.044590234756469727e+00 -7.043959945440292358e-02 -3.626375579833984375e+01 -6.031401827931404114e-02 -6.191807270050048828e+00 -4.880300045013427734e+00 -2.118360549211502075e-01 -3.534344911575317383e+00 1.135289001464843750e+01 -5.995728969573974609e+00 -1.514275550842285156e+00 -1.001611328125000000e+01 6.731715679168701172e+00 4.052232360839843750e+01 -1.318423938751220703e+01 9.921654701232910156e+00 -4.014690399169921875e+00 -3.871461105346679688e+01 -1.735029458999633789e+00 4.772179603576660156e+00 7.431045174598693848e-01 -3.709610700607299805e+00 3.141242504119873047e+00 1.100894260406494141e+01 -9.094576835632324219e+00 -2.015888929367065430e+00 1.572906017303466797e+01 8.809825897216796875e+00 4.864790344238281250e+01 6.750401496887207031e+00 -9.131960868835449219e-01 1.502415561676025391e+01 4.274930572509765625e+01 -8.367900848388671875e+00 -1.605681037902832031e+01 -7.338018417358398438e+00 -2.149669456481933594e+01 4.793071269989013672e+00 -4.249161720275878906e+00 -1.117168045043945312e+01 4.976262092590332031e+00 -3.557240295410156250e+01
-1.158155746459960938e+02 -1.069500350952148438e+02 2.405944824218750000e+01 -1.443770141601562500e+02 1.622047576904296875e+02 -5.634770202636718750e+01 -9.680461883544921875e+01 -1.426368865966796875e+02 1.297308349609375000e+02 -1.120148544311523438e+02 5.010628128051757812e+01 3.600590896606445312e+01 -1.497852172851562500e+02 -6.280389022827148438e+01 6.404958343505859375e+01 2.946368598937988281e+01 -9.281615447998046875e+01 8.461295318603515625e+01 2.555432891845703125e+01 2.982423782348632812e+00 1.712671356201171875e+02 5.880439758300781250e+00 4.689191818237304688e+01 3.861534500122070312e+01 2.474592924118041992e+00 2.736482810974121094e+01 -8.182037353515625000e+01 4.695745849609375000e+01 1.155117988586425781e+01 6.888513183593750000e+01 -8.492644500732421875e+01 -1.464079589843750000e+02 8.737535095214843750e+01 -8.108769989013671875e+01 3.286634826660156250e+01 1.749264678955078125e+02 1.644149971008300781e+01 -3.866405105590820312e+01 -2.632826805114746094e+00 3.226722335815429688e+01 -2.009804153442382812e+01 -8.909960174560546875e+01 6.662897491455078125e+01 1.939018440246582031e+01 -1.177509231567382812e+02 -7.722802734375000000e+01 -1.365794830322265625e+02 -5.539920425415039062e+01 1.154590415954589844e+01 -1.137575378417968750e+02 -1.489978179931640625e+02 6.269036865234375000e+01 9.967808532714843750e+01 5.537732696533203125e+01 1.245656356811523438e+02 -3.715654754638671875e+01 3.382707977294921875e+01 7.734858703613281250e+01 -3.709950256347656250e+01 1.701434936523437500e+02
-2.578761672973632812e+01 -2.735618019104003906e+01 4.005813121795654297e+00 -4.566646575927734375e+00 3.271479034423828125e+01 -1.441922664642333984e+01 -2.446207046508789062e+01 -2.891633033752441406e+01 2.718300628662109375e+01 -2.447813415527343750e+01 9.874938011169433594e+00 6.498625755310058594e+00 -2.340941810607910156e+01 -1.406847381591796875e+01 1.322563457489013672e+01 4.930638313293457031e+00 -2.424256706237792969e+01 1.698158454895019531e+01 4.836765766143798828e+00 1.582354307174682617e-01 3.248780441284179688e+01 2.719785869121551514e-01 9.591732978820800781e+00 7.647240638732910156e+00 -1.066818833351135254e-01 5.655835628509521484e+00 -2.090578842163085938e+01 9.282409667968750000e+00 1.922464251518249512e+00 1.389210987091064453e+01 -1.905710029602050781e+01 -1.507185840606689453e+01 1.821447753906250000e+01 -2.003463363647460938e+01 6.038969993591308594e+00 3.129682159423828125e+01 3.134296894073486328e+00 -9.632674217224121094e+00 -1.401436924934387207e+00 5.475531578063964844e+00 -5.576744079589843750e+00 -1.969350242614746094e+01 1.227420425415039062e+01 3.328234195709228516e+00 -2.630858993530273438e+01 -1.730879783630371094e+01 -3.301509141921997070e+00 -1.442800712585449219e+01 1.635905265808105469e+00 -2.763442039489746094e+01 -1.446166229248046875e+01 1.298959732055664062e+01 1.815593719482421875e+01 1.056972312927246094e+01 2.596904563903808594e+01 -1.035041999816894531e+01 6.957017421722412109e+00 1.572535228729248047e+01 -1.003654956817626953e+01 3.263951873779296875e+01
