# 60 60
9.730866551399230957e-01 -3.874284923076629639e-01 -4.819257855415344238e-01 3.859499990940093994e-01 5.789226293563842773e-01 -3.657314777374267578e-01 3.142731189727783203e-01 -3.250785768032073975e-01 -2.916648425161838531e-02 -6.819393634796142578e-01 1.619126051664352417e-01 4.396910667419433594e-01 1.716920584440231323e-01 6.704171895980834961e-01 2.034408599138259888e-01 -6.985204815864562988e-01 2.544663846492767334e-01 -6.851678490638732910e-01 1.860540956258773804e-01 -3.153219074010848999e-02 -4.935102760791778564e-01 -4.274339079856872559e-01 -6.446051597595214844e-01 -5.065726041793823242e-01 -3.284126222133636475e-01 -4.862148165702819824e-01 -1.209242455661296844e-02 1.216308355331420898e+00 2.299827486276626587e-01 1.206820249557495117e+00 1.069703459739685059e+00 -7.044459581375122070e-01 -2.800856828689575195e-01 -6.174309253692626953e-01 9.776834845542907715e-01 6.262084245681762695e-01 1.106290936470031738e+00 -1.592806428670883179e-01 -5.622617006301879883e-01 -5.792142152786254883e-01 -6.033997535705566406e-01 2.472224980592727661e-01 9.176080930046737194e-04 -4.258348047733306885e-01 -7.042981982231140137e-01 -4.789542555809020996e-01 -6.111898422241210938e-01 -9.480312466621398926e-02 3.463456332683563232e-01 -2.134511433541774750e-02 -6.329957246780395508e-01 -5.179265141487121582e-01 7.517045736312866211e-01 -7.599216699600219727e-02 9.617937207221984863e-01 -4.184365272521972656e-01 -5.536473989486694336e-01 -9.501981548964977264e-03 1.107180789113044739e-01 -5.346157550811767578e-01
9.671940207481384277e-01 -2.974801063537597656e-01 -4.547381401062011719e-01 6.631635427474975586e-01 6.913022994995117188e-01 -6.052580475807189941e-01 6.989562511444091797e-01 -6.600773334503173828e-01 1.156812347471714020e-02 -6.287880539894104004e-01 2.837503515183925629e-02 8.108002543449401855e-01 -1.750783063471317291e-02 5.060427784919738770e-01 9.604401141405105591e-02 -6.961746811866760254e-01 5.268080830574035645e-01 -5.069248676300048828e-01 -8.246366679668426514e-02 1.851394325494766235e-01 -5.985227823257446289e-01 -6.984797716140747070e-01 -4.568262696266174316e-01 -3.448543250560760498e-01 3.376843333244323730e-01 -3.333874642848968506e-01 2.711632251739501953e-01 1.112092256546020508e+00 5.235879421234130859e-01 1.099086046218872070e+00 9.204925894737243652e-01 -3.076523542404174805e-01 -5.591906905174255371e-01 -6.947927474975585938e-01 6.641653180122375488e-01 2.929468750953674316e-01 1.039851188659667969e+00 1.858850270509719849e-01 -6.402174234390258789e-01 -3.153623640537261963e-01 -4.639752507209777832e-01 1.147161424160003662e-01 -1.589305400848388672e-01 -4.072209596633911133e-01 -4.648561179637908936e-01 -4.865420460700988770e-01 -5.573195219039916992e-01 -1.354158073663711548e-01 3.603209555149078369e-01 6.835573166608810425e-02 -3.569449484348297119e-01 -4.729857146739959717e-01 6.090494990348815918e-01 -8.229521661996841431e-02 8.916524648666381836e-01 -6.723644137382507324e-01 -5.967253446578979492e-01 1.406828612089157104e-01 1.601240038871765137e-01 -5.983596444129943848e-01
1.712634041905403137e-02 -5.832091569900512695e-01 -6.158380508422851562e-01 -7.689418643712997437e-02 -1.504658162593841553e-01 -3.545873761177062988e-01 -2.726610302925109863e-01 -4.081790149211883545e-01 -2.600152194499969482e-01 -4.256878495216369629e-01 -2.634525001049041748e-01 -5.880020186305046082e-02 1.043577343225479126e-01 -1.871228516101837158e-01 1.027060523629188538e-01 -5.949167013168334961e-01 -3.225531801581382751e-02 -6.949775218963623047e-01 4.311282634735107422e-01 5.194612964987754822e-02 -5.518674850463867188e-01 -6.179648041725158691e-01 -6.446799039840698242e-01 -6.000960469245910645e-01 -2.950606346130371094e-01 -3.613360822200775146e-01 -2.143031507730484009e-01 -3.021671772003173828e-01 -1.318867206573486328e-01 -2.415485680103302002e-01 6.180813536047935486e-02 -5.970315337181091309e-01 -7.112876772880554199e-01 -6.349185109138488770e-01 -5.610154569149017334e-02 -2.627163659781217575e-03 2.319370582699775696e-02 -9.608075022697448730e-02 -5.382800102233886719e-01 -2.927391529083251953e-01 -4.733225703239440918e-01 -2.647146284580230713e-01 -2.281885892152786255e-01 -6.375665664672851562e-01 -3.617938160896301270e-01 -3.309500217437744141e-01 -7.800358533859252930e-01 -2.936804592609405518e-01 -4.270331189036369324e-02 -8.250427991151809692e-02 -5.810454487800598145e-01 -5.913786292076110840e-01 -9.268372505903244019e-02 -4.651297628879547119e-01 4.396919533610343933e-02 -3.837457597255706787e-01 -2.799361348152160645e-01 -2.051784545183181763e-01 2.166728079319000244e-01 -5.996254682540893555e-01
1.743313193321228027e+00 -6.955221295356750488e-01 -5.312015414237976074e-01 1.490773081779479980e+00 1.052232980728149414e+00 -5.552872419357299805e-01 2.319189071655273438e+00 -3.462846279144287109e-01 -1.913623660802841187e-01 -2.827762663364410400e-01 -2.107977867126464844e-01 1.644519567489624023e+00 3.815933167934417725e-01 1.169292211532592773e+00 5.936975479125976562e-01 -3.177372515201568604e-01 1.373358845710754395e+00 -4.037169814109802246e-01 5.009443759918212891e-01 7.051461338996887207e-01 -2.977517247200012207e-01 -5.316591262817382812e-01 -6.178447604179382324e-01 -3.618160188198089600e-01 3.645141839981079102e+00 -5.763674378395080566e-01 4.293422400951385498e-01 2.511970520019531250e+00 2.261223554611206055e+00 2.257410526275634766e+00 1.482636690139770508e+00 -6.125342845916748047e-01 -3.064557313919067383e-01 -5.863327383995056152e-01 1.360014796257019043e+00 6.029560565948486328e-01 2.173645019531250000e+00 2.188076674938201904e-01 -6.661250591278076172e-01 -7.004836201667785645e-01 -4.028776884078979492e-01 5.264946818351745605e-01 1.034884929656982422e+00 -3.258155286312103271e-01 -3.766622245311737061e-01 -6.622908711433410645e-01 -6.413675546646118164e-01 -3.840134292840957642e-02 3.688709437847137451e-01 3.268575668334960938e-01 -2.848576903343200684e-01 -3.177776932716369629e-01 7.621225714683532715e-01 1.599098682403564453e+00 1.968350052833557129e+00 -5.376229882240295410e-01 -6.129971146583557129e-01 9.913545846939086914e-02 4.958501458168029785e-01 -5.959802865982055664e-01
-2.031868457794189453e+00 -5.482478141784667969e-01 -3.129088878631591797e-01 -1.536748766899108887e+00 -1.302674651145935059e+00 -3.813512325286865234e-01 -2.051219940185546875e+00 -6.552987098693847656e-01 -1.045153662562370300e-01 -5.410667657852172852e-01 1.258498430252075195e-01 -1.831465363502502441e+00 -3.628627657890319824e-01 -1.204456448554992676e+00 -9.676445722579956055e-01 -4.615519940853118896e-01 -1.666811227798461914e+00 -4.481262564659118652e-01 1.954962015151977539e+00 -1.208154201507568359e+00 -5.614485740661621094e-01 -2.825918495655059814e-01 -3.901235759258270264e-01 -7.207694649696350098e-01 -1.973635435104370117e+00 -5.050879716873168945e-01 -6.880837082862854004e-01 -3.177987098693847656e+00 -1.914789915084838867e+00 -2.634222984313964844e+00 -2.462611436843872070e+00 -4.164689779281616211e-01 -6.273912191390991211e-01 -6.136934757232666016e-01 -1.994451761245727539e+00 -9.929947257041931152e-01 -2.952898025512695312e+00 -2.370347827672958374e-01 -3.680412769317626953e-01 -5.020703673362731934e-01 -3.534347116947174072e-01 -5.504646301269531250e-01 -6.616323590278625488e-01 -6.226098537445068359e-01 -5.439593791961669922e-01 -2.816098332405090332e-01 -8.183835744857788086e-01 -6.404598243534564972e-03 -4.492102265357971191e-01 -2.670540511608123779e-01 -5.617376565933227539e-01 -5.743504762649536133e-01 -1.212999105453491211e+00 -1.300201058387756348e+00 -2.584812641143798828e+00 -3.953355550765991211e-01 -5.730790495872497559e-01 -1.559990942478179932e-01 -7.253459095954895020e-01 -5.494398474693298340e-01
2.472897022962570190e-01 -5.317972302436828613e-01 -5.661948323249816895e-01 1.191006377339363098e-01 1.996628493070602417e-01 -5.538514852523803711e-01 -3.108896128833293915e-02 -4.137785136699676514e-01 1.091583818197250366e-01 -2.933962047100067139e-01 -3.980243578553199768e-02 -1.147649902850389481e-02 1.051626801490783691e-01 3.489078283309936523e-01 1.165800839662551880e-01 -2.774761617183685303e-01 2.199714481830596924e-01 -3.208529055118560791e-01 1.147433817386627197e-01 -6.661089509725570679e-02 -4.818214178085327148e-01 -4.817669987678527832e-01 -5.449814796447753906e-01 -7.201118469238281250e-01 -4.954680502414703369e-01 -6.568092107772827148e-01 3.106623329222202301e-02 4.946220219135284424e-01 1.370424330234527588e-01 5.417543649673461914e-01 3.629794120788574219e-01 -3.933927118778228760e-01 -3.134651482105255127e-01 -5.342107415199279785e-01 4.262211620807647705e-01 2.249669879674911499e-01 6.589945554733276367e-01 -2.663431465625762939e-01 -6.506704688072204590e-01 -6.278866529464721680e-01 -6.767905950546264648e-01 -1.474729031324386597e-01 -1.405600607395172119e-01 -3.302013576030731201e-01 -5.661835670471191406e-01 -6.239262223243713379e-01 -4.144304990768432617e-01 -2.073976993560791016e-01 3.765060603618621826e-01 -1.972973346710205078e-01 -6.689018607139587402e-01 -5.038852691650390625e-01 5.161141157150268555e-01 -3.466498851776123047e-01 4.375000596046447754e-01 -3.550081849098205566e-01 -2.127341777086257935e-01 1.376298964023590088e-01 2.867132723331451416e-01 -3.588232696056365967e-01
7.042989134788513184e-01 -3.455311655998229980e-01 -6.947172880172729492e-01 4.582681953907012939e-01 4.122514128684997559e-01 -6.082417964935302734e-01 5.303242802619934082e-01 -3.617953062057495117e-01 -1.063479185104370117e-01 -3.403559923171997070e-01 -3.338932618498802185e-02 2.467885166406631470e-01 7.311872206628322601e-03 5.679045319557189941e-01 1.804949045181274414e-01 -4.356279671192169189e-01 4.265328049659729004e-01 -5.163877010345458984e-01 9.040949493646621704e-02 1.523799896240234375e-01 -3.479548096656799316e-01 -3.146017789840698242e-01 -3.514245152473449707e-01 -4.848061203956604004e-01 -3.709790483117103577e-02 -5.614433288574218750e-01 2.867166697978973389e-01 1.121402502059936523e+00 1.662598103284835815e-01 9.899877905845642090e-01 8.591191172599792480e-01 -6.547994613647460938e-01 -4.622262418270111084e-01 -3.536762297153472900e-01 8.615383505821228027e-01 5.337682366371154785e-01 7.190285921096801758e-01 1.537853181362152100e-01 -6.999992132186889648e-01 -3.347554504871368408e-01 -4.704180955886840820e-01 2.597030997276306152e-01 -8.583022654056549072e-02 -6.295927166938781738e-01 -5.390255451202392578e-01 -3.207353949546813965e-01 -7.027404308319091797e-01 -7.117251306772232056e-02 2.798158824443817139e-01 1.362623721361160278e-01 -3.524169921875000000e-01 -6.464374661445617676e-01 3.534204363822937012e-01 -1.619018018245697021e-01 7.315166592597961426e-01 -3.418348431587219238e-01 -3.805597424507141113e-01 -5.874687060713768005e-02 2.773301899433135986e-01 -4.193099439144134521e-01
1.025529265403747559e+00 -5.262746214866638184e-01 -4.787097871303558350e-01 8.438237905502319336e-01 7.251502871513366699e-01 -5.835601091384887695e-01 1.034089088439941406e+00 -4.578878879547119141e-01 -7.069288194179534912e-02 -5.849617123603820801e-01 9.775154292583465576e-02 9.103949666023254395e-01 1.435189992189407349e-01 5.436376929283142090e-01 5.325414538383483887e-01 -4.911150634288787842e-01 1.031798005104064941e+00 -6.905112266540527344e-01 -2.290572375059127808e-01 5.451479554176330566e-01 -3.850596547126770020e-01 -3.987081050872802734e-01 -6.187006235122680664e-01 -4.415006637573242188e-01 1.146420001983642578e+00 -3.935424983501434326e-01 3.053415119647979736e-01 1.712913990020751953e+00 1.191608667373657227e+00 1.468402624130249023e+00 1.220280408859252930e+00 -7.091788053512573242e-01 -3.881107568740844727e-01 -3.693333566188812256e-01 1.136099219322204590e+00 5.888827443122863770e-01 1.580583453178405762e+00 5.296628549695014954e-02 -4.647580981254577637e-01 -5.281288623809814453e-01 -3.578137755393981934e-01 7.402083277702331543e-02 1.342033892869949341e-01 -4.489773511886596680e-01 -6.113398671150207520e-01 -5.089536309242248535e-01 -4.979634582996368408e-01 -1.966779530048370361e-01 4.907028675079345703e-01 -7.955203950405120850e-02 -6.376352310180664062e-01 -6.050994396209716797e-01 5.602162480354309082e-01 3.743358254432678223e-01 1.145585298538208008e+00 -6.968095898628234863e-01 -5.860492587089538574e-01 8.983363211154937744e-02 5.705537199974060059e-01 -6.526820063591003418e-01
-1.597628593444824219e+00 -5.346924066543579102e-01 -4.506227672100067139e-01 -1.032814741134643555e+00 -6.460885405540466309e-01 -6.507437825202941895e-01 -1.283651590347290039e+00 -4.957734644412994385e-01 -5.309089273214340210e-02 -4.726415276527404785e-01 5.564830824732780457e-02 -1.205815911293029785e+00 1.909076981246471405e-02 -9.325748085975646973e-01 -6.835829615592956543e-01 -4.888533949851989746e-01 -1.271186709403991699e+00 -7.042561173439025879e-01 1.212760329246520996e+00 -8.704679012298583984e-01 -3.895888328552246094e-01 -7.219833731651306152e-01 -5.593661665916442871e-01 -6.728828549385070801e-01 -1.466221809387207031e+00 -4.769020974636077881e-01 -3.772898614406585693e-01 -2.297596216201782227e+00 -1.364542484283447266e+00 -2.001133441925048828e+00 -1.347965121269226074e+00 -5.690943002700805664e-01 -4.233646988868713379e-01 -6.647045016288757324e-01 -1.388012528419494629e+00 -5.159312486648559570e-01 -2.096773862838745117e+00 -3.797028064727783203e-01 -5.872329473495483398e-01 -6.677979826927185059e-01 -4.629350006580352783e-01 -6.151647120714187622e-02 -5.068687200546264648e-01 -5.700341463088989258e-01 -3.271706104278564453e-01 -7.217159271240234375e-01 -7.575187683105468750e-01 -7.982128858566284180e-02 -4.506891369819641113e-01 -7.291625440120697021e-02 -4.027191400527954102e-01 -4.238120317459106445e-01 -9.198120236396789551e-01 -8.706018328666687012e-01 -1.772682428359985352e+00 -4.642546176910400391e-01 -2.772582769393920898e-01 -1.374459117650985718e-01 -6.100894808769226074e-01 -3.442299365997314453e-01
1.005968213081359863e+00 -4.243839681148529053e-01 -5.621047019958496094e-01 1.915397495031356812e-01 7.965134382247924805e-01 -6.953557729721069336e-01 3.151231706142425537e-01 -4.333398044109344482e-01 4.831998422741889954e-02 -5.630369782447814941e-01 1.383020877838134766e-01 1.115422025322914124e-01 -1.002579275518655777e-02 5.085987448692321777e-01 9.796416759490966797e-02 -7.099971175193786621e-01 -4.684342071413993835e-02 -5.503885746002197266e-01 2.159152179956436157e-01 2.061587572097778320e-01 -5.829115509986877441e-01 -3.612240254878997803e-01 -3.777192533016204834e-01 -6.396908760070800781e-01 -5.370313525199890137e-01 -5.038778185844421387e-01 -1.202532276511192322e-01 1.375970482826232910e+00 4.039910733699798584e-01 1.254763722419738770e+00 9.849324226379394531e-01 -6.069003343582153320e-01 -3.632750213146209717e-01 -3.442308008670806885e-01 7.277575135231018066e-01 4.846453070640563965e-01 1.159104228019714355e+00 4.577691201120615005e-03 -7.050250172615051270e-01 -6.399591565132141113e-01 -3.941820859909057617e-01 1.677754521369934082e-01 6.710990518331527710e-02 -3.282156884670257568e-01 -2.897610068321228027e-01 -2.969942092895507812e-01 -7.437196969985961914e-01 -2.587765157222747803e-01 2.316265404224395752e-01 7.856305688619613647e-03 -7.017860412597656250e-01 -5.370523333549499512e-01 6.983093023300170898e-01 -3.295825123786926270e-01 1.115445375442504883e+00 -5.600790381431579590e-01 -5.787919163703918457e-01 2.314909249544143677e-01 3.881413340568542480e-01 -6.288027763366699219e-01
-5.300955176353454590e-01 -4.596668779850006104e-01 -3.547317385673522949e-01 -1.830037981271743774e-01 -2.471798956394195557e-01 -3.203454315662384033e-01 -3.942454457283020020e-01 -4.657187163829803467e-01 -2.723529934883117676e-02 -4.170322418212890625e-01 -6.933133117854595184e-03 -4.018189311027526855e-01 -2.558712363243103027e-01 -4.691044390201568604e-01 -4.205753803253173828e-01 -5.298940539360046387e-01 -3.891461491584777832e-01 -6.515584588050842285e-01 7.323129177093505859e-01 -1.295259743928909302e-01 -7.083157896995544434e-01 -4.147016108036041260e-01 -4.447141885757446289e-01 -5.640398859977722168e-01 -3.737070262432098389e-01 -4.658148586750030518e-01 -2.866302132606506348e-01 -7.021497488021850586e-01 -5.966618657112121582e-01 -9.251478314399719238e-01 -4.931047856807708740e-01 -5.949718356132507324e-01 -5.709316730499267578e-01 -5.757626891136169434e-01 -3.020337522029876709e-01 -3.546315133571624756e-01 -7.747599482536315918e-01 -3.591734170913696289e-01 -4.442364275455474854e-01 -3.490054011344909668e-01 -6.896508336067199707e-01 -2.210787832736968994e-01 -3.306486606597900391e-01 -7.089326977729797363e-01 -4.168250560760498047e-01 -3.654592037200927734e-01 -5.090078115463256836e-01 -9.039255976676940918e-02 -1.405304819345474243e-01 -1.464173346757888794e-01 -3.717783093452453613e-01 -5.719573497772216797e-01 -2.944470942020416260e-01 -3.417842090129852295e-01 -7.823187708854675293e-01 -3.758351802825927734e-01 -4.343774020671844482e-01 8.551331609487533569e-02 -1.135595049709081650e-02 -4.943457543849945068e-01
1.103402376174926758e-01 -4.257467091083526611e-01 -7.150861024856567383e-01 -2.591639757156372070e-01 -6.541807204484939575e-02 -5.375175476074218750e-01 -2.885972857475280762e-01 -5.347725749015808105e-01 1.468308568000793457e-01 -4.671787917613983154e-01 -1.469937898218631744e-02 3.439363837242126465e-02 -1.735749691724777222e-01 -2.830305695533752441e-01 -7.086124271154403687e-02 -6.946254372596740723e-01 -1.722529083490371704e-01 -6.672690510749816895e-01 3.496322929859161377e-01 2.659806609153747559e-02 -3.844074308872222900e-01 -5.113331675529479980e-01 -5.062215328216552734e-01 -3.007903993129730225e-01 -2.028556913137435913e-01 -5.580543279647827148e-01 -9.663031250238418579e-02 -3.638502657413482666e-01 -4.952728748321533203e-01 -3.447659909725189209e-01 1.016087643802165985e-02 -3.417843878269195557e-01 -5.412312746047973633e-01 -5.589874982833862305e-01 -2.962112724781036377e-01 9.430263191461563110e-02 -3.919232487678527832e-01 -8.225855976343154907e-02 -5.799272060394287109e-01 -3.826209902763366699e-01 -2.946562767028808594e-01 3.014792874455451965e-02 -8.642648160457611084e-02 -6.079978346824645996e-01 -2.781504392623901367e-01 -6.368832588195800781e-01 -8.070429563522338867e-01 -1.031577587127685547e-01 1.078490018844604492e-01 -2.585625648498535156e-01 -3.738003969192504883e-01 -7.229234576225280762e-01 -6.584744155406951904e-02 -4.911097884178161621e-01 4.491643980145454407e-02 -3.287068605422973633e-01 -5.641858577728271484e-01 -2.456153184175491333e-01 2.047167271375656128e-01 -6.866055727005004883e-01
1.395733952522277832e+00 -6.985643506050109863e-01 -6.368570923805236816e-01 1.246464014053344727e+00 9.569215774536132812e-01 -4.242463111877441406e-01 1.377155303955078125e+00 -5.212006568908691406e-01 -9.890232980251312256e-02 -3.941305577754974365e-01 4.492195695638656616e-02 9.951546192169189453e-01 3.056943416595458984e-01 9.338950514793395996e-01 3.800082206726074219e-01 -3.106446564197540283e-01 1.215620279312133789e+00 -6.693057417869567871e-01 -1.772455424070358276e-01 3.879439830780029297e-01 -5.923990011215209961e-01 -5.567603111267089844e-01 -6.424530744552612305e-01 -6.736809611320495605e-01 1.829712390899658203e+00 -3.045570552349090576e-01 2.076568007469177246e-01 1.577194094657897949e+00 1.470475673675537109e+00 1.483806610107421875e+00 1.367502450942993164e+00 -4.677454531192779541e-01 -3.775469064712524414e-01 -5.713099837303161621e-01 9.153928160667419434e-01 8.155041337013244629e-01 1.594571232795715332e+00 2.318493127822875977e-01 -6.215274930000305176e-01 -6.645909547805786133e-01 -5.015516877174377441e-01 1.017265096306800842e-01 3.761399686336517334e-01 -4.239439368247985840e-01 -5.897781848907470703e-01 -3.603088557720184326e-01 -6.219969987869262695e-01 -7.271261513233184814e-02 1.754831522703170776e-01 3.051258437335491180e-02 -5.897023081779479980e-01 -4.557590186595916748e-01 6.284137368202209473e-01 6.500806808471679688e-01 1.259152293205261230e+00 -5.719827413558959961e-01 -6.279469728469848633e-01 -1.093538999557495117e-01 5.820035338401794434e-01 -5.896389484405517578e-01
3.611561655998229980e-01 -4.485173523426055908e-01 -3.921737372875213623e-01 6.227993965148925781e-02 5.478637814521789551e-01 -4.206151962280273438e-01 -2.114718034863471985e-02 -5.618616938591003418e-01 2.231488525867462158e-01 -2.960837483406066895e-01 -3.525204584002494812e-02 1.570199728012084961e-01 -2.298810519278049469e-02 3.801761567592620850e-01 3.144888207316398621e-02 -3.062932789325714111e-01 1.107330694794654846e-01 -5.018227696418762207e-01 3.403247892856597900e-01 -1.346759349107742310e-01 -3.333877921104431152e-01 -5.309335589408874512e-01 -3.225660622119903564e-01 -3.009891808032989502e-01 -6.202817559242248535e-01 -5.991978645324707031e-01 2.254491597414016724e-01 5.920395255088806152e-01 1.890658289194107056e-01 6.328570246696472168e-01 1.405671685934066772e-01 -4.434189200401306152e-01 -5.969640016555786133e-01 -3.145378828048706055e-01 2.820948064327239990e-01 2.279137670993804932e-01 4.761092662811279297e-01 -2.356664389371871948e-01 -7.188744544982910156e-01 -4.463881254196166992e-01 -3.791296780109405518e-01 1.803983449935913086e-01 1.617495119571685791e-01 -4.905892312526702881e-01 -3.798495829105377197e-01 -5.424189567565917969e-01 -7.788177728652954102e-01 -2.310896664857864380e-01 2.349536120891571045e-01 -3.186210244894027710e-02 -5.783571004867553711e-01 -6.834660172462463379e-01 4.489494860172271729e-01 -2.819505035877227783e-01 3.453005552291870117e-01 -4.604746699333190918e-01 -2.951957583427429199e-01 -9.575583040714263916e-02 2.357936501502990723e-01 -6.373140215873718262e-01
-6.981826424598693848e-01 -5.513544678688049316e-01 -7.018443942070007324e-01 -7.077710032463073730e-01 -1.696894913911819458e-01 -2.826243937015533447e-01 -7.338634133338928223e-01 -5.660742521286010742e-01 -1.497767120599746704e-02 -4.789989888668060303e-01 -2.480004578828811646e-01 -4.709624052047729492e-01 -1.453267633914947510e-01 -4.679011106491088867e-01 -3.613672256469726562e-01 -3.868018388748168945e-01 -7.030889987945556641e-01 -6.075460910797119141e-01 8.973079323768615723e-01 -5.328786373138427734e-01 -5.228524208068847656e-01 -2.962342202663421631e-01 -3.219305872917175293e-01 -4.610310196876525879e-01 -5.946461558341979980e-01 -6.364036798477172852e-01 -2.434605658054351807e-01 -1.168516039848327637e+00 -4.952581524848937988e-01 -8.234952688217163086e-01 -5.878082513809204102e-01 -3.076759576797485352e-01 -5.917605161666870117e-01 -4.398842453956604004e-01 -7.550539374351501465e-01 -6.811258196830749512e-02 -8.201978206634521484e-01 7.133123278617858887e-02 -3.899314403533935547e-01 -4.360173344612121582e-01 -5.175508260726928711e-01 6.431025266647338867e-02 -1.470088660717010498e-01 -3.216094672679901123e-01 -6.417891383171081543e-01 -4.247364699840545654e-01 -8.215943574905395508e-01 -5.798853561282157898e-02 -2.682003378868103027e-01 1.721207611262798309e-02 -6.911453604698181152e-01 -5.413713455200195312e-01 -3.446029126644134521e-01 -6.282351016998291016e-01 -9.267309904098510742e-01 -3.248947262763977051e-01 -2.942427098751068115e-01 -1.715463548898696899e-01 -2.542504668235778809e-01 -5.564332008361816406e-01
-2.484829574823379517e-01 -4.702335000038146973e-01 -3.919803202152252197e-01 1.329390145838260651e-02 1.709455847740173340e-01 -4.397366940975189209e-01 -4.864873588085174561e-01 -7.173553705215454102e-01 -1.615235209465026855e-01 -3.603364527225494385e-01 -2.031210511922836304e-01 -1.518220603466033936e-01 -1.522220671176910400e-01 4.893244802951812744e-02 -1.169527992606163025e-01 -5.342038869857788086e-01 -2.033848762512207031e-01 -6.193596720695495605e-01 3.737123310565948486e-01 -3.055567741394042969e-01 -4.835965633392333984e-01 -6.882286071777343750e-01 -6.603395342826843262e-01 -5.014245510101318359e-01 -5.197249650955200195e-01 -3.253138661384582520e-01 -1.786440759897232056e-01 -2.008361928164958954e-02 -2.021120488643646240e-01 -8.025245368480682373e-02 -1.659270375967025757e-02 -3.807523250579833984e-01 -4.744673669338226318e-01 -5.670725107192993164e-01 -2.232731878757476807e-01 1.301787942647933960e-01 -2.726475596427917480e-01 -2.624153196811676025e-01 -6.286092996597290039e-01 -4.042955636978149414e-01 -2.835125029087066650e-01 1.150037199258804321e-01 -1.356193274259567261e-01 -3.820306956768035889e-01 -5.205960273742675781e-01 -6.915050148963928223e-01 -4.077526628971099854e-01 -2.403830736875534058e-01 -5.893410742282867432e-02 -6.017243862152099609e-02 -6.862104535102844238e-01 -4.082684218883514404e-01 -9.066428989171981812e-02 -5.135003924369812012e-01 2.766392938792705536e-02 -6.755890250205993652e-01 -4.968900680541992188e-01 -1.282069832086563110e-01 1.234464645385742188e-01 -3.127683699131011963e-01
7.816431522369384766e-01 -6.537486910820007324e-01 -7.104907631874084473e-01 2.375938147306442261e-01 3.357501029968261719e-01 -6.861279010772705078e-01 3.491320610046386719e-01 -3.147347271442413330e-01 1.574894934892654419e-01 -6.413598656654357910e-01 -7.099880278110504150e-02 2.418663203716278076e-01 -1.334688812494277954e-01 5.601196289062500000e-01 9.855137020349502563e-02 -3.487347960472106934e-01 2.465087622404098511e-01 -2.941784858703613281e-01 -2.026256918907165527e-01 3.181327134370803833e-02 -6.644827723503112793e-01 -5.862747430801391602e-01 -5.251089930534362793e-01 -3.848021626472473145e-01 -3.528663888573646545e-02 -4.046816527843475342e-01 -1.258210986852645874e-01 9.507404565811157227e-01 4.901440441608428955e-01 8.521559238433837891e-01 6.706610321998596191e-01 -5.563773512840270996e-01 -2.778502404689788818e-01 -5.997627377510070801e-01 8.154712319374084473e-01 2.236466705799102783e-01 1.021632432937622070e+00 -6.170160695910453796e-02 -6.103993654251098633e-01 -6.727826595306396484e-01 -4.771983921527862549e-01 1.098376736044883728e-01 2.200466245412826538e-01 -6.732119321823120117e-01 -6.952366828918457031e-01 -4.536584317684173584e-01 -3.940492272377014160e-01 2.370024472475051880e-02 4.081988632678985596e-01 -2.013424336910247803e-01 -4.447069168090820312e-01 -5.346316099166870117e-01 6.325489282608032227e-01 -1.109315901994705200e-01 5.713434815406799316e-01 -7.040261030197143555e-01 -5.230055451393127441e-01 -3.564023971557617188e-02 4.306011199951171875e-01 -7.016838192939758301e-01
-9.945188760757446289e-01 -6.589407920837402344e-01 -6.551416516304016113e-01 -4.894118905067443848e-01 -4.278047978878021240e-01 -3.868918716907501221e-01 -6.924466490745544434e-01 -4.229098856449127197e-01 -5.553293041884899139e-03 -5.292934775352478027e-01 -1.171674057841300964e-01 -8.455924987792968750e-01 -1.341391503810882568e-01 -6.604713201522827148e-01 -4.307833313941955566e-01 -4.049319326877593994e-01 -5.594477653503417969e-01 -4.064425528049468994e-01 6.991423964500427246e-01 -4.670219123363494873e-01 -4.754441082477569580e-01 -5.692540407180786133e-01 -4.614922404289245605e-01 -3.999747335910797119e-01 -9.608298540115356445e-01 -6.351872682571411133e-01 -2.183823138475418091e-01 -1.244301319122314453e+00 -7.270577549934387207e-01 -1.345549225807189941e+00 -1.050796985626220703e+00 -6.093081831932067871e-01 -6.904457807540893555e-01 -3.024438023567199707e-01 -9.311150908470153809e-01 -4.921363592147827148e-01 -1.150143980979919434e+00 3.091143071651458740e-02 -5.848439335823059082e-01 -4.355032145977020264e-01 -4.323682487010955811e-01 -1.628841273486614227e-02 -2.892789840698242188e-01 -5.354328155517578125e-01 -6.209059357643127441e-01 -2.880084216594696045e-01 -6.201013326644897461e-01 -2.075884193181991577e-01 -1.261779814958572388e-01 9.418427199125289917e-02 -6.416249275207519531e-01 -4.346740543842315674e-01 -4.257575571537017822e-01 -6.462993025779724121e-01 -7.345895171165466309e-01 -4.006498754024505615e-01 -4.814687967300415039e-01 4.697005078196525574e-02 -5.681193247437477112e-02 -5.836066603660583496e-01
-4.378564655780792236e-02 -2.779276669025421143e-01 -2.763672173023223877e-01 -8.740502595901489258e-02 -2.342295497655868530e-01 -2.452246546745300293e-01 -3.880033791065216064e-01 -6.862341165542602539e-01 -1.025815904140472412e-01 -3.250304758548736572e-01 -1.211163774132728577e-01 -3.695703744888305664e-01 -2.818401455879211426e-01 -2.139652371406555176e-01 -1.108612716197967529e-01 -5.773023962974548340e-01 -1.909311264753341675e-01 -4.963716268539428711e-01 5.174484848976135254e-01 -8.610930293798446655e-02 -5.711711645126342773e-01 -5.987806320190429688e-01 -2.942210137844085693e-01 -4.034709334373474121e-01 -3.067477345466613770e-01 -3.083219230175018311e-01 -1.477260887622833252e-01 -3.505325913429260254e-01 -2.634019255638122559e-01 -1.761209517717361450e-01 -3.058983385562896729e-01 -3.466046750545501709e-01 -4.300855100154876709e-01 -6.181920766830444336e-01 -3.615303933620452881e-01 -5.041678994894027710e-02 -4.281405508518218994e-01 4.092487692832946777e-02 -5.411103963851928711e-01 -5.573527216911315918e-01 -3.047308325767517090e-01 -2.045193761587142944e-01 -2.938461303710937500e-01 -5.030228495597839355e-01 -4.593506157398223877e-01 -6.152216196060180664e-01 -5.116723775863647461e-01 -2.635506689548492432e-01 -1.473110169172286987e-01 1.665309071540832520e-01 -3.803798258304595947e-01 -5.753529071807861328e-01 1.611537858843803406e-02 -2.226346284151077271e-01 -1.824691146612167358e-01 -6.195855140686035156e-01 -5.370855927467346191e-01 -2.071674168109893799e-01 -6.251052021980285645e-02 -5.292717814445495605e-01
-8.848454058170318604e-02 -5.264526605606079102e-01 -6.070529222488403320e-01 1.152868568897247314e-01 -5.345098674297332764e-02 -3.417184054851531982e-01 -5.710407719016075134e-02 -3.092887401580810547e-01 7.647351920604705811e-02 -3.520369529724121094e-01 9.735707938671112061e-02 -7.641747593879699707e-02 3.809468075633049011e-02 1.092456802725791931e-01 4.550465196371078491e-02 -7.020130753517150879e-01 -9.438695758581161499e-02 -3.454770445823669434e-01 8.926255255937576294e-02 1.806462928652763367e-02 -4.167838990688323975e-01 -4.000563621520996094e-01 -2.947779595851898193e-01 -3.513780236244201660e-01 -9.876067936420440674e-02 -6.838019490242004395e-01 -1.723165363073348999e-01 4.010639712214469910e-02 -2.499484419822692871e-01 -1.386871635913848877e-01 1.040176153182983398e-01 -5.219342112541198730e-01 -3.306736052036285400e-01 -5.964173674583435059e-01 8.071789145469665527e-02 7.973292469978332520e-02 1.010066494345664978e-01 -4.252167791128158569e-02 -5.694118738174438477e-01 -2.861294746398925781e-01 -4.370468556880950928e-01 1.419812589883804321e-01 -1.512671709060668945e-01 -5.761092305183410645e-01 -5.621401071548461914e-01 -3.961049318313598633e-01 -4.884661138057708740e-01 1.119376942515373230e-01 2.392837703227996826e-01 1.015852987766265869e-01 -4.588381350040435791e-01 -3.277763128280639648e-01 -1.163098588585853577e-01 -4.834921061992645264e-01 2.735253274440765381e-01 -4.968145191669464111e-01 -3.529095649719238281e-01 -1.328047215938568115e-01 1.529510468244552612e-01 -3.744193315505981445e-01
-2.660378694534301758e+00 -6.558923721313476562e-01 -4.904014766216278076e-01 -2.112467050552368164e+00 -1.340005993843078613e+00 -6.520662903785705566e-01 -2.405971765518188477e+00 -6.697189211845397949e-01 -1.204740069806575775e-02 -5.075009465217590332e-01 -1.916899383068084717e-01 -1.896829366683959961e+00 -2.193015366792678833e-01 -1.383488893508911133e+00 -1.017427563667297363e+00 -4.734424948692321777e-01 -1.872450470924377441e+00 -4.213351011276245117e-01 2.180768728256225586e+00 -1.446070075035095215e+00 -5.253313183784484863e-01 -5.069831013679504395e-01 -3.035877645015716553e-01 -5.447588562965393066e-01 -2.292877435684204102e+00 -6.652599573135375977e-01 -4.467362165451049805e-01 -3.720152378082275391e+00 -2.375640630722045898e+00 -3.312155246734619141e+00 -2.862326860427856445e+00 -6.053741574287414551e-01 -3.742748796939849854e-01 -4.491178095340728760e-01 -2.479141712188720703e+00 -1.088185191154479980e+00 -3.452895402908325195e+00 -4.521444439888000488e-01 -5.175319314002990723e-01 -6.033655405044555664e-01 -3.247549235820770264e-01 -5.770320892333984375e-01 -9.013004302978515625e-01 -5.960042476654052734e-01 -3.590734302997589111e-01 -7.199884653091430664e-01 -7.665910720825195312e-01 9.197447448968887329e-02 -4.466732144355773926e-01 9.425853379070758820e-03 -4.907522499561309814e-01 -6.575313210487365723e-01 -1.189110398292541504e+00 -1.618968248367309570e+00 -2.999017953872680664e+00 -2.787515223026275635e-01 -5.894799828529357910e-01 -1.723994165658950806e-01 -9.536589384078979492e-01 -6.962434053421020508e-01
3.588936477899551392e-02 -5.707945227622985840e-01 -3.376754820346832275e-01 1.003361027687788010e-02 -1.133228093385696411e-01 -2.841613888740539551e-01 -5.110153555870056152e-02 -6.648628115653991699e-01 -2.469062060117721558e-01 -3.421519398689270020e-01 1.086354404687881470e-01 7.262218277901411057e-04 -2.149871587753295898e-01 7.954717427492141724e-02 -9.421727061271667480e-02 -5.123404264450073242e-01 1.527633965015411377e-01 -3.848973810672760010e-01 3.640020489692687988e-01 1.154659017920494080e-01 -6.718063950538635254e-01 -5.274502038955688477e-01 -4.027572870254516602e-01 -4.252138733863830566e-01 -2.203577570617198944e-02 -7.234936952590942383e-01 -1.732128113508224487e-01 -1.240071132779121399e-01 -1.161305233836174011e-01 1.240696534514427185e-01 3.775723278522491455e-02 -3.999259471893310547e-01 -5.017703175544738770e-01 -5.349622964859008789e-01 -1.361884027719497681e-01 1.363651901483535767e-01 -9.381822310388088226e-03 -1.570929028093814850e-02 -4.130688905715942383e-01 -4.887132048606872559e-01 -4.537937641143798828e-01 4.868748411536216736e-02 -4.781593754887580872e-02 -6.158912181854248047e-01 -5.035475492477416992e-01 -3.445294201374053955e-01 -7.947425246238708496e-01 -1.974911987781524658e-01 3.039107322692871094e-01 1.105703413486480713e-01 -3.811840116977691650e-01 -5.253438353538513184e-01 1.623008251190185547e-01 -1.786403656005859375e-01 1.247420087456703186e-01 -4.859234988689422607e-01 -4.211966097354888916e-01 -1.708018481731414795e-01 2.047688961029052734e-01 -3.105904757976531982e-01
-6.430159211158752441e-01 -6.715362071990966797e-01 -6.995355486869812012e-01 -4.873356521129608154e-01 -2.165002077817916870e-01 -2.790118753910064697e-01 -5.223035812377929688e-01 -4.504759907722473145e-01 -1.128264665603637695e-01 -3.782507479190826416e-01 -1.472774595022201538e-01 -3.888180553913116455e-01 -1.101808249950408936e-01 -1.211105957627296448e-01 -1.275396198034286499e-01 -5.223008990287780762e-01 -4.857205450534820557e-01 -3.071534335613250732e-01 4.229178428649902344e-01 -6.464833766222000122e-02 -6.174579858779907227e-01 -3.922659754753112793e-01 -6.685272455215454102e-01 -5.058241486549377441e-01 -6.020345687866210938e-01 -4.441519081592559814e-01 -2.856034040451049805e-01 -9.005864858627319336e-01 -6.094866991043090820e-01 -6.649532318115234375e-01 -4.246949255466461182e-01 -3.137555718421936035e-01 -5.097088813781738281e-01 -4.023500084877014160e-01 -3.797902464866638184e-01 -1.767412424087524414e-01 -6.371724009513854980e-01 -3.884655656293034554e-03 -6.057206392288208008e-01 -4.182336032390594482e-01 -2.971575558185577393e-01 -3.566116839647293091e-02 -4.296387434005737305e-01 -2.805640101432800293e-01 -4.663673639297485352e-01 -5.107484459877014160e-01 -4.323418140411376953e-01 -2.123091220855712891e-01 2.971949834318365902e-05 2.384862862527370453e-02 -5.147029161453247070e-01 -6.799752712249755859e-01 -2.842984795570373535e-01 -2.495604306459426880e-01 -4.401653409004211426e-01 -5.503172278404235840e-01 -2.435780018568038940e-01 -1.977422237396240234e-01 -2.814668118953704834e-01 -3.709218800067901611e-01
-5.121898651123046875e-01 -3.242307007312774658e-01 -4.225473999977111816e-01 -1.729340404272079468e-01 -2.196730226278305054e-01 -2.579737901687622070e-01 -5.710663199424743652e-01 -5.060565471649169922e-01 -2.440730035305023193e-01 -4.291888177394866943e-01 -1.555070579051971436e-01 -4.294715225696563721e-01 -2.317511439323425293e-01 -3.402562439441680908e-02 -3.657752871513366699e-01 -6.002027392387390137e-01 -4.261678755283355713e-01 -6.586317420005798340e-01 6.136773228645324707e-01 -2.464603185653686523e-01 -4.893288314342498779e-01 -3.447572886943817139e-01 -6.516433954238891602e-01 -4.993134438991546631e-01 -3.435489833354949951e-01 -6.269352436065673828e-01 -4.168295860290527344e-02 -4.953593611717224121e-01 -3.753456175327301025e-01 -6.851853132247924805e-01 -4.360869824886322021e-01 -2.752063274383544922e-01 -3.004278540611267090e-01 -5.358082652091979980e-01 -5.004714727401733398e-01 -6.120865046977996826e-02 -3.433528840541839600e-01 9.668853133916854858e-02 -4.645566642284393311e-01 -3.912046551704406738e-01 -5.499637722969055176e-01 -6.591650098562240601e-02 -4.475458264350891113e-01 -6.903927326202392578e-01 -2.992262840270996094e-01 -3.037853837013244629e-01 -6.927796006202697754e-01 9.243006259202957153e-02 -1.451540738344192505e-01 -6.570734083652496338e-02 -6.565650105476379395e-01 -4.970315098762512207e-01 -1.016173139214515686e-01 -4.603714942932128906e-01 -3.536896705627441406e-01 -2.783684432506561279e-01 -4.516050219535827637e-01 -2.240237444639205933e-01 -9.485617280006408691e-02 -5.393632054328918457e-01
1.146867126226425171e-01 -3.863773345947265625e-01 -2.996868491172790527e-01 -1.627742499113082886e-01 2.163803279399871826e-01 -3.225033283233642578e-01 -1.618187129497528076e-01 -3.597756326198577881e-01 -1.704479604959487915e-01 -2.820933759212493896e-01 -2.315605729818344116e-01 4.833563789725303650e-02 -1.729284673929214478e-01 1.549748033285140991e-01 -9.540560655295848846e-03 -2.959504425525665283e-01 1.630018949508666992e-01 -3.842681348323822021e-01 2.249750196933746338e-01 1.067408993840217590e-01 -3.806097805500030518e-01 -6.198067665100097656e-01 -3.072410523891448975e-01 -5.404010415077209473e-01 -2.501766383647918701e-01 -5.810059309005737305e-01 1.080551892518997192e-01 -8.961842209100723267e-02 -3.343070149421691895e-01 2.219618707895278931e-01 -9.779626131057739258e-02 -5.950722098350524902e-01 -4.406935572624206543e-01 -5.268324017524719238e-01 1.497032046318054199e-01 -1.375457197427749634e-01 -8.149927109479904175e-02 1.219794079661369324e-01 -3.584792613983154297e-01 -4.664736688137054443e-01 -5.611456036567687988e-01 -2.586252242326736450e-02 -3.021959066390991211e-01 -6.076284646987915039e-01 -5.905234217643737793e-01 -5.186532735824584961e-01 -8.178552389144897461e-01 5.078786239027976990e-02 1.604833751916885376e-01 1.567487269639968872e-01 -7.108801603317260742e-01 -5.816417932510375977e-01 3.065552413463592529e-01 -1.626780331134796143e-01 1.512714773416519165e-01 -4.302557706832885742e-01 -4.139759838581085205e-01 -2.015847712755203247e-01 2.074091881513595581e-01 -6.357768774032592773e-01
-3.076168894767761230e-01 -6.729511022567749023e-01 -3.569670617580413818e-01 -4.110999032855033875e-02 -1.225019097328186035e-01 -6.268802285194396973e-01 -1.691679060459136963e-01 -4.631051421165466309e-01 2.546082809567451477e-02 -7.144905328750610352e-01 -1.609514355659484863e-01 -1.948879510164260864e-01 -1.257150024175643921e-01 -2.471590787172317505e-01 -3.034436404705047607e-01 -3.473203778266906738e-01 -2.107115536928176880e-01 -3.287610113620758057e-01 2.337372153997421265e-01 -2.848769724369049072e-01 -3.515416681766510010e-01 -3.716174960136413574e-01 -3.568246960639953613e-01 -3.768599033355712891e-01 -1.858773976564407349e-01 -5.746682882308959961e-01 -1.368411034345626831e-01 -4.549827575683593750e-01 -1.510888040065765381e-01 -4.394986927509307861e-01 -3.987624049186706543e-01 -6.604288816452026367e-01 -5.954043269157409668e-01 -4.892491996288299561e-01 -4.219428002834320068e-01 -1.175279449671506882e-02 -4.642590582370758057e-01 -7.581679965369403362e-04 -5.593609809875488281e-01 -3.443402051925659180e-01 -4.016188383102416992e-01 -1.070634052157402039e-01 -2.696389555931091309e-01 -6.352812647819519043e-01 -6.370768547058105469e-01 -4.872080683708190918e-01 -8.314964175224304199e-01 -2.525204233825206757e-02 -1.999127119779586792e-01 -1.132612675428390503e-01 -4.279878735542297363e-01 -4.001595377922058105e-01 7.259759306907653809e-02 -3.290060460567474365e-01 -1.426334977149963379e-01 -6.968040466308593750e-01 -3.655902743339538574e-01 -2.144981920719146729e-01 5.008215829730033875e-02 -5.300174951553344727e-01
4.422969818115234375e-01 -3.030222952365875244e-01 -7.144450545310974121e-01 6.457712650299072266e-01 4.626376032829284668e-01 -6.199605464935302734e-01 3.176208734512329102e-01 -5.327086448669433594e-01 4.164122790098190308e-02 -4.947501718997955322e-01 1.049580872058868408e-01 5.552756786346435547e-01 -5.030473321676254272e-02 2.974970936775207520e-01 1.145296990871429443e-01 -4.138419032096862793e-01 4.889233708381652832e-01 -3.914445340633392334e-01 -3.910399228334426880e-02 4.715174064040184021e-02 -3.638801276683807373e-01 -6.919037103652954102e-01 -6.399153470993041992e-01 -5.313256978988647461e-01 2.171882092952728271e-01 -7.028439640998840332e-01 1.942768245935440063e-01 9.035317301750183105e-01 4.826428294181823730e-01 8.080852627754211426e-01 5.821795463562011719e-01 -5.060701370239257812e-01 -6.040004491806030273e-01 -5.989456772804260254e-01 4.062348008155822754e-01 2.818045318126678467e-01 9.960503578186035156e-01 -1.487455368041992188e-01 -5.292026996612548828e-01 -5.561324954032897949e-01 -4.738528728485107422e-01 1.438405662775039673e-01 1.754543632268905640e-01 -3.976614177227020264e-01 -4.572919905185699463e-01 -5.518393516540527344e-01 -6.577470302581787109e-01 -2.580499053001403809e-01 3.638007640838623047e-01 -2.034700661897659302e-01 -4.892202317714691162e-01 -6.753501296043395996e-01 3.364768922328948975e-01 1.227079480886459351e-01 6.199349761009216309e-01 -3.593999743461608887e-01 -6.183837056159973145e-01 1.414530426263809204e-01 2.530978620052337646e-01 -5.751700401306152344e-01
-5.458849668502807617e-01 -5.036564469337463379e-01 -3.080852031707763672e-01 -3.722221553325653076e-01 -4.489191472530364990e-01 -3.862557113170623779e-01 -4.018557369709014893e-01 -5.096220970153808594e-01 -1.061015278100967407e-01 -5.845558643341064453e-01 -2.393964529037475586e-01 -5.500544309616088867e-01 9.177649021148681641e-02 -3.530915975570678711e-01 -3.608954548835754395e-01 -6.197811961174011230e-01 -4.290329515933990479e-01 -2.931504249572753906e-01 6.897533535957336426e-01 -2.248907089233398438e-01 -3.132813274860382080e-01 -6.585196256637573242e-01 -5.011296272277832031e-01 -2.917202711105346680e-01 -6.717575788497924805e-01 -3.190189301967620850e-01 -2.490483075380325317e-01 -5.264804363250732422e-01 -7.323713898658752441e-01 -8.507456183433532715e-01 -3.793242275714874268e-01 -5.917710661888122559e-01 -2.885993421077728271e-01 -2.811425626277923584e-01 -1.982471346855163574e-01 -4.279352352023124695e-02 -6.441654562950134277e-01 -2.252893522381782532e-02 -3.155196309089660645e-01 -2.619119286537170410e-01 -4.319090843200683594e-01 -1.514300554990768433e-01 -4.615325927734375000e-01 -6.603095531463623047e-01 -6.622478365898132324e-01 -6.140376925468444824e-01 -6.656005382537841797e-01 -3.374353796243667603e-02 9.218149632215499878e-02 -2.449337244033813477e-01 -5.330817699432373047e-01 -4.961200058460235596e-01 -7.024466991424560547e-02 -6.080119013786315918e-01 -5.375286936759948730e-01 -4.006513059139251709e-01 -5.892892479896545410e-01 -1.042870953679084778e-01 -2.113635390996932983e-01 -3.437593579292297363e-01
-9.776376187801361084e-02 -3.936204314231872559e-01 -3.374234437942504883e-01 -6.556245684623718262e-02 9.108237922191619873e-02 -4.497596621513366699e-01 -1.172823086380958557e-01 -3.628296256065368652e-01 1.670652180910110474e-01 -4.442940652370452881e-01 -9.214840829372406006e-02 -1.894494444131851196e-01 -2.015516757965087891e-01 -9.764522314071655273e-02 -2.509400546550750732e-01 -3.158808052539825439e-01 1.274812668561935425e-01 -5.303294658660888672e-01 4.927310049533843994e-01 -1.498149335384368896e-01 -6.900224089622497559e-01 -5.003164410591125488e-01 -4.903255999088287354e-01 -5.706441402435302734e-01 -1.111701205372810364e-01 -3.847170770168304443e-01 -1.204684302210807800e-01 -6.392743438482284546e-02 -2.447973936796188354e-01 -1.949358135461807251e-01 -1.340939998626708984e-01 -5.295560359954833984e-01 -3.564592599868774414e-01 -3.409790396690368652e-01 -5.705022439360618591e-02 9.644555300474166870e-02 1.361122131347656250e-01 9.447750449180603027e-02 -6.757327914237976074e-01 -2.687864601612091064e-01 -6.389065384864807129e-01 -2.767852246761322021e-01 -1.924456059932708740e-01 -6.564286351203918457e-01 -4.898600578308105469e-01 -6.136988997459411621e-01 -7.705800533294677734e-01 3.869732841849327087e-02 1.316886842250823975e-01 6.124630570411682129e-02 -5.605245232582092285e-01 -6.745525002479553223e-01 -8.078008890151977539e-02 -1.179056689143180847e-01 -1.306122690439224243e-01 -3.522994518280029297e-01 -1.756288707256317139e-01 -9.805987030267715454e-02 -1.052917391061782837e-01 -6.529323458671569824e-01
-7.449095249176025391e-01 -6.081092953681945801e-01 -6.480613946914672852e-01 -4.922167062759399414e-01 -4.711642861366271973e-01 -4.417206943035125732e-01 -8.317548036575317383e-01 -3.958199620246887207e-01 -1.588404774665832520e-01 -3.725449740886688232e-01 -3.520381823182106018e-02 -6.899762749671936035e-01 -5.909919738769531250e-02 -2.228075116872787476e-01 -4.129405319690704346e-01 -4.707992672920227051e-01 -3.317265510559082031e-01 -5.558013916015625000e-01 7.164731621742248535e-01 -2.583213150501251221e-01 -4.949344992637634277e-01 -4.169386327266693115e-01 -3.561043441295623779e-01 -3.900357484817504883e-01 -9.014126658439636230e-01 -3.044035732746124268e-01 -1.952786296606063843e-01 -1.031451702117919922e+00 -8.005585074424743652e-01 -1.040960788726806641e+00 -9.157159328460693359e-01 -3.554357588291168213e-01 -6.233586668968200684e-01 -6.499929428100585938e-01 -7.666667699813842773e-01 -2.001932561397552490e-01 -9.625000953674316406e-01 -3.227124214172363281e-01 -5.520008206367492676e-01 -6.441148519515991211e-01 -3.321771323680877686e-01 -3.135583177208900452e-02 -2.645634114742279053e-01 -6.559072136878967285e-01 -6.403231620788574219e-01 -6.986162662506103516e-01 -6.153520345687866211e-01 -1.332949548959732056e-01 7.676192373037338257e-02 1.228779107332229614e-01 -4.483743309974670410e-01 -5.535102486610412598e-01 -1.733591407537460327e-01 -3.693706691265106201e-01 -1.005544066429138184e+00 -6.256855130195617676e-01 -5.829154253005981445e-01 -9.366355836391448975e-02 -5.519166216254234314e-02 -5.455108880996704102e-01
8.447861075401306152e-01 -3.388198614120483398e-01 -4.704510271549224854e-01 -3.427737355232238770e-01 7.592583894729614258e-01 -6.828408837318420410e-01 -3.401499688625335693e-01 -6.521908044815063477e-01 -9.858591109514236450e-02 -5.352028608322143555e-01 -4.029757902026176453e-02 -1.863857954740524292e-01 1.181277856230735779e-01 2.602301239967346191e-01 -3.863528370857238770e-01 -6.461657881736755371e-01 -2.344335168600082397e-01 -4.566674530506134033e-01 5.164650082588195801e-01 -4.869202971458435059e-01 -3.208303153514862061e-01 -4.607459604740142822e-01 -5.406615138053894043e-01 -6.294862031936645508e-01 -5.056650042533874512e-01 -4.254340231418609619e-01 -3.318855762481689453e-01 1.129238963127136230e+00 -5.367145314812660217e-02 1.040293693542480469e+00 7.042637467384338379e-01 -4.974211752414703369e-01 -5.556675195693969727e-01 -5.166127681732177734e-01 4.077271819114685059e-01 3.502096831798553467e-01 1.063144326210021973e+00 -1.706388890743255615e-01 -4.669360816478729248e-01 -6.830791831016540527e-01 -3.231666982173919678e-01 -2.531431913375854492e-01 2.464912086725234985e-01 -5.252310633659362793e-01 -5.469366908073425293e-01 -5.109268426895141602e-01 -5.944870114326477051e-01 8.183233439922332764e-02 1.288214474916458130e-01 8.788053877651691437e-03 -7.039946317672729492e-01 -3.149364888668060303e-01 7.479795813560485840e-01 8.253477513790130615e-02 5.560930967330932617e-01 -3.561797142028808594e-01 -2.522476017475128174e-01 1.328481012023985386e-03 2.950619459152221680e-01 -3.163895905017852783e-01
1.203148961067199707e+00 -2.978505194187164307e-01 -3.097514510154724121e-01 1.151947140693664551e+00 7.751318812370300293e-01 -4.321275949478149414e-01 1.680905342102050781e+00 -5.219398140907287598e-01 -1.423964500427246094e-01 -6.118521690368652344e-01 1.053841263055801392e-01 1.233865141868591309e+00 1.758334636688232422e-01 7.106520533561706543e-01 7.297173142433166504e-01 -3.131437599658966064e-01 1.035050272941589355e+00 -6.088280677795410156e-01 5.273693054914474487e-02 4.757443070411682129e-01 -5.281543731689453125e-01 -3.010677397251129150e-01 -6.452355384826660156e-01 -3.311434984207153320e-01 2.214111089706420898e+00 -6.991521716117858887e-01 1.795972138643264771e-01 1.710853457450866699e+00 1.679339528083801270e+00 1.525894761085510254e+00 1.313352704048156738e+00 -4.211315810680389404e-01 -6.689956188201904297e-01 -5.914075374603271484e-01 1.250672340393066406e+00 5.904024243354797363e-01 1.660454034805297852e+00 3.098376095294952393e-01 -5.997083187103271484e-01 -3.565160632133483887e-01 -3.310817778110504150e-01 1.543251574039459229e-01 5.799691677093505859e-01 -6.901184320449829102e-01 -3.312891125679016113e-01 -2.862862646579742432e-01 -5.687870979309082031e-01 -8.481308817863464355e-02 1.577579230070114136e-01 -1.117785349488258362e-01 -6.778432726860046387e-01 -4.604597091674804688e-01 6.185080409049987793e-01 9.265342950820922852e-01 1.218772768974304199e+00 -5.155794620513916016e-01 -5.113912820816040039e-01 3.657438606023788452e-02 5.106233954429626465e-01 -3.312766551971435547e-01
-6.666136980056762695e-01 -4.078691303730010986e-01 -7.077470421791076660e-01 -5.509592890739440918e-01 -5.932870507240295410e-01 -2.910281717777252197e-01 -8.215350508689880371e-01 -3.915211856365203857e-01 5.490814521908760071e-02 -4.863834381103515625e-01 -1.310940831899642944e-01 -8.693237304687500000e-01 -1.568477004766464233e-01 -7.170591950416564941e-01 -2.643858790397644043e-01 -5.856611728668212891e-01 -5.748389363288879395e-01 -5.831494331359863281e-01 7.914131283760070801e-01 -6.075869202613830566e-01 -6.877151727676391602e-01 -6.212851405143737793e-01 -6.226721405982971191e-01 -2.919693887233734131e-01 -1.114875435829162598e+00 -3.046262860298156738e-01 -1.380724757909774780e-01 -1.450903415679931641e+00 -1.013647437095642090e+00 -1.199000477790832520e+00 -1.109431862831115723e+00 -4.368140101432800293e-01 -5.006815791130065918e-01 -3.687998354434967041e-01 -1.024742960929870605e+00 -4.974471032619476318e-01 -1.268604993820190430e+00 -2.219024896621704102e-01 -4.338476061820983887e-01 -4.809213876724243164e-01 -5.966055393218994141e-01 -4.531185328960418701e-02 -5.841770172119140625e-01 -5.937343835830688477e-01 -5.546395182609558105e-01 -5.879768133163452148e-01 -7.324061393737792969e-01 -2.423370629549026489e-01 -3.527053296566009521e-01 -1.760182827711105347e-01 -3.488705754280090332e-01 -4.006414413452148438e-01 -4.715042114257812500e-01 -7.525039315223693848e-01 -1.136248588562011719e+00 -3.841413259506225586e-01 -3.382816612720489502e-01 -2.708398103713989258e-01 -1.683120131492614746e-01 -3.759371936321258545e-01
5.295774936676025391e-01 -6.670585274696350098e-01 -6.731013059616088867e-01 2.341277450323104858e-01 3.235165476799011230e-01 -3.047376871109008789e-01 3.714208304882049561e-01 -5.696420669555664062e-01 2.044650167226791382e-01 -6.874295473098754883e-01 -9.808639436960220337e-02 4.889291524887084961e-01 -1.703781187534332275e-01 4.741525650024414062e-01 1.397065818309783936e-01 -5.137472152709960938e-01 4.200515151023864746e-01 -5.086585879325866699e-01 2.292232513427734375e-01 1.247329860925674438e-01 -4.483098089694976807e-01 -6.189881563186645508e-01 -6.791934967041015625e-01 -6.188439130783081055e-01 -3.619237244129180908e-01 -4.331667423248291016e-01 8.339475095272064209e-02 8.047271370887756348e-01 1.282687336206436157e-01 6.933360099792480469e-01 6.260492801666259766e-01 -3.442258536815643311e-01 -6.258957982063293457e-01 -5.010223984718322754e-01 5.720823407173156738e-01 3.421893119812011719e-01 7.331318259239196777e-01 -1.895985901355743408e-01 -3.014773726463317871e-01 -6.999403834342956543e-01 -4.877023100852966309e-01 1.943730264902114868e-01 9.499891102313995361e-02 -6.199950575828552246e-01 -4.206138253211975098e-01 -3.782571852207183838e-01 -3.955702781677246094e-01 6.499084830284118652e-02 3.913899660110473633e-01 1.230057999491691589e-01 -3.646875917911529541e-01 -6.895950436592102051e-01 3.406141698360443115e-01 6.134725734591484070e-02 7.530093789100646973e-01 -4.537127614021301270e-01 -2.976293861865997314e-01 1.210087314248085022e-01 3.657752871513366699e-01 -4.751453995704650879e-01
-3.168604150414466858e-02 -5.047356486320495605e-01 -6.342549324035644531e-01 -1.774995625019073486e-01 9.877991676330566406e-02 -3.049979507923126221e-01 -2.527236044406890869e-01 -5.212025642395019531e-01 1.375177651643753052e-01 -3.455959558486938477e-01 -1.674973070621490479e-01 -2.046940624713897705e-01 -2.154848724603652954e-02 -5.971778184175491333e-02 -1.111671924591064453e-01 -6.207359433174133301e-01 -1.444222331047058105e-01 -5.848401188850402832e-01 4.146381020545959473e-01 -6.975550949573516846e-02 -5.753602385520935059e-01 -2.764823436737060547e-01 -5.074397921562194824e-01 -6.882690787315368652e-01 -1.427769213914871216e-01 -6.814308166503906250e-01 -2.142915874719619751e-01 -3.462229371070861816e-01 -8.225405216217041016e-02 -3.716649711132049561e-01 4.018341377377510071e-02 -3.107136189937591553e-01 -4.182274937629699707e-01 -7.096335291862487793e-01 -2.413740605115890503e-01 -2.077497690916061401e-01 -1.176621541380882263e-01 -1.692451387643814087e-01 -5.895866155624389648e-01 -6.662070751190185547e-01 -3.209210038185119629e-01 -2.029704153537750244e-01 -1.868635267019271851e-01 -4.793622195720672607e-01 -7.031610608100891113e-01 -5.946400761604309082e-01 -7.672604322433471680e-01 -2.141260504722595215e-01 5.439632013440132141e-02 -1.935420036315917969e-01 -4.238426983356475830e-01 -5.490131974220275879e-01 -1.876973509788513184e-01 -1.981000155210494995e-01 -1.865807324647903442e-01 -4.602918326854705811e-01 -5.573220252990722656e-01 1.173562481999397278e-01 8.646885305643081665e-02 -6.118392944335937500e-01
-2.893085956573486328e+00 -4.731343090534210205e-01 -6.832218170166015625e-01 -2.177725553512573242e+00 -1.678887486457824707e+00 -2.679239511489868164e-01 -2.726217508316040039e+00 -4.177078902721405029e-01 -1.426840126514434814e-01 -2.753149271011352539e-01 4.536697641015052795e-02 -1.989198684692382812e+00 -5.565555095672607422e-01 -1.834229946136474609e+00 -1.394930958747863770e+00 -2.947136163711547852e-01 -2.293985366821289062e+00 -7.151544094085693359e-01 2.654219865798950195e+00 -1.395792126655578613e+00 -3.074802756309509277e-01 -6.541095376014709473e-01 -4.285244047641754150e-01 -3.658257722854614258e-01 -2.600499868392944336e+00 -3.105616867542266846e-01 -4.760796725749969482e-01 -4.261540412902832031e+00 -2.341167926788330078e+00 -3.693005800247192383e+00 -3.099712848663330078e+00 -5.089343190193176270e-01 -3.505589962005615234e-01 -5.710921287536621094e-01 -2.483140230178833008e+00 -1.178727149963378906e+00 -3.883140087127685547e+00 -3.097748160362243652e-01 -5.905353426933288574e-01 -3.326804637908935547e-01 -6.160550713539123535e-01 -2.879903018474578857e-01 -1.174100160598754883e+00 -5.889033079147338867e-01 -3.351860940456390381e-01 -5.749233365058898926e-01 -6.835511326789855957e-01 -1.938371956348419189e-01 -4.105923473834991455e-01 -2.527025043964385986e-01 -4.338762462139129639e-01 -5.722127556800842285e-01 -1.629644513130187988e+00 -1.595344781875610352e+00 -3.249474763870239258e+00 -5.127130150794982910e-01 -5.606560111045837402e-01 3.589547798037528992e-02 -8.557802438735961914e-01 -6.987375020980834961e-01
-8.877895772457122803e-02 -4.141071736812591553e-01 -6.418202519416809082e-01 -2.125782668590545654e-01 5.077470839023590088e-02 -4.155836105346679688e-01 -1.901776343584060669e-01 -3.993646502494812012e-01 9.232814610004425049e-02 -5.769407749176025391e-01 -2.348364442586898804e-01 -3.169300854206085205e-01 3.300673514604568481e-02 1.040635779500007629e-01 -2.892114818096160889e-01 -6.293017268180847168e-01 -8.900964260101318359e-02 -3.514230847358703613e-01 3.748661279678344727e-01 -1.102576628327369690e-01 -4.137068986892700195e-01 -4.320291280746459961e-01 -2.889174222946166992e-01 -6.278053522109985352e-01 -3.213311135768890381e-01 -3.258889913558959961e-01 -7.978916913270950317e-02 1.919174939393997192e-02 -4.737765192985534668e-01 -3.792791068553924561e-01 -2.893912196159362793e-01 -5.118165016174316406e-01 -5.217631459236145020e-01 -3.603216409683227539e-01 9.425973892211914062e-02 -1.091492623090744019e-01 -1.485042721033096313e-01 1.511643826961517334e-02 -4.033159613609313965e-01 -5.577387809753417969e-01 -4.866921603679656982e-01 5.862762406468391418e-02 -3.350809216499328613e-01 -4.815592169761657715e-01 -7.143587470054626465e-01 -3.500116169452667236e-01 -7.499451041221618652e-01 2.518005296587944031e-02 2.463830411434173584e-01 -7.565134763717651367e-02 -3.206801712512969971e-01 -4.152719378471374512e-01 1.299334131181240082e-02 -2.324179559946060181e-01 -7.499347627162933350e-02 -6.733904480934143066e-01 -4.898643791675567627e-01 -2.069908380508422852e-01 7.258669286966323853e-02 -5.695434212684631348e-01
4.686793684959411621e-02 -7.217034697532653809e-01 -2.904829680919647217e-01 1.137074157595634460e-01 2.143480926752090454e-01 -6.682270765304565430e-01 5.913323909044265747e-02 -5.386191606521606445e-01 8.801462501287460327e-02 -3.075068891048431396e-01 -2.240945212543010712e-02 -3.182671964168548584e-02 -1.170764490962028503e-01 1.471465080976486206e-01 1.562702506780624390e-01 -5.735433101654052734e-01 8.231833577156066895e-02 -5.877969264984130859e-01 3.135702311992645264e-01 -6.353741884231567383e-02 -6.246455907821655273e-01 -5.524304509162902832e-01 -6.525141000747680664e-01 -4.046704471111297607e-01 -6.407791376113891602e-01 -7.016682624816894531e-01 4.800958558917045593e-02 3.867578506469726562e-01 1.396692842245101929e-01 2.297589629888534546e-01 4.526806473731994629e-01 -5.737604498863220215e-01 -7.049688696861267090e-01 -3.890150189399719238e-01 1.641134023666381836e-01 1.382494419813156128e-01 5.202824473381042480e-01 5.330096185207366943e-02 -3.729021549224853516e-01 -5.375735163688659668e-01 -7.230412960052490234e-01 3.793542087078094482e-02 -5.039731413125991821e-02 -5.592586994171142578e-01 -3.923647105693817139e-01 -5.049061179161071777e-01 -5.904064178466796875e-01 -6.916379928588867188e-02 3.058575093746185303e-01 -1.446876823902130127e-01 -4.644154906272888184e-01 -3.912252187728881836e-01 9.441585093736648560e-02 -2.330855280160903931e-01 4.131623804569244385e-01 -3.168542981147766113e-01 -3.879466652870178223e-01 1.723795682191848755e-01 2.753230929374694824e-01 -3.653862476348876953e-01
-2.963397093117237091e-02 -6.552259325981140137e-01 -3.157276213169097900e-01 2.783406376838684082e-01 1.526062637567520142e-01 -3.490443825721740723e-01 6.108539924025535583e-02 -6.385967135429382324e-01 -2.182362377643585205e-01 -6.170292496681213379e-01 -9.438537806272506714e-02 -9.001927077770233154e-02 -6.397593021392822266e-02 -5.499415844678878784e-02 -8.775061368942260742e-02 -6.883716583251953125e-01 -1.234173178672790527e-01 -5.967930555343627930e-01 3.998259305953979492e-01 1.488538533449172974e-01 -4.954852461814880371e-01 -4.847587645053863525e-01 -4.550015330314636230e-01 -3.157092630863189697e-01 -3.356624022126197815e-02 -5.868936181068420410e-01 9.090827405452728271e-02 1.655499339103698730e-01 -2.054184228181838989e-01 1.207306534051895142e-01 -5.357934907078742981e-02 -3.700633347034454346e-01 -3.422386050224304199e-01 -2.890003025531768799e-01 2.605098485946655273e-01 2.520029842853546143e-01 1.850845962762832642e-01 -2.958537777885794640e-03 -4.011743366718292236e-01 -3.326049745082855225e-01 -4.166156351566314697e-01 -2.523893415927886963e-01 -1.064986661076545715e-01 -5.159189701080322266e-01 -3.713676631450653076e-01 -5.624620914459228516e-01 -7.521226406097412109e-01 -2.832579240202903748e-02 2.832196950912475586e-01 3.525032848119735718e-02 -3.325566351413726807e-01 -3.345214724540710449e-01 1.113761961460113525e-02 -3.161543011665344238e-01 2.737285792827606201e-01 -2.951727211475372314e-01 -6.055235862731933594e-01 -1.653228551149368286e-01 -4.195854440331459045e-02 -4.329064190387725830e-01
5.447098985314369202e-03 -4.068961739540100098e-01 -6.496056318283081055e-01 -2.110732793807983398e-01 3.409115597605705261e-02 -3.147028088569641113e-01 -3.936285674571990967e-01 -6.548427343368530273e-01 -2.589357197284698486e-01 -3.330992758274078369e-01 -9.130214154720306396e-02 -2.502029538154602051e-01 2.031000703573226929e-02 -1.395272910594940186e-01 -2.281506657600402832e-01 -4.777122735977172852e-01 -3.241064548492431641e-01 -6.074221134185791016e-01 1.912666112184524536e-01 -1.487669944763183594e-01 -5.466665029525756836e-01 -5.603517293930053711e-01 -6.357025504112243652e-01 -6.047008037567138672e-01 -3.603338003158569336e-01 -6.931455135345458984e-01 -2.563186287879943848e-01 -3.249904215335845947e-01 -8.760145306587219238e-02 -8.722789585590362549e-02 -2.201271355152130127e-01 -5.024104714393615723e-01 -2.963879406452178955e-01 -4.416507482528686523e-01 -6.026934832334518433e-02 -2.024842202663421631e-01 -1.138365343213081360e-01 -2.501561939716339111e-01 -4.081755280494689941e-01 -5.802150368690490723e-01 -4.936954379081726074e-01 -5.773943662643432617e-02 -2.579419910907745361e-01 -4.372420907020568848e-01 -4.738488793373107910e-01 -4.694922864437103271e-01 -6.214493513107299805e-01 -2.070888280868530273e-01 1.672559082508087158e-01 -4.150536376982927322e-03 -2.986450791358947754e-01 -4.738374352455139160e-01 8.277472108602523804e-02 -4.447661340236663818e-01 -1.720235496759414673e-01 -3.062946498394012451e-01 -4.671881794929504395e-01 1.230560615658760071e-01 5.394771322607994080e-02 -6.192799210548400879e-01
2.379152178764343262e-01 -5.447751283645629883e-01 -6.940368413925170898e-01 -5.410112068057060242e-02 9.952414780855178833e-03 -4.789853096008300781e-01 8.333580195903778076e-02 -6.655261516571044922e-01 -1.598007529973983765e-01 -4.178032875061035156e-01 -2.523148991167545319e-02 2.230030298233032227e-01 -9.616928547620773315e-02 2.324904650449752808e-01 -5.187129601836204529e-02 -4.097917079925537109e-01 1.648218482732772827e-01 -3.428674042224884033e-01 3.281677961349487305e-01 2.390132695436477661e-01 -5.241811871528625488e-01 -6.079149842262268066e-01 -5.391653180122375488e-01 -7.119797468185424805e-01 -1.981211267411708832e-02 -4.869606494903564453e-01 2.120703905820846558e-01 2.284050434827804565e-01 7.156807929277420044e-02 3.682593405246734619e-01 -1.022465061396360397e-02 -4.060798883438110352e-01 -3.757039308547973633e-01 -4.093669950962066650e-01 1.688306182622909546e-01 2.925870120525360107e-01 1.788684576749801636e-01 -4.826037213206291199e-02 -4.531840682029724121e-01 -6.863270998001098633e-01 -6.963050961494445801e-01 1.550844013690948486e-01 -1.187627948820590973e-02 -4.299190342426300049e-01 -7.215415835380554199e-01 -4.186415076255798340e-01 -6.666795015335083008e-01 1.234959214925765991e-01 1.343167275190353394e-01 -4.081604070961475372e-03 -3.932643234729766846e-01 -2.821716964244842529e-01 2.434117794036865234e-01 -6.274113804101943970e-02 3.816525340080261230e-01 -6.984912753105163574e-01 -2.821995913982391357e-01 1.416350007057189941e-01 -5.418942123651504517e-02 -4.477522075176239014e-01
7.547475695610046387e-01 -4.120394289493560791e-01 -5.779148340225219727e-01 1.405061185359954834e-01 6.623212099075317383e-01 -3.503084182739257812e-01 5.002772212028503418e-01 -2.824233770370483398e-01 2.141674309968948364e-01 -6.406904458999633789e-01 -2.378042936325073242e-01 6.101737171411514282e-02 1.526086628437042236e-01 5.075764656066894531e-01 1.462018042802810669e-01 -5.098456740379333496e-01 3.270330131053924561e-01 -4.819834828376770020e-01 -1.634425856173038483e-02 1.762074679136276245e-01 -4.112757444381713867e-01 -4.148586094379425049e-01 -4.086703360080718994e-01 -6.726782917976379395e-01 -3.269086778163909912e-01 -5.203909873962402344e-01 1.723195016384124756e-01 8.610073328018188477e-01 5.363292992115020752e-02 6.837213635444641113e-01 4.771775603294372559e-01 -5.282203555107116699e-01 -2.892701625823974609e-01 -3.742606341838836670e-01 4.243881404399871826e-01 1.631940454244613647e-01 7.346519827842712402e-01 -1.092614829540252686e-01 -4.280503988265991211e-01 -4.366842806339263916e-01 -2.828401327133178711e-01 -9.545455873012542725e-02 1.863318085670471191e-01 -6.815097928047180176e-01 -3.299778401851654053e-01 -3.553056120872497559e-01 -7.272042036056518555e-01 -2.904959321022033691e-01 4.705580472946166992e-01 5.209677293896675110e-02 -3.484847843647003174e-01 -6.065965890884399414e-01 3.521715700626373291e-01 7.343082129955291748e-02 7.125620245933532715e-01 -5.229704976081848145e-01 -3.164410889148712158e-01 1.683481968939304352e-02 3.420379757881164551e-01 -4.789849221706390381e-01
-3.684803843498229980e-01 -6.592784523963928223e-01 -6.747137904167175293e-01 -3.957703411579132080e-01 1.946834288537502289e-02 -5.965314507484436035e-01 -2.938206791877746582e-01 -4.181624352931976318e-01 2.111443784087896347e-03 -4.662149846553802490e-01 1.048560962080955505e-01 -3.416056036949157715e-01 3.717132657766342163e-02 -4.003093764185905457e-02 -3.667445778846740723e-01 -6.972799897193908691e-01 -1.698606908321380615e-01 -2.955552935600280762e-01 6.197637915611267090e-01 -6.857335567474365234e-02 -4.774346351623535156e-01 -5.295333266258239746e-01 -6.871002316474914551e-01 -6.806999444961547852e-01 -6.548680663108825684e-01 -3.490466177463531494e-01 -9.496782720088958740e-02 -7.600831389427185059e-01 -6.987966895103454590e-01 -5.322126150131225586e-01 -3.765369951725006104e-01 -3.568984866142272949e-01 -5.440791845321655273e-01 -6.987765431404113770e-01 -3.273514807224273682e-01 -2.526959590613842010e-02 -4.538297951221466064e-01 -2.422055788338184357e-02 -5.439553260803222656e-01 -2.838648855686187744e-01 -4.375607371330261230e-01 -5.113103613257408142e-02 -4.811602830886840820e-01 -2.787773013114929199e-01 -5.102408528327941895e-01 -5.010004043579101562e-01 -4.044286906719207764e-01 -9.163907170295715332e-02 -1.307274401187896729e-02 1.334463506937026978e-01 -6.813709735870361328e-01 -3.350423872470855713e-01 -1.958472281694412231e-01 -3.786974251270294189e-01 -6.479923725128173828e-01 -6.942373514175415039e-01 -5.689078569412231445e-01 8.445579558610916138e-03 -1.692783981561660767e-01 -4.306442439556121826e-01
-3.632462769746780396e-02 -4.687851667404174805e-01 -5.171427726745605469e-01 -2.875025272369384766e-01 -1.295257452875375748e-02 -4.541693329811096191e-01 -1.200830414891242981e-01 -4.505115747451782227e-01 1.132643148303031921e-01 -4.683565497398376465e-01 -1.786579489707946777e-01 -2.433851510286331177e-01 -7.032685726881027222e-02 -2.010007798671722412e-01 7.877168059349060059e-02 -3.104088902473449707e-01 -1.846415549516677856e-01 -3.265568017959594727e-01 2.609153985977172852e-01 -1.847336143255233765e-01 -5.065870285034179688e-01 -6.581864953041076660e-01 -7.186004519462585449e-01 -5.294718742370605469e-01 -2.689584195613861084e-01 -3.075306415557861328e-01 1.797861009836196899e-01 -4.385483264923095703e-02 -3.976881504058837891e-01 -2.129505574703216553e-01 -3.110538125038146973e-01 -6.497409343719482422e-01 -3.585460186004638672e-01 -5.133545398712158203e-01 1.115708518773317337e-02 -8.940009027719497681e-02 -1.867307871580123901e-01 9.852923452854156494e-02 -6.952973604202270508e-01 -4.831987321376800537e-01 -3.269784152507781982e-01 -2.029125690460205078e-01 -3.057310879230499268e-01 -4.957231879234313965e-01 -3.863418698310852051e-01 -6.974914073944091797e-01 -7.804055809974670410e-01 1.028155684471130371e-01 2.549245953559875488e-01 1.790196597576141357e-01 -5.587974786758422852e-01 -6.093221902847290039e-01 -3.755365684628486633e-02 -2.277387231588363647e-01 -6.123554334044456482e-02 -5.089285373687744141e-01 -5.426742434501647949e-01 4.480657726526260376e-02 -4.832817614078521729e-02 -4.754731655120849609e-01
5.969738364219665527e-01 -3.635435998439788818e-01 -2.890777289867401123e-01 4.624102711677551270e-01 7.322141528129577637e-01 -5.945512056350708008e-01 5.286396145820617676e-01 -4.432960152626037598e-01 6.919040530920028687e-02 -3.647219538688659668e-01 -2.217683643102645874e-01 3.329768776893615723e-01 6.425615400075912476e-02 3.275582492351531982e-01 6.483915448188781738e-02 -6.053982377052307129e-01 3.790274262428283691e-01 -6.337303519248962402e-01 6.664673238992691040e-02 3.035752177238464355e-01 -3.599101603031158447e-01 -6.175884604454040527e-01 -4.622748196125030518e-01 -4.852045774459838867e-01 -4.531882703304290771e-01 -4.462826848030090332e-01 3.815206512808799744e-02 1.241413712501525879e+00 3.684710264205932617e-01 1.349784255027770996e+00 8.650985956192016602e-01 -5.527938604354858398e-01 -2.814152240753173828e-01 -4.507457017898559570e-01 9.689716100692749023e-01 5.647946596145629883e-01 1.321818709373474121e+00 -1.974111497402191162e-01 -6.482011675834655762e-01 -3.444211184978485107e-01 -6.495936512947082520e-01 -8.201251924037933350e-02 1.443133354187011719e-01 -5.811749100685119629e-01 -6.493707895278930664e-01 -2.834194302558898926e-01 -5.351377725601196289e-01 -3.109840452671051025e-01 6.275972723960876465e-01 -1.702995449304580688e-01 -3.216010928153991699e-01 -3.910164237022399902e-01 5.989871025085449219e-01 -8.886153250932693481e-02 1.069397926330566406e+00 -4.331474304199218750e-01 -6.176959276199340820e-01 1.683767288923263550e-01 2.352423071861267090e-01 -4.620633423328399658e-01
5.937633514404296875e-01 -6.747326254844665527e-01 -4.559249579906463623e-01 -1.489413231611251831e-01 5.801351070404052734e-01 -6.324199438095092773e-01 8.195698261260986328e-02 -7.220346331596374512e-01 2.037210017442703247e-01 -4.575511515140533447e-01 -4.346977919340133667e-02 -1.524772942066192627e-01 1.168299093842506409e-01 4.580327868461608887e-01 2.615887299180030823e-02 -5.952518582344055176e-01 1.081798598170280457e-01 -3.276659846305847168e-01 7.932063192129135132e-03 1.628786772489547729e-01 -3.980368971824645996e-01 -6.363237500190734863e-01 -3.970246315002441406e-01 -6.067062616348266602e-01 -4.429800212383270264e-01 -5.803113579750061035e-01 -1.594156473875045776e-01 8.227299451828002930e-01 2.986997365951538086e-01 4.700984954833984375e-01 6.029827594757080078e-01 -5.622454285621643066e-01 -5.334098935127258301e-01 -3.042734265327453613e-01 4.812784790992736816e-01 4.102253317832946777e-01 4.830254614353179932e-01 -1.032166108489036560e-01 -5.172914862632751465e-01 -6.348935365676879883e-01 -4.683448672294616699e-01 -3.479089960455894470e-02 -1.812558323144912720e-01 -3.931915760040283203e-01 -4.775203764438629150e-01 -5.563641190528869629e-01 -7.392878532409667969e-01 -2.021304517984390259e-01 2.353594452142715454e-01 -2.756285481154918671e-02 -4.732831716537475586e-01 -3.498981595039367676e-01 2.089704424142837524e-01 -9.208736568689346313e-02 6.921712756156921387e-01 -2.931053340435028076e-01 -4.992361664772033691e-01 -5.163840204477310181e-02 -2.776609174907207489e-02 -6.822278499603271484e-01
1.353697657585144043e+00 -3.252978324890136719e-01 -4.673601090908050537e-01 1.514800906181335449e+00 6.727789044380187988e-01 -5.424686074256896973e-01 2.290564060211181641e+00 -6.380844712257385254e-01 -1.196424476802349091e-02 -4.767927229404449463e-01 -1.846132576465606689e-01 1.373197674751281738e+00 1.173766553401947021e-01 1.014769315719604492e+00 7.367383241653442383e-01 -5.015534758567810059e-01 1.334224462509155273e+00 -5.641735196113586426e-01 8.076197504997253418e-01 8.706908822059631348e-01 -5.343713760375976562e-01 -3.426202237606048584e-01 -4.288270473480224609e-01 -3.885984122753143311e-01 3.520606994628906250e+00 -3.986276090145111084e-01 5.238152742385864258e-01 2.075328111648559570e+00 2.156226873397827148e+00 2.132803916931152344e+00 1.735464930534362793e+00 -6.439350247383117676e-01 -4.638121724128723145e-01 -5.543468594551086426e-01 1.555369377136230469e+00 6.694537401199340820e-01 1.838857412338256836e+00 2.942663133144378662e-01 -4.554437696933746338e-01 -6.701868176460266113e-01 -5.000721812248229980e-01 3.906101286411285400e-01 7.950947284698486328e-01 -3.626069426536560059e-01 -4.039574861526489258e-01 -6.562850475311279297e-01 -7.929552793502807617e-01 -3.623730689287185669e-02 -2.550935931503772736e-02 3.421097099781036377e-01 -4.332500994205474854e-01 -4.688640534877777100e-01 5.866767764091491699e-01 1.620323538780212402e+00 1.754909276962280273e+00 -6.710618138313293457e-01 -3.963973820209503174e-01 2.755938470363616943e-01 4.030271172523498535e-01 -2.769849300384521484e-01
4.200119972229003906e-01 -6.948872208595275879e-01 -4.246259033679962158e-01 6.155897304415702820e-02 3.934625983238220215e-01 -2.795285880565643311e-01 1.004311442375183105e-01 -3.348792791366577148e-01 -7.108012586832046509e-02 -6.369858384132385254e-01 -1.046972274780273438e-01 5.655070766806602478e-02 -1.662797033786773682e-01 1.600177288055419922e-01 2.259668558835983276e-01 -3.532089293003082275e-01 5.188120156526565552e-02 -4.680385589599609375e-01 -2.373780123889446259e-02 -1.708598621189594269e-02 -5.466033816337585449e-01 -5.563544631004333496e-01 -7.152101397514343262e-01 -6.833879351615905762e-01 -1.871985942125320435e-01 -5.712859034538269043e-01 2.712085843086242676e-01 6.381936669349670410e-01 2.640814185142517090e-01 5.645759105682373047e-01 5.664064288139343262e-01 -5.723608136177062988e-01 -4.720340967178344727e-01 -5.844683647155761719e-01 3.571999669075012207e-01 3.975185751914978027e-01 3.327187299728393555e-01 -1.505517810583114624e-01 -2.778036594390869141e-01 -3.509491682052612305e-01 -4.428799748420715332e-01 -9.466213174164295197e-03 -7.265039719641208649e-03 -6.004954576492309570e-01 -2.930565476417541504e-01 -6.640724539756774902e-01 -8.302988409996032715e-01 5.196282267570495605e-02 3.702546656131744385e-01 2.033540308475494385e-01 -7.019084692001342773e-01 -6.944208145141601562e-01 3.901334404945373535e-01 -5.735099315643310547e-02 4.028979837894439697e-01 -3.481136262416839600e-01 -4.744891524314880371e-01 1.530604660511016846e-01 1.477314829826354980e-01 -2.783594727516174316e-01
2.961389487609267235e-03 -6.525180935859680176e-01 -3.134690523147583008e-01 -5.129057914018630981e-02 1.398074626922607422e-01 -6.852170825004577637e-01 -1.784135401248931885e-01 -4.185327291488647461e-01 -1.285419315099716187e-01 -4.975892007350921631e-01 7.516464684158563614e-03 -5.054523795843124390e-02 1.954149222001433372e-03 2.229229956865310669e-01 9.853895008563995361e-02 -6.778053641319274902e-01 -6.127222254872322083e-02 -6.449518799781799316e-01 4.895423650741577148e-01 -2.080906331539154053e-01 -6.192967295646667480e-01 -5.975857377052307129e-01 -5.470025539398193359e-01 -3.779990375041961670e-01 -7.666043471544981003e-03 -7.083607316017150879e-01 -1.238338947296142578e-01 -1.122430190443992615e-01 -1.522976756095886230e-01 -2.814255841076374054e-02 -3.982529416680335999e-02 -2.858074307441711426e-01 -4.365141987800598145e-01 -6.622090339660644531e-01 4.789066314697265625e-02 8.673386648297309875e-03 -2.030944265425205231e-02 -1.056276485323905945e-01 -6.881416440010070801e-01 -5.501501560211181641e-01 -5.863391160964965820e-01 1.703200042247772217e-01 4.013317823410034180e-02 -5.738538503646850586e-01 -5.895400643348693848e-01 -4.916447699069976807e-01 -5.212396383285522461e-01 -1.393869966268539429e-01 1.293941438198089600e-01 -4.865333810448646545e-02 -3.533988595008850098e-01 -6.980869770050048828e-01 9.411453455686569214e-02 -2.902847826480865479e-01 1.174438670277595520e-01 -2.867877483367919922e-01 -3.847522139549255371e-01 -1.446440350264310837e-02 -5.194020271301269531e-02 -4.076747894287109375e-01
7.834575176239013672e-01 -6.357085704803466797e-01 -4.091042280197143555e-01 4.241344332695007324e-01 5.507109761238098145e-01 -4.630618691444396973e-01 7.579478025436401367e-01 -6.931817531585693359e-01 -1.421220153570175171e-01 -6.721445322036743164e-01 -3.466754779219627380e-02 5.475372672080993652e-01 1.358361076563596725e-02 3.802917897701263428e-01 4.416713118553161621e-02 -4.308387637138366699e-01 2.219777554273605347e-01 -3.997350931167602539e-01 -1.867367625236511230e-01 3.004475533962249756e-01 -3.607367575168609619e-01 -4.360731840133666992e-01 -5.694595575332641602e-01 -5.007571578025817871e-01 -2.181725353002548218e-01 -6.976215243339538574e-01 2.786362469196319580e-01 1.262182593345642090e+00 6.055859923362731934e-01 1.105145692825317383e+00 9.155436754226684570e-01 -5.921374559402465820e-01 -3.115477859973907471e-01 -6.794697642326354980e-01 8.054597973823547363e-01 3.863048255443572998e-01 1.175693750381469727e+00 -1.124978959560394287e-01 -4.097152352333068848e-01 -6.882887482643127441e-01 -3.300190567970275879e-01 -6.513901054859161377e-02 -1.274606734514236450e-01 -5.442361235618591309e-01 -3.492430150508880615e-01 -4.609677791595458984e-01 -7.445151805877685547e-01 -1.365755647420883179e-01 5.170558691024780273e-01 9.231207519769668579e-02 -6.399036645889282227e-01 -7.056077122688293457e-01 7.447120547294616699e-01 -1.876286417245864868e-01 8.040760159492492676e-01 -7.055894136428833008e-01 -3.314596116542816162e-01 -4.245929419994354248e-02 4.864867031574249268e-01 -6.390573382377624512e-01
1.323779106140136719e+00 -5.240989923477172852e-01 -3.181098699569702148e-01 9.900167584419250488e-01 5.791113376617431641e-01 -5.587187409400939941e-01 1.869200229644775391e+00 -4.474731981754302979e-01 2.539084851741790771e-02 -6.796293258666992188e-01 -1.803738921880722046e-01 1.394935846328735352e+00 3.461957275867462158e-01 8.988491892814636230e-01 6.584881544113159180e-01 -2.804425656795501709e-01 1.413172841072082520e+00 -7.177527546882629395e-01 3.748495876789093018e-01 7.125049233436584473e-01 -7.215801477432250977e-01 -7.104424238204956055e-01 -3.365314006805419922e-01 -5.194268226623535156e-01 2.238994598388671875e+00 -2.980541884899139404e-01 2.400699257850646973e-01 1.880106925964355469e+00 1.833525180816650391e+00 1.607612729072570801e+00 1.408426284790039062e+00 -6.507656574249267578e-01 -4.066147506237030029e-01 -4.560545384883880615e-01 1.212690353393554688e+00 5.740358829498291016e-01 1.677092432975769043e+00 3.451019227504730225e-01 -6.635692119598388672e-01 -2.867499887943267822e-01 -4.146264493465423584e-01 6.797362118959426880e-02 5.513803362846374512e-01 -3.359515070915222168e-01 -7.000727057456970215e-01 -2.996033728122711182e-01 -8.157906532287597656e-01 -1.799645274877548218e-01 1.729682981967926025e-01 -8.002255111932754517e-03 -7.029119729995727539e-01 -4.540131092071533203e-01 9.420404434204101562e-01 1.059447526931762695e+00 1.350368380546569824e+00 -3.007135391235351562e-01 -2.923364043235778809e-01 2.258452922105789185e-01 5.972245931625366211e-01 -5.815533399581909180e-01
-5.528807640075683594e-01 -2.821100652217864990e-01 -4.671860039234161377e-01 -5.560140609741210938e-01 -2.322323322296142578e-01 -2.859340906143188477e-01 -7.967144846916198730e-01 -5.345540046691894531e-01 -2.151073664426803589e-01 -4.933379590511322021e-01 -1.738100871443748474e-02 -6.110850572586059570e-01 -1.071663945913314819e-01 -4.815928936004638672e-01 -4.631208479404449463e-01 -7.197193503379821777e-01 -7.003690600395202637e-01 -3.546617925167083740e-01 6.700088381767272949e-01 -2.909699678421020508e-01 -4.421044290065765381e-01 -5.122991800308227539e-01 -4.422005414962768555e-01 -5.573469996452331543e-01 -7.354136705398559570e-01 -6.225172281265258789e-01 2.132012695074081421e-02 -9.720653891563415527e-01 -6.470015645027160645e-01 -1.089287161827087402e+00 -8.915034532546997070e-01 -5.899634361267089844e-01 -6.567276716232299805e-01 -2.854557037353515625e-01 -3.835983574390411377e-01 -6.973052769899368286e-02 -9.147676229476928711e-01 -1.223492175340652466e-01 -6.541010141372680664e-01 -4.446308910846710205e-01 -2.968509197235107422e-01 -3.287379443645477295e-01 -4.249195456504821777e-01 -6.874809861183166504e-01 -7.206938266754150391e-01 -5.841425657272338867e-01 -4.841000437736511230e-01 -2.631175518035888672e-01 -1.784679591655731201e-01 -1.072674393653869629e-01 -3.051988482475280762e-01 -3.274865150451660156e-01 -7.151181250810623169e-02 -5.966056585311889648e-01 -5.586128234863281250e-01 -5.401868820190429688e-01 -5.804942846298217773e-01 -2.149793356657028198e-01 -2.400788813829421997e-01 -6.890185475349426270e-01
-8.758147358894348145e-01 -4.566820263862609863e-01 -4.952370226383209229e-01 -4.381641447544097900e-01 -3.664777576923370361e-01 -2.699201107025146484e-01 -6.513888239860534668e-01 -4.031524658203125000e-01 7.345818728208541870e-02 -5.767871141433715820e-01 -1.772273778915405273e-01 -7.351058721542358398e-01 -1.225919499993324280e-01 -4.768799543380737305e-01 -4.132643043994903564e-01 -3.592855334281921387e-01 -7.035737633705139160e-01 -5.099339485168457031e-01 8.576057553291320801e-01 -5.340603590011596680e-01 -4.204035997390747070e-01 -5.031209588050842285e-01 -5.181062221527099609e-01 -5.970435738563537598e-01 -8.249145746231079102e-01 -5.928938984870910645e-01 -3.888980150222778320e-01 -8.173217773437500000e-01 -8.538961410522460938e-01 -1.115224123001098633e+00 -6.471635103225708008e-01 -5.887001156806945801e-01 -5.991235375404357910e-01 -6.072216033935546875e-01 -6.406760811805725098e-01 -4.122698009014129639e-01 -1.145052790641784668e+00 -3.696934580802917480e-01 -6.010240316390991211e-01 -5.992023348808288574e-01 -6.029584407806396484e-01 -2.049473226070404053e-01 -5.434583425521850586e-01 -4.228271543979644775e-01 -4.358564615249633789e-01 -5.435541868209838867e-01 -5.702491998672485352e-01 6.462097167968750000e-02 -4.011025652289390564e-02 5.978216230869293213e-02 -3.067725300788879395e-01 -7.182615995407104492e-01 -3.895104825496673584e-01 -3.484626710414886475e-01 -6.763382554054260254e-01 -7.006762623786926270e-01 -6.511246562004089355e-01 1.022559031844139099e-01 -3.009931147098541260e-01 -6.657898426055908203e-01
-4.520570933818817139e-01 -7.104383707046508789e-01 -4.596607983112335205e-01 -4.128892123699188232e-01 -2.245929092168807983e-01 -3.169164359569549561e-01 -3.970855474472045898e-01 -6.513646245002746582e-01 1.315632611513137817e-01 -7.187537550926208496e-01 -1.826288551092147827e-01 -1.655550450086593628e-01 1.001702472567558289e-01 6.095777079463005066e-02 -2.016865909099578857e-01 -5.241789221763610840e-01 -3.397595584392547607e-01 -3.255287706851959229e-01 5.177913904190063477e-01 -3.525014817714691162e-01 -4.070156812667846680e-01 -7.116277813911437988e-01 -3.943538367748260498e-01 -7.072677016258239746e-01 -5.212178826332092285e-01 -3.579879105091094971e-01 -5.361450463533401489e-02 -2.263251245021820068e-01 -6.273261308670043945e-01 -3.872902691364288330e-01 -1.193615347146987915e-01 -3.458819687366485596e-01 -5.702241063117980957e-01 -6.788718104362487793e-01 -4.112409949302673340e-01 -3.183061257004737854e-02 -5.398191809654235840e-01 -2.586426585912704468e-02 -2.796367406845092773e-01 -4.305263161659240723e-01 -6.062022447586059570e-01 -4.543389007449150085e-02 -1.164952944964170456e-02 -5.165872573852539062e-01 -6.780953407287597656e-01 -4.268896281719207764e-01 -5.390793085098266602e-01 -3.101685643196105957e-01 4.591796547174453735e-02 7.921581715345382690e-02 -4.511331915855407715e-01 -4.801269769668579102e-01 -5.509048327803611755e-02 -2.801413834095001221e-01 -4.745075106620788574e-01 -3.927311301231384277e-01 -3.205358982086181641e-01 -1.938825398683547974e-01 -1.388142630457878113e-02 -3.456738889217376709e-01
-1.209653258323669434e+00 -5.268930792808532715e-01 -3.377294838428497314e-01 -1.226532220840454102e+00 -9.507590532302856445e-01 -4.957584440708160400e-01 -1.506682276725769043e+00 -6.752922534942626953e-01 3.914817422628402710e-02 -4.171551764011383057e-01 -1.479089856147766113e-01 -1.064224720001220703e+00 -1.597705036401748657e-01 -8.328470587730407715e-01 -7.402202486991882324e-01 -4.733201861381530762e-01 -1.183867812156677246e+00 -5.542393922805786133e-01 1.339353919029235840e+00 -6.757574081420898438e-01 -5.652825236320495605e-01 -6.389521956443786621e-01 -5.298336744308471680e-01 -5.995309948921203613e-01 -1.446635723114013672e+00 -6.228507757186889648e-01 -1.419409364461898804e-01 -1.873467445373535156e+00 -1.361063480377197266e+00 -2.049168348312377930e+00 -1.338069677352905273e+00 -3.487555980682373047e-01 -4.766534268856048584e-01 -6.312931180000305176e-01 -1.407762289047241211e+00 -4.689185619354248047e-01 -1.900279998779296875e+00 -2.132274359464645386e-01 -3.686778843402862549e-01 -5.051925778388977051e-01 -5.866987109184265137e-01 -1.892893016338348389e-01 -5.777431130409240723e-01 -4.890773296356201172e-01 -4.295975863933563232e-01 -5.360563993453979492e-01 -4.272722005844116211e-01 -1.841448694467544556e-01 -3.009577393531799316e-01 -1.560024470090866089e-01 -6.801455020904541016e-01 -3.576663434505462646e-01 -6.974440217018127441e-01 -7.275769114494323730e-01 -1.576306939125061035e+00 -7.077231407165527344e-01 -4.535783827304840088e-01 -2.185158133506774902e-01 -6.120087504386901855e-01 -6.126277446746826172e-01
1.499556303024291992e-01 -5.606974959373474121e-01 -5.610290765762329102e-01 3.555520903319120407e-03 4.423803389072418213e-01 -2.918337285518646240e-01 2.718765735626220703e-01 -4.516682922840118408e-01 4.549390822649002075e-02 -5.945746898651123047e-01 -2.587262392044067383e-01 3.172464370727539062e-01 -1.003175824880599976e-01 -1.660377904772758484e-02 1.165881305932998657e-01 -6.343905925750732422e-01 1.891551613807678223e-01 -4.509656131267547607e-01 2.897265553474426270e-01 1.859003156423568726e-01 -4.630604982376098633e-01 -4.681796729564666748e-01 -3.787179291248321533e-01 -5.519945621490478516e-01 -4.382852017879486084e-01 -3.140272200107574463e-01 1.991774290800094604e-01 2.280108183622360229e-01 4.328685626387596130e-02 3.161494731903076172e-01 4.781518578529357910e-01 -6.859288215637207031e-01 -3.361076116561889648e-01 -7.179836630821228027e-01 3.284713625907897949e-01 2.586413919925689697e-02 4.918451607227325439e-01 -6.884858012199401855e-02 -6.586005687713623047e-01 -4.839719533920288086e-01 -5.251117348670959473e-01 -1.664486974477767944e-01 -3.024351038038730621e-02 -6.851833462715148926e-01 -3.197953104972839355e-01 -6.378240585327148438e-01 -8.297604322433471680e-01 -1.413728459738194942e-03 1.223055645823478699e-01 1.170020923018455505e-01 -2.966919243335723877e-01 -4.858118593692779541e-01 3.165394365787506104e-01 -3.653681874275207520e-01 5.264104604721069336e-01 -4.166246652603149414e-01 -4.633159339427947998e-01 1.402709633111953735e-01 2.386333495378494263e-01 -7.132517695426940918e-01
-1.990222036838531494e-01 -3.017657101154327393e-01 -4.067139029502868652e-01 -2.344223558902740479e-01 -3.678811788558959961e-01 -2.418740987777709961e-01 -3.997417092323303223e-01 -5.424059629440307617e-01 -8.288516849279403687e-02 -2.891648411750793457e-01 -1.238691285252571106e-01 -3.635719716548919678e-01 -2.139280438423156738e-01 -3.974682390689849854e-01 -5.007636547088623047e-02 -3.692503571510314941e-01 -1.618125662207603455e-02 -6.205619573593139648e-01 6.516284942626953125e-01 -2.402413636445999146e-01 -4.465011954307556152e-01 -6.000961065292358398e-01 -5.115175247192382812e-01 -6.948427557945251465e-01 -2.250500768423080444e-01 -3.517965674400329590e-01 -3.027217090129852295e-01 -5.541756749153137207e-01 -4.466884732246398926e-01 -4.432269036769866943e-01 -5.449245572090148926e-01 -4.525108337402343750e-01 -6.520767807960510254e-01 -6.970596313476562500e-01 -3.577639162540435791e-01 1.808775402605533600e-02 -3.039430677890777588e-01 -1.844673603773117065e-01 -4.303626120090484619e-01 -5.906085968017578125e-01 -4.899305999279022217e-01 -2.485151886940002441e-01 -2.140978910028934479e-02 -2.930171489715576172e-01 -3.524056971073150635e-01 -4.232930243015289307e-01 -5.504989027976989746e-01 2.173073776066303253e-02 -8.137783966958522797e-03 -1.747628897428512573e-01 -6.449530720710754395e-01 -6.517543792724609375e-01 -1.552496850490570068e-01 -4.470739662647247314e-01 -3.779133260250091553e-01 -6.847633123397827148e-01 -4.238847792148590088e-01 2.406938746571540833e-02 -1.583698540925979614e-01 -5.146500468254089355e-01
-7.512828111648559570e-01 -2.842630445957183838e-01 -4.094465672969818115e-01 -6.468618512153625488e-01 -5.733823776245117188e-01 -5.000607371330261230e-01 -8.073481917381286621e-01 -3.377899825572967529e-01 -2.230483740568161011e-01 -3.744656741619110107e-01 -1.105796471238136292e-01 -5.391990542411804199e-01 -7.320289313793182373e-02 -6.163058280944824219e-01 -6.138792037963867188e-01 -3.242005109786987305e-01 -4.502419233322143555e-01 -6.157761812210083008e-01 7.608020305633544922e-01 -4.878108203411102295e-01 -3.039714992046356201e-01 -6.297940611839294434e-01 -6.656778454780578613e-01 -4.686329662799835205e-01 -9.521216154098510742e-01 -5.685002207756042480e-01 -3.963314294815063477e-01 -1.362064957618713379e+00 -8.068702816963195801e-01 -1.118615031242370605e+00 -7.623523473739624023e-01 -5.992822051048278809e-01 -2.783784270286560059e-01 -3.470195531845092773e-01 -7.461162209510803223e-01 -3.054076433181762695e-01 -1.080104827880859375e+00 -2.261988967657089233e-01 -7.016534209251403809e-01 -3.223453164100646973e-01 -4.109018743038177490e-01 -1.581080108880996704e-01 -2.887830436229705811e-01 -4.673222303390502930e-01 -5.501651167869567871e-01 -4.733615219593048096e-01 -7.140253782272338867e-01 -6.322667747735977173e-02 -1.049641668796539307e-01 -1.718134284019470215e-01 -2.785922586917877197e-01 -3.377765119075775146e-01 -5.809997320175170898e-01 -6.546456813812255859e-01 -1.068045496940612793e+00 -5.281586647033691406e-01 -4.671540558338165283e-01 2.765117213129997253e-02 -1.636821478605270386e-01 -3.171600103378295898e-01
1.125818639993667603e-01 -6.547004580497741699e-01 -3.652701377868652344e-01 1.465452313423156738e-01 2.644665241241455078e-01 -4.676222205162048340e-01 -8.845011889934539795e-02 -4.774645566940307617e-01 -6.334211677312850952e-02 -3.697296977043151855e-01 1.459734588861465454e-01 1.776083558797836304e-01 1.830627024173736572e-01 5.537693575024604797e-02 1.710582226514816284e-01 -6.754516363143920898e-01 2.709230408072471619e-02 -3.487484455108642578e-01 4.356132447719573975e-02 2.398784011602401733e-01 -3.653422892093658447e-01 -5.403259396553039551e-01 -3.355968892574310303e-01 -2.814523577690124512e-01 -6.398304551839828491e-02 -6.583055853843688965e-01 2.535903453826904297e-01 6.261005401611328125e-01 3.879440715536475182e-03 3.850528299808502197e-01 5.025096535682678223e-01 -6.542072296142578125e-01 -6.417683362960815430e-01 -3.701173365116119385e-01 5.300821065902709961e-01 8.607098460197448730e-02 2.916983962059020996e-01 -1.103765964508056641e-01 -3.089412450790405273e-01 -5.569376945495605469e-01 -6.946642398834228516e-01 1.407519280910491943e-01 -1.173591390252113342e-01 -6.377624869346618652e-01 -6.814870238304138184e-01 -5.638551712036132812e-01 -7.942687273025512695e-01 -2.948868870735168457e-01 8.741181343793869019e-02 -2.198665291070938110e-01 -6.751573681831359863e-01 -6.723599433898925781e-01 4.313163757324218750e-01 -2.720310688018798828e-01 4.276894032955169678e-01 -2.926422059535980225e-01 -5.377689003944396973e-01 1.211714670062065125e-01 -2.554341405630111694e-02 -3.392560780048370361e-01
-2.420475482940673828e+00 -3.453079164028167725e-01 -6.192330121994018555e-01 -1.951993346214294434e+00 -1.483960270881652832e+00 -5.511775016784667969e-01 -2.442264318466186523e+00 -6.589432954788208008e-01 -3.003538958728313446e-02 -6.854607462882995605e-01 -2.832697518169879913e-02 -2.059884309768676758e+00 -1.827213913202285767e-01 -1.406757473945617676e+00 -1.319812536239624023e+00 -2.899655997753143311e-01 -1.906135201454162598e+00 -3.539054989814758301e-01 2.108169078826904297e+00 -1.143020153045654297e+00 -4.437899887561798096e-01 -6.615733504295349121e-01 -4.940597712993621826e-01 -6.371973156929016113e-01 -2.213819742202758789e+00 -2.795952856540679932e-01 -7.307729125022888184e-01 -3.723494291305541992e+00 -2.261836528778076172e+00 -3.330023050308227539e+00 -2.771301746368408203e+00 -5.423781871795654297e-01 -6.057285070419311523e-01 -3.710585832595825195e-01 -2.142845630645751953e+00 -9.518833756446838379e-01 -3.213905096054077148e+00 -4.397375583648681641e-01 -6.235009431838989258e-01 -5.124611258506774902e-01 -5.750847458839416504e-01 -5.807512402534484863e-01 -8.383570313453674316e-01 -4.622878432273864746e-01 -4.291164278984069824e-01 -4.709295928478240967e-01 -6.701294779777526855e-01 -1.488749533891677856e-01 -5.544391870498657227e-01 -1.744944155216217041e-01 -5.916934013366699219e-01 -4.885319769382476807e-01 -1.153693914413452148e+00 -1.562061190605163574e+00 -2.728586196899414062e+00 -5.669287443161010742e-01 -3.425322473049163818e-01 5.583568662405014038e-02 -8.856159448623657227e-01 -5.644097924232482910e-01
