# 60 60
3.912190496921539307e-01 -7.103201150894165039e-01 -4.957769215106964111e-01 -9.448400139808654785e-02 6.994521617889404297e-01 -7.187334895133972168e-01 4.536403715610504150e-01 -5.694258809089660645e-01 -3.432000577449798584e-01 -1.577198654413223267e-01 -5.808435678482055664e-01 1.195165794342756271e-02 6.456658840179443359e-01 -6.525593996047973633e-01 8.406771421432495117e-01 2.189803719520568848e-01 2.236631661653518677e-01 -3.888514637947082520e-01 -4.749182462692260742e-01 -7.218137979507446289e-01 -4.485383033752441406e-01 -3.492557108402252197e-01 -3.574987649917602539e-01 9.387511014938354492e-01 -5.635927915573120117e-01 -4.775612056255340576e-01 2.893350422382354736e-01 3.944067955017089844e-01 -5.148614048957824707e-01 1.644880622625350952e-01 -6.248269677162170410e-01 2.199520319700241089e-01 7.391147017478942871e-01 4.700324833393096924e-01 -6.519528627395629883e-01 1.013124942779541016e+00 2.062160968780517578e-01 1.537256389856338501e-01 -6.340457797050476074e-01 -3.273721635341644287e-01 -5.356678962707519531e-01 1.393765509128570557e-01 4.556327462196350098e-01 -5.794502496719360352e-01 -3.584191203117370605e-01 -6.169697642326354980e-01 6.409397125244140625e-01 4.250691533088684082e-01 -3.527073562145233154e-01 -4.697310328483581543e-01 -5.082131028175354004e-01 5.320609807968139648e-01 -4.456288516521453857e-01 -5.530164241790771484e-01 2.910630404949188232e-01 -4.374379813671112061e-01 -3.419277071952819824e-01 2.290675193071365356e-01 -4.937313497066497803e-01 -4.594403207302093506e-01
6.750545501708984375e-01 -5.600882768630981445e-01 -5.735235810279846191e-01 2.713098824024200439e-01 6.803697347640991211e-01 -2.871167063713073730e-01 8.667379617691040039e-01 -6.080808639526367188e-01 -5.427697896957397461e-01 -1.654691845178604126e-01 -4.926570951938629150e-01 3.919137716293334961e-01 7.680534124374389648e-01 -6.981862187385559082e-01 8.445838093757629395e-01 2.102179974317550659e-01 8.795344084501266479e-02 -4.510748386383056641e-01 -6.169394254684448242e-01 -6.860617399215698242e-01 -6.904007196426391602e-01 -6.718008518218994141e-01 -6.756762862205505371e-01 9.006361365318298340e-01 -4.864467084407806396e-01 -3.273642361164093018e-01 3.088347017765045166e-01 2.148165255784988403e-01 -4.263405501842498779e-01 -3.599041327834129333e-02 -3.492622375488281250e-01 1.731023192405700684e-01 4.953268468379974365e-01 8.959426283836364746e-01 -3.165995180606842041e-01 8.923276662826538086e-01 2.757071256637573242e-01 8.380448073148727417e-02 -2.918969690799713135e-01 -5.421689152717590332e-01 -4.760201871395111084e-01 -1.759181730449199677e-02 3.079209327697753906e-01 -2.798257172107696533e-01 -4.095498919486999512e-01 -6.811661720275878906e-01 6.842444539070129395e-01 3.298006355762481689e-01 -5.087356567382812500e-01 -4.481535851955413818e-01 -4.352973699569702148e-01 6.450436711311340332e-01 -4.589950740337371826e-01 -5.094634294509887695e-01 3.303254246711730957e-01 -3.078588545322418213e-01 -3.560665845870971680e-01 2.714092731475830078e-01 -4.099009335041046143e-01 -5.976678729057312012e-01
-3.382872581481933594e+00 -5.168838500976562500e-01 -3.468567430973052979e-01 -1.136214211583137512e-01 -1.974298954010009766e+00 -6.729081273078918457e-01 -2.202597379684448242e+00 -5.516478419303894043e-01 -6.446815133094787598e-01 9.579288363456726074e-01 -5.133487582206726074e-01 -3.417398333549499512e-01 -3.061835050582885742e+00 -6.036250591278076172e-01 -2.898824214935302734e+00 -2.618265151977539062e+00 -2.115634202957153320e+00 -6.363700032234191895e-01 -3.847595751285552979e-01 -3.819331526756286621e-01 -4.903745949268341064e-01 -2.879252731800079346e-01 -6.061192154884338379e-01 -2.887762784957885742e+00 -4.283933341503143311e-01 -2.827935516834259033e-01 -6.440031528472900391e-01 -3.850474953651428223e-01 -6.137023568153381348e-01 3.047091722488403320e+00 -6.532549858093261719e-01 -1.065460294485092163e-01 -1.892053961753845215e+00 -2.171435117721557617e+00 -3.720314800739288330e-01 -2.742626667022705078e+00 -2.469614982604980469e+00 -7.006869912147521973e-01 -6.709518432617187500e-01 -5.901967287063598633e-01 -6.666688919067382812e-01 -1.323875039815902710e-01 -7.018192410469055176e-01 -3.251354694366455078e-01 -4.967347979545593262e-01 -4.244276583194732666e-01 -2.214813232421875000e+00 -3.976208865642547607e-01 -3.901202380657196045e-01 -4.005768001079559326e-01 -4.805411696434020996e-01 -1.451072931289672852e+00 -6.330367326736450195e-01 -3.172403872013092041e-01 -4.209129512310028076e-01 -5.926883220672607422e-01 -5.367152094841003418e-01 -2.629888534545898438e+00 -4.333161115646362305e-01 -4.203822910785675049e-01
4.635627865791320801e-01 -6.402731537818908691e-01 -2.982548773288726807e-01 -1.170260012149810791e-01 3.552502393722534180e-01 -5.071606040000915527e-01 3.219213485717773438e-01 -5.383026599884033203e-01 -3.467448055744171143e-01 -6.974438671022653580e-03 -3.640072047710418701e-01 2.735096514225006104e-01 7.645543217658996582e-01 -4.780982732772827148e-01 6.463813781738281250e-01 3.063250482082366943e-01 1.277659554034471512e-02 -3.153772950172424316e-01 -4.636442661285400391e-01 -6.737492680549621582e-01 -5.998582243919372559e-01 -4.564216732978820801e-01 -3.043000102043151855e-01 8.677142858505249023e-01 -4.540223479270935059e-01 -6.250069141387939453e-01 3.068492710590362549e-01 1.393954362720251083e-02 -2.910533249378204346e-01 4.199835658073425293e-01 -5.707122683525085449e-01 1.086518317461013794e-01 6.259787082672119141e-01 7.265735864639282227e-01 -5.943413972854614258e-01 5.243808627128601074e-01 1.896841824054718018e-01 3.339740335941314697e-01 -4.078534841537475586e-01 -6.251550316810607910e-01 -3.475921750068664551e-01 -4.510444402694702148e-02 5.711808428168296814e-02 -5.843830108642578125e-01 -4.791404306888580322e-01 -5.635050535202026367e-01 6.184933185577392578e-01 3.857893347740173340e-01 -6.068876981735229492e-01 -5.318574309349060059e-01 -3.622894883155822754e-01 3.928632140159606934e-01 -6.387388706207275391e-01 -6.707475185394287109e-01 3.628419935703277588e-01 -2.787899076938629150e-01 -2.835749685764312744e-01 4.552773237228393555e-01 -7.094242572784423828e-01 -3.861180245876312256e-01
3.578388094902038574e-01 -5.451551079750061035e-01 -5.175414085388183594e-01 9.060236066579818726e-02 1.085931181907653809e+00 -3.106964230537414551e-01 1.179758787155151367e+00 -6.052923798561096191e-01 -6.941826939582824707e-01 -4.196041822433471680e-02 -6.893939375877380371e-01 1.354974210262298584e-01 1.572199314832687378e-01 -3.245792686939239502e-01 1.427597284317016602e+00 7.174322009086608887e-02 -2.491674125194549561e-01 -4.611731171607971191e-01 -3.335191905498504639e-01 -3.668545484542846680e-01 -6.843315362930297852e-01 -3.940525949001312256e-01 -6.717873215675354004e-01 1.315913200378417969e+00 -3.637048006057739258e-01 -4.919244647026062012e-01 4.290510714054107666e-01 -9.065305814146995544e-03 -3.022724390029907227e-01 -2.094780951738357544e-01 -4.263959228992462158e-01 9.288271516561508179e-02 9.199506640434265137e-01 1.029059529304504395e+00 -3.342120647430419922e-01 1.181945919990539551e+00 1.053660735487937927e-01 2.914741933345794678e-01 -3.377000689506530762e-01 -2.913462221622467041e-01 -3.777751028537750244e-01 4.601728916168212891e-02 4.291958510875701904e-01 -6.678516864776611328e-01 -4.929643869400024414e-01 -3.898745477199554443e-01 1.386053562164306641e+00 3.785328567028045654e-01 -4.065331220626831055e-01 -4.643630981445312500e-01 -6.077160835266113281e-01 6.408910751342773438e-01 -4.704342782497406006e-01 -4.818600416183471680e-01 1.102733537554740906e-01 -3.039014637470245361e-01 -3.440249562263488770e-01 -5.887774750590324402e-03 -5.649254918098449707e-01 -6.444814205169677734e-01
3.270293176174163818e-01 -6.852955818176269531e-01 -4.190079271793365479e-01 -1.079206988215446472e-01 9.583821296691894531e-01 -4.037424027919769287e-01 9.046344757080078125e-01 -3.119296729564666748e-01 -7.194394469261169434e-01 -2.917678654193878174e-02 -4.392125308513641357e-01 1.974163055419921875e-01 5.187457203865051270e-01 -7.073001861572265625e-01 1.142276406288146973e+00 -7.812391966581344604e-02 -3.238091766834259033e-01 -3.705884218215942383e-01 -2.900055646896362305e-01 -7.139974832534790039e-01 -3.466019332408905029e-01 -3.726506829261779785e-01 -4.829850196838378906e-01 1.307659983634948730e+00 -5.240963697433471680e-01 -5.154727101325988770e-01 5.981253087520599365e-02 2.876106500625610352e-01 -5.106806755065917969e-01 -5.715926736593246460e-02 -2.809548676013946533e-01 -2.619567327201366425e-02 8.156637549400329590e-01 1.072158336639404297e+00 -6.918617486953735352e-01 1.289014935493469238e+00 3.963296860456466675e-02 2.602360844612121582e-01 -5.621297955513000488e-01 -5.485548973083496094e-01 -6.020048260688781738e-01 1.207860484719276428e-01 2.108557373285293579e-01 -4.615799188613891602e-01 -3.447524905204772949e-01 -3.775537610054016113e-01 9.272665381431579590e-01 4.419299066066741943e-01 -6.167613267898559570e-01 -5.987428426742553711e-01 -4.531573057174682617e-01 5.691404938697814941e-01 -6.901334524154663086e-01 -7.204445600509643555e-01 1.272753328084945679e-01 -2.837053537368774414e-01 -6.216260194778442383e-01 3.217918574810028076e-01 -5.030907988548278809e-01 -4.272337257862091064e-01
1.170903563499450684e+00 -6.756657361984252930e-01 -3.424393534660339355e-01 5.696228891611099243e-02 5.355763435363769531e-01 -4.479727149009704590e-01 6.540409922599792480e-01 -6.380060911178588867e-01 -5.335666537284851074e-01 -1.126730069518089294e-01 -4.677799642086029053e-01 4.193960726261138916e-01 9.793310165405273438e-01 -6.853659749031066895e-01 7.674040794372558594e-01 4.629886746406555176e-01 4.020953476428985596e-01 -4.793963730335235596e-01 -4.956505000591278076e-01 -5.117602944374084473e-01 -3.366153836250305176e-01 -6.801845431327819824e-01 -6.092201471328735352e-01 1.022728085517883301e+00 -5.223349928855895996e-01 -4.426756203174591064e-01 2.283035218715667725e-02 4.615884274244308472e-02 -3.725014626979827881e-01 4.321438074111938477e-01 -4.127916097640991211e-01 -1.534328460693359375e-01 5.055411458015441895e-01 7.184523344039916992e-01 -4.332948029041290283e-01 7.209217548370361328e-01 8.406991958618164062e-01 2.129126638174057007e-01 -6.701698899269104004e-01 -5.126543045043945312e-01 -4.058269262313842773e-01 2.561003863811492920e-01 4.329676926136016846e-01 -7.010978460311889648e-01 -3.979094326496124268e-01 -6.746573448181152344e-01 7.063763141632080078e-01 5.704374611377716064e-02 -4.033092558383941650e-01 -5.608386397361755371e-01 -4.307805299758911133e-01 3.952278792858123779e-01 -5.440524816513061523e-01 -4.706808328628540039e-01 2.866375148296356201e-01 -7.036412358283996582e-01 -5.062281489372253418e-01 5.603342652320861816e-01 -3.279275298118591309e-01 -4.037074446678161621e-01
-1.095057964324951172e+00 -3.699302375316619873e-01 -6.801504492759704590e-01 -1.884271502494812012e-01 -5.217570662498474121e-01 -4.674624800682067871e-01 -5.733554959297180176e-01 -6.652929782867431641e-01 -3.714489936828613281e-01 4.007604122161865234e-01 -5.380282402038574219e-01 -2.446570992469787598e-01 -1.195827126502990723e+00 -3.042708039283752441e-01 -7.199525237083435059e-01 -7.373288273811340332e-01 -3.997055888175964355e-01 -4.723944067955017090e-01 -4.564509987831115723e-01 -6.226842999458312988e-01 -3.088674843311309814e-01 -3.286523222923278809e-01 -3.218418955802917480e-01 -5.399844646453857422e-01 -6.764132380485534668e-01 -4.578457474708557129e-01 -8.761182427406311035e-02 1.256911754608154297e-01 -3.037113547325134277e-01 9.677341580390930176e-01 -5.223120450973510742e-01 1.369495242834091187e-01 -4.223831892013549805e-01 -2.931986749172210693e-01 -6.728941202163696289e-01 -8.532883524894714355e-01 -6.968047022819519043e-01 -1.783956587314605713e-01 -4.864384829998016357e-01 -5.269204974174499512e-01 -6.851574182510375977e-01 -9.863986074924468994e-02 -3.539830148220062256e-01 -6.794905066490173340e-01 -4.989414513111114502e-01 -3.355651795864105225e-01 -3.861918747425079346e-01 -2.476136535406112671e-01 -4.437325894832611084e-01 -4.002883136272430420e-01 -4.262106418609619141e-01 -3.675311207771301270e-01 -5.111632347106933594e-01 -3.214672207832336426e-01 1.153894439339637756e-01 -3.202484548091888428e-01 -4.046551585197448730e-01 -8.986721038818359375e-01 -3.799836933612823486e-01 -6.805513501167297363e-01
-2.284220010042190552e-01 -3.908823132514953613e-01 -6.562926173210144043e-01 5.037369951605796814e-02 4.457553029060363770e-01 -6.295927762985229492e-01 5.531277656555175781e-01 -4.171485304832458496e-01 -6.886422634124755859e-01 9.393776953220367432e-02 -2.958926856517791748e-01 -8.413286507129669189e-02 5.571827292442321777e-02 -2.953199744224548340e-01 3.754239976406097412e-01 -3.796733617782592773e-01 -1.913650184869766235e-01 -5.269745588302612305e-01 -3.292204439640045166e-01 -4.610861241817474365e-01 -6.880073547363281250e-01 -4.354765117168426514e-01 -4.894261360168457031e-01 5.067406892776489258e-01 -5.258418321609497070e-01 -6.716225743293762207e-01 2.428140342235565186e-01 4.759897664189338684e-02 -3.079178631305694580e-01 7.741830497980117798e-02 -7.205945253372192383e-01 -1.412733942270278931e-01 4.020333886146545410e-01 6.338890790939331055e-01 -2.979843914508819580e-01 6.910507678985595703e-01 -1.535266339778900146e-01 1.422399003058671951e-02 -3.247173726558685303e-01 -7.104026079177856445e-01 -3.867067098617553711e-01 -2.095536738634109497e-01 -8.135818876326084137e-03 -4.690199196338653564e-01 -4.677177071571350098e-01 -4.830311536788940430e-01 6.149191260337829590e-01 -3.467439115047454834e-02 -5.423505306243896484e-01 -7.096667289733886719e-01 -3.965765535831451416e-01 3.674605488777160645e-01 -4.001393020153045654e-01 -3.330662250518798828e-01 2.983791753649711609e-02 -4.660421311855316162e-01 -5.641869902610778809e-01 5.195172876119613647e-02 -6.780426502227783203e-01 -3.365784883499145508e-01
1.621552705764770508e-01 -3.601503372192382812e-01 -2.906643450260162354e-01 1.158771570771932602e-02 6.476654410362243652e-01 -5.558122992515563965e-01 4.621146917343139648e-01 -5.590867400169372559e-01 -3.657988607883453369e-01 1.058811172842979431e-01 -4.998210370540618896e-01 2.929983139038085938e-01 3.728077188134193420e-02 -4.982742369174957275e-01 4.873647391796112061e-01 -2.976011037826538086e-01 7.212985306978225708e-02 -2.845751345157623291e-01 -5.788497328758239746e-01 -3.137982785701751709e-01 -5.649648904800415039e-01 -3.854055106639862061e-01 -4.133767783641815186e-01 5.786574482917785645e-01 -5.961299538612365723e-01 -6.382374763488769531e-01 3.259174525737762451e-01 2.538571357727050781e-01 -5.518799424171447754e-01 6.372528523206710815e-02 -5.046924948692321777e-01 -1.194642782211303711e-01 4.355973601341247559e-01 6.392157077789306641e-01 -5.168455839157104492e-01 6.961730122566223145e-01 2.417498379945755005e-01 3.474489748477935791e-01 -6.782081723213195801e-01 -4.025356769561767578e-01 -5.352222919464111328e-01 9.887789934873580933e-02 3.069354891777038574e-01 -6.320053339004516602e-01 -4.164453744888305664e-01 -3.901368379592895508e-01 3.519366085529327393e-01 -8.569106459617614746e-03 -5.218957066535949707e-01 -5.804333686828613281e-01 -6.230720281600952148e-01 2.892409265041351318e-01 -5.948186516761779785e-01 -3.767293393611907959e-01 3.275110423564910889e-01 -4.865956306457519531e-01 -4.270978271961212158e-01 2.366001158952713013e-01 -5.438231229782104492e-01 -6.294572353363037109e-01
1.171855568885803223e+00 -3.975948393344879150e-01 -5.418194532394409180e-01 3.634861856698989868e-02 1.010255217552185059e+00 -3.749127089977264404e-01 8.132892251014709473e-01 -3.369388282299041748e-01 -2.803977429866790771e-01 2.318283170461654663e-01 -3.518915176391601562e-01 4.525282680988311768e-01 9.526190757751464844e-01 -7.038135528564453125e-01 1.176888227462768555e+00 4.385867714881896973e-01 2.602840065956115723e-01 -5.023301839828491211e-01 -3.145139515399932861e-01 -3.791159391403198242e-01 -5.233027338981628418e-01 -3.661406636238098145e-01 -6.018508076667785645e-01 1.378320217132568359e+00 -2.862448096275329590e-01 -5.413359999656677246e-01 2.995493113994598389e-01 9.257889539003372192e-02 -5.669245123863220215e-01 2.379912585020065308e-01 -4.294083118438720703e-01 -1.078509390354156494e-01 8.575705885887145996e-01 8.073256611824035645e-01 -5.775861740112304688e-01 1.356716990470886230e+00 6.075053811073303223e-01 3.829749524593353271e-01 -6.281969547271728516e-01 -2.991149723529815674e-01 -4.104918241500854492e-01 1.922690868377685547e-01 4.010637998580932617e-01 -4.634641110897064209e-01 -4.551863670349121094e-01 -5.435908436775207520e-01 1.151323556900024414e+00 4.005502164363861084e-01 -3.142081499099731445e-01 -3.645810186862945557e-01 -3.428224921226501465e-01 7.424428462982177734e-01 -3.357690870761871338e-01 -5.489770174026489258e-01 1.635634303092956543e-01 -3.566724658012390137e-01 -5.345415472984313965e-01 5.431125164031982422e-01 -6.921619772911071777e-01 -3.454349040985107422e-01
-1.576355218887329102e+00 -5.764167308807373047e-01 -4.059894979000091553e-01 -8.565556257963180542e-02 -7.730327248573303223e-01 -3.775997459888458252e-01 -9.754199981689453125e-01 -4.783235788345336914e-01 -2.921430468559265137e-01 3.997170031070709229e-01 -6.853792667388916016e-01 -4.289774894714355469e-01 -1.376593947410583496e+00 -5.614542961120605469e-01 -1.202749013900756836e+00 -1.132475733757019043e+00 -8.054053783416748047e-01 -7.178998589515686035e-01 -5.438693165779113770e-01 -4.127053022384643555e-01 -3.287816643714904785e-01 -3.207692205905914307e-01 -4.805080294609069824e-01 -1.160597443580627441e+00 -3.492952287197113037e-01 -3.627985119819641113e-01 -2.333841770887374878e-01 -3.603692352771759033e-02 -7.057755589485168457e-01 1.233080267906188965e+00 -4.498379528522491455e-01 -1.508453786373138428e-01 -7.716866135597229004e-01 -6.841282248497009277e-01 -6.800436973571777344e-01 -1.036968350410461426e+00 -8.270337581634521484e-01 -3.722756803035736084e-01 -6.364055871963500977e-01 -6.864663362503051758e-01 -4.639385044574737549e-01 -2.805375158786773682e-01 -1.554056257009506226e-01 -5.699365139007568359e-01 -3.732501864433288574e-01 -3.507622778415679932e-01 -8.551285862922668457e-01 -1.597734540700912476e-01 -5.675633549690246582e-01 -7.115156054496765137e-01 -2.955097854137420654e-01 -5.052503347396850586e-01 -5.400059819221496582e-01 -3.045401573181152344e-01 -6.122804060578346252e-02 -7.094281911849975586e-01 -7.097362875938415527e-01 -1.072756290435791016e+00 -5.023428797721862793e-01 -6.569131612777709961e-01
2.075825184583663940e-01 -5.453857779502868652e-01 -5.527321100234985352e-01 2.941921725869178772e-02 6.170865148305892944e-02 -5.154256820678710938e-01 2.590882033109664917e-02 -3.097361326217651367e-01 -3.524424731731414795e-01 2.519518435001373291e-01 -5.086526274681091309e-01 1.984373927116394043e-01 1.353697329759597778e-01 -5.886119008064270020e-01 8.213266730308532715e-02 6.009934842586517334e-02 1.536073163151741028e-03 -3.565737605094909668e-01 -3.720677196979522705e-01 -6.254798173904418945e-01 -5.288731455802917480e-01 -4.135184586048126221e-01 -4.181261360645294189e-01 2.671827971935272217e-01 -3.003968894481658936e-01 -3.843313455581665039e-01 -1.386547833681106567e-01 2.389946728944778442e-01 -2.981222867965698242e-01 4.648083746433258057e-01 -4.036690592765808105e-01 -6.844856590032577515e-02 7.547917217016220093e-02 2.427370250225067139e-01 -5.103393197059631348e-01 1.150532905012369156e-02 2.099541574716567993e-01 -9.705328196287155151e-02 -3.814379572868347168e-01 -6.924079060554504395e-01 -4.908267557621002197e-01 -1.061597093939781189e-01 2.996996641159057617e-01 -5.877311229705810547e-01 -3.547769188880920410e-01 -5.920378565788269043e-01 -8.177921175956726074e-02 7.050640136003494263e-02 -4.595048129558563232e-01 -6.292200684547424316e-01 -6.258152723312377930e-01 1.422903686761856079e-01 -2.670951783657073975e-01 -4.578494727611541748e-01 -5.798744782805442810e-02 -6.859352588653564453e-01 -3.973238468170166016e-01 9.549537301063537598e-02 -3.152940869331359863e-01 -4.470030665397644043e-01
-7.444198131561279297e-01 -7.162101268768310547e-01 -3.891700208187103271e-01 1.244807168841362000e-01 -7.742857187986373901e-02 -6.500493884086608887e-01 -2.157967239618301392e-01 -5.131949186325073242e-01 -4.229116439819335938e-01 -2.548030391335487366e-02 -4.797080159187316895e-01 -1.803160756826400757e-01 -5.075929164886474609e-01 -5.121965408325195312e-01 -3.214024901390075684e-01 -8.255402445793151855e-01 -5.357205867767333984e-01 -6.458443403244018555e-01 -5.115991830825805664e-01 -3.187183439731597900e-01 -4.018278717994689941e-01 -3.475755453109741211e-01 -4.448116719722747803e-01 -5.595692992210388184e-01 -3.321656584739685059e-01 -4.715286791324615479e-01 7.627610117197036743e-02 -2.476703971624374390e-01 -4.129556119441986084e-01 8.928798437118530273e-01 -4.412041902542114258e-01 -2.156671583652496338e-01 -1.670296490192413330e-01 -4.248552024364471436e-01 -6.348347663879394531e-01 -3.179453611373901367e-01 -6.509048938751220703e-01 7.657647132873535156e-02 -3.356488943099975586e-01 -6.443301439285278320e-01 -4.441337287425994873e-01 -6.432565301656723022e-02 -2.605943977832794189e-01 -5.842242836952209473e-01 -3.184245228767395020e-01 -2.989879250526428223e-01 -3.762881457805633545e-01 -1.843942105770111084e-01 -5.807282924652099609e-01 -5.012025237083435059e-01 -4.162630438804626465e-01 -1.659107804298400879e-01 -4.473026692867279053e-01 -6.046141982078552246e-01 1.525519322603940964e-02 -4.042764008045196533e-01 -4.363757669925689697e-01 -6.078739762306213379e-01 -2.988785803318023682e-01 -3.749347329139709473e-01
-5.534332394599914551e-01 -4.933327138423919678e-01 -5.618370175361633301e-01 -1.028852015733718872e-01 -3.695560693740844727e-01 -3.069802820682525635e-01 -2.476492375135421753e-01 -7.086292505264282227e-01 -4.775839447975158691e-01 3.248744010925292969e-01 -6.485403180122375488e-01 4.886766150593757629e-02 -8.488176465034484863e-01 -6.642168164253234863e-01 -5.895098447799682617e-01 -5.637223720550537109e-01 -3.741100430488586426e-01 -5.500742793083190918e-01 -7.037202119827270508e-01 -5.454134941101074219e-01 -5.793589353561401367e-01 -5.257047414779663086e-01 -6.326586604118347168e-01 -4.339798688888549805e-01 -3.654256463050842285e-01 -3.002242147922515869e-01 -1.272139996290206909e-01 -4.980934411287307739e-02 -2.955199182033538818e-01 8.876245617866516113e-01 -5.263056159019470215e-01 1.428578943014144897e-01 -2.838515937328338623e-01 -4.170665442943572998e-01 -4.092083871364593506e-01 -5.165491700172424316e-01 -7.253389358520507812e-01 -3.919478133320808411e-02 -7.198453545570373535e-01 -4.225060045719146729e-01 -3.723813593387603760e-01 -8.641328662633895874e-02 7.387204468250274658e-02 -3.133663535118103027e-01 -6.024355292320251465e-01 -3.221259117126464844e-01 -1.826768815517425537e-01 4.784870147705078125e-02 -6.201526522636413574e-01 -5.712745785713195801e-01 -5.679213404655456543e-01 -2.851610481739044189e-01 -5.244638323783874512e-01 -5.668520331382751465e-01 -1.615820825099945068e-01 -5.135759115219116211e-01 -5.719389915466308594e-01 -5.908703804016113281e-01 -7.198076248168945312e-01 -5.084735155105590820e-01
1.542191267013549805e+00 -5.819481611251831055e-01 -2.888285517692565918e-01 2.250216901302337646e-01 1.007326245307922363e+00 -6.994917988777160645e-01 9.614941477775573730e-01 -4.754118323326110840e-01 -6.830383539199829102e-01 -8.146005868911743164e-02 -5.739753246307373047e-01 3.324497938156127930e-01 1.551181435585021973e+00 -3.885215818881988525e-01 1.074337959289550781e+00 8.447915911674499512e-01 3.351739943027496338e-01 -4.720671772956848145e-01 -2.929475605487823486e-01 -3.663213551044464111e-01 -6.654882431030273438e-01 -4.455934166908264160e-01 -2.942007780075073242e-01 1.211041569709777832e+00 -3.236874639987945557e-01 -4.120778739452362061e-01 6.094880774617195129e-02 5.166632309556007385e-02 -5.107709169387817383e-01 4.389845579862594604e-02 -6.005777716636657715e-01 1.975761502981185913e-01 6.758480668067932129e-01 8.897976279258728027e-01 -5.246503949165344238e-01 1.164911031723022461e+00 9.136095046997070312e-01 3.965940326452255249e-02 -4.240373075008392334e-01 -3.615876734256744385e-01 -4.103160202503204346e-01 -7.223378866910934448e-02 4.415549635887145996e-01 -4.987863004207611084e-01 -3.974147140979766846e-01 -4.668754339218139648e-01 1.051503181457519531e+00 1.619253009557723999e-01 -5.277040600776672363e-01 -4.730222523212432861e-01 -4.560033082962036133e-01 7.044709920883178711e-01 -7.067005038261413574e-01 -3.065664768218994141e-01 3.083314001560211182e-01 -4.475515484809875488e-01 -5.269240736961364746e-01 8.256134986877441406e-01 -6.226809620857238770e-01 -7.226111292839050293e-01
1.163258850574493408e-01 -6.409046053886413574e-01 -4.353736340999603271e-01 7.568056881427764893e-02 8.458533883094787598e-01 -2.902720570564270020e-01 6.423135995864868164e-01 -6.074848771095275879e-01 -6.716127991676330566e-01 1.151848807930946350e-01 -5.273593068122863770e-01 3.633066713809967041e-01 2.517687678337097168e-01 -3.658138215541839600e-01 9.839263558387756348e-01 -3.131381571292877197e-01 -2.743715047836303711e-01 -3.695408105850219727e-01 -6.773819327354431152e-01 -5.984699726104736328e-01 -4.054283797740936279e-01 -3.535148799419403076e-01 -2.781186401844024658e-01 1.138639330863952637e+00 -2.875406742095947266e-01 -3.390396237373352051e-01 1.096726953983306885e-01 1.395314782857894897e-01 -5.556319355964660645e-01 -2.794728428125381470e-02 -5.800688862800598145e-01 1.565026491880416870e-01 6.113477349281311035e-01 6.931319832801818848e-01 -6.270144581794738770e-01 1.085041284561157227e+00 1.687957644462585449e-01 3.103447258472442627e-01 -5.209574103355407715e-01 -4.620401263236999512e-01 -5.807133316993713379e-01 1.751317679882049561e-01 3.873004615306854248e-01 -3.028650581836700439e-01 -4.358262717723846436e-01 -7.200385928153991699e-01 1.150570750236511230e+00 1.776543259620666504e-01 -6.995576024055480957e-01 -5.139498710632324219e-01 -3.839389681816101074e-01 8.132892847061157227e-01 -3.857720792293548584e-01 -3.951570093631744385e-01 4.147207736968994141e-02 -5.369016528129577637e-01 -6.408193707466125488e-01 2.247763127088546753e-01 -4.066791534423828125e-01 -5.851227045059204102e-01
2.892838478088378906e+00 -4.225914776325225830e-01 -5.078285932540893555e-01 -1.874236576259136200e-02 1.017270207405090332e+00 -3.300697803497314453e-01 9.906128048896789551e-01 -5.319240093231201172e-01 -3.917667269706726074e-01 2.018124610185623169e-01 -6.319860816001892090e-01 5.196511745452880859e-01 2.852175712585449219e+00 -4.394711852073669434e-01 1.718171954154968262e+00 1.804671883583068848e+00 1.324750185012817383e+00 -6.303666830062866211e-01 -2.939928472042083740e-01 -5.392596721649169922e-01 -3.068297505378723145e-01 -5.916591286659240723e-01 -6.725709438323974609e-01 1.542263388633728027e+00 -5.066350102424621582e-01 -5.159223675727844238e-01 1.963669359683990479e-01 1.870346069335937500e-01 -4.578130245208740234e-01 -7.839083671569824219e-03 -3.747996091842651367e-01 -3.633546084165573120e-02 1.153420329093933105e+00 1.237575531005859375e+00 -2.783442437648773193e-01 1.642751097679138184e+00 1.754324913024902344e+00 3.969882726669311523e-01 -5.223262310028076172e-01 -5.349486470222473145e-01 -4.157628118991851807e-01 2.274179086089134216e-02 6.278262138366699219e-01 -4.879426956176757812e-01 -5.824011564254760742e-01 -5.908335447311401367e-01 1.249392986297607422e+00 6.140325665473937988e-01 -5.941122770309448242e-01 -7.071284651756286621e-01 -4.418117403984069824e-01 1.024306297302246094e+00 -3.552385270595550537e-01 -3.669381737709045410e-01 3.961659371852874756e-01 -3.175384402275085449e-01 -5.903594493865966797e-01 2.144964456558227539e+00 -5.741409659385681152e-01 -5.825793743133544922e-01
-3.016824960708618164e+00 -4.474924802780151367e-01 -6.906577348709106445e-01 -3.252866864204406738e-01 -1.517042040824890137e+00 -3.962930142879486084e-01 -1.552264928817749023e+00 -5.514942407608032227e-01 -4.516909420490264893e-01 5.528172254562377930e-01 -6.568485498428344727e-01 -6.770259737968444824e-01 -2.737040758132934570e+00 -4.135993421077728271e-01 -2.540938138961791992e+00 -2.558289766311645508e+00 -1.480684876441955566e+00 -5.036945939064025879e-01 -3.337593674659729004e-01 -5.165714621543884277e-01 -3.853332102298736572e-01 -5.753737688064575195e-01 -4.300389587879180908e-01 -2.547696828842163086e+00 -6.567587852478027344e-01 -4.965301156044006348e-01 -3.023785650730133057e-01 -4.031559824943542480e-01 -6.975514292716979980e-01 2.935858011245727539e+00 -5.020382404327392578e-01 1.936417818069458008e-01 -1.369127035140991211e+00 -1.898428678512573242e+00 -6.096852421760559082e-01 -2.245299816131591797e+00 -2.247565746307373047e+00 -6.306432485580444336e-01 -5.115975141525268555e-01 -4.988731145858764648e-01 -5.683274865150451660e-01 -1.892015784978866577e-01 -7.796513438224792480e-01 -5.044152140617370605e-01 -3.172088265419006348e-01 -5.947552323341369629e-01 -2.059355020523071289e+00 -6.248158216476440430e-01 -6.052315831184387207e-01 -7.001756429672241211e-01 -5.995584130287170410e-01 -1.268285393714904785e+00 -5.357187986373901367e-01 -4.788938760757446289e-01 -5.827096104621887207e-01 -5.910475850105285645e-01 -6.879035830497741699e-01 -2.237843275070190430e+00 -5.629310011863708496e-01 -3.168412446975708008e-01
4.597848653793334961e-02 -3.306111991405487061e-01 -4.566544592380523682e-01 -1.846738159656524658e-01 5.282810330390930176e-01 -6.245946288108825684e-01 5.213783979415893555e-01 -5.353007912635803223e-01 -5.598300099372863770e-01 -6.974849104881286621e-02 -6.571579575538635254e-01 3.027368783950805664e-01 -1.128109246492385864e-01 -6.797773838043212891e-01 9.026725292205810547e-01 -4.516813158988952637e-01 -2.101877480745315552e-01 -4.893476963043212891e-01 -3.753470480442047119e-01 -7.215455174446105957e-01 -3.054521679878234863e-01 -5.419386029243469238e-01 -3.621229231357574463e-01 6.374486088752746582e-01 -5.510535240173339844e-01 -5.142518281936645508e-01 1.419621556997299194e-01 3.329260051250457764e-01 -4.612034261226654053e-01 -7.893580943346023560e-02 -3.384972214698791504e-01 -7.623354345560073853e-02 6.050785779953002930e-01 6.718472838401794434e-01 -3.847958743572235107e-01 7.293844819068908691e-01 -2.843524329364299774e-02 3.162850141525268555e-01 -7.073263525962829590e-01 -3.144452869892120361e-01 -3.554573953151702881e-01 -1.811302304267883301e-01 4.215894341468811035e-01 -5.221514105796813965e-01 -3.928854465484619141e-01 -5.353674888610839844e-01 8.199427127838134766e-01 3.498131930828094482e-01 -4.290226995944976807e-01 -5.840128660202026367e-01 -5.153132677078247070e-01 5.623190999031066895e-01 -3.134258091449737549e-01 -3.823994696140289307e-01 1.567095071077346802e-01 -4.082655012607574463e-01 -4.629977643489837646e-01 -2.501528561115264893e-01 -7.036577463150024414e-01 -2.845929563045501709e-01
1.010809019207954407e-01 -4.602011740207672119e-01 -6.575554609298706055e-01 1.583040319383144379e-02 1.701412349939346313e-01 -2.843139171600341797e-01 3.540840148925781250e-01 -3.646539747714996338e-01 -4.768008291721343994e-01 -4.327623546123504639e-02 -4.242008328437805176e-01 1.989765167236328125e-01 1.966759264469146729e-01 -3.489847183227539062e-01 7.017406225204467773e-01 -3.727500736713409424e-01 -2.854430675506591797e-01 -5.796039104461669922e-01 -6.298251152038574219e-01 -5.156975388526916504e-01 -6.660082340240478516e-01 -6.066103577613830566e-01 -7.056418061256408691e-01 6.961845159530639648e-01 -5.083400607109069824e-01 -3.959999382495880127e-01 1.388415843248367310e-01 -6.317815277725458145e-03 -4.605688154697418213e-01 3.803078830242156982e-01 -7.002179622650146484e-01 -4.892889782786369324e-02 5.752840042114257812e-01 5.149825811386108398e-01 -2.844341993331909180e-01 3.140082359313964844e-01 -1.727008819580078125e-01 1.656497865915298462e-01 -2.795000374317169189e-01 -3.073740899562835693e-01 -4.206199944019317627e-01 1.032811775803565979e-01 3.145514428615570068e-01 -4.440323114395141602e-01 -4.210756719112396240e-01 -3.237332403659820557e-01 4.005452394485473633e-01 2.163784652948379517e-01 -6.386523842811584473e-01 -4.671052098274230957e-01 -3.578870892524719238e-01 4.399251639842987061e-01 -3.454092442989349365e-01 -3.438214361667633057e-01 1.801260411739349365e-01 -4.054588973522186279e-01 -2.953913807868957520e-01 1.527550369501113892e-01 -4.539045989513397217e-01 -5.341936349868774414e-01
-7.847599983215332031e-01 -5.944173932075500488e-01 -4.608004391193389893e-01 1.243949383497238159e-01 -1.908491551876068115e-01 -5.707206726074218750e-01 -4.115492701530456543e-01 -3.733834028244018555e-01 -6.454514265060424805e-01 1.748178601264953613e-01 -4.201478362083435059e-01 1.704749092459678650e-02 -9.164132475852966309e-01 -4.673601090908050537e-01 -7.744734883308410645e-01 -1.047565221786499023e+00 -7.802202105522155762e-01 -4.488752782344818115e-01 -3.844502866268157959e-01 -6.903432011604309082e-01 -3.128003776073455811e-01 -3.386687934398651123e-01 -4.362464547157287598e-01 -6.602403521537780762e-01 -5.589940547943115234e-01 -4.955745339393615723e-01 -1.634014248847961426e-01 1.037649959325790405e-01 -6.043805480003356934e-01 1.037601590156555176e+00 -3.466896414756774902e-01 1.562228649854660034e-01 -4.963270425796508789e-01 -5.682312250137329102e-01 -3.873610198497772217e-01 -4.228543639183044434e-01 -7.254726290702819824e-01 -3.250595033168792725e-01 -5.358777642250061035e-01 -5.031967163085937500e-01 -4.511856734752655029e-01 -1.790558993816375732e-01 -7.890121079981327057e-03 -5.275534987449645996e-01 -6.806856989860534668e-01 -6.337141990661621094e-01 -5.185147523880004883e-01 -1.614014059305191040e-01 -4.267450571060180664e-01 -3.708496093750000000e-01 -4.422529041767120361e-01 -3.514232337474822998e-01 -6.564977765083312988e-01 -5.953100919723510742e-01 6.740437448024749756e-02 -4.040060341358184814e-01 -2.884809970855712891e-01 -7.532349824905395508e-01 -4.805287718772888184e-01 -6.957354545593261719e-01
-1.612344861030578613e+00 -4.074160158634185791e-01 -5.872309803962707520e-01 -8.827478438615798950e-02 -8.449584245681762695e-01 -5.974668264389038086e-01 -7.945212125778198242e-01 -6.783643364906311035e-01 -4.537608325481414795e-01 5.082944035530090332e-01 -6.231397390365600586e-01 -3.135058879852294922e-01 -1.819166779518127441e+00 -4.334619343280792236e-01 -1.241244554519653320e+00 -1.373280048370361328e+00 -1.047927260398864746e+00 -4.367929697036743164e-01 -6.703711152076721191e-01 -5.902774333953857422e-01 -5.253345370292663574e-01 -3.726258277893066406e-01 -5.845411419868469238e-01 -1.233717441558837891e+00 -4.411806762218475342e-01 -2.916660606861114502e-01 -2.927208244800567627e-01 -1.735208779573440552e-01 -5.216632485389709473e-01 1.400185465812683105e+00 -3.322093486785888672e-01 1.211098209023475647e-02 -7.015852928161621094e-01 -7.405439615249633789e-01 -6.624121069908142090e-01 -1.273221373558044434e+00 -1.341779112815856934e+00 -2.119238674640655518e-01 -7.106509804725646973e-01 -6.142121553421020508e-01 -4.625447094440460205e-01 -7.330156862735748291e-02 -4.509502351284027100e-01 -5.808367729187011719e-01 -6.651124954223632812e-01 -6.801685094833374023e-01 -1.264724850654602051e+00 -3.001273274421691895e-01 -6.360259056091308594e-01 -6.215896606445312500e-01 -4.658676683902740479e-01 -6.011261343955993652e-01 -5.012100934982299805e-01 -4.371797144412994385e-01 -2.367665916681289673e-01 -4.102583527565002441e-01 -3.896400630474090576e-01 -9.900451302528381348e-01 -6.772836446762084961e-01 -5.569853186607360840e-01
3.346484005451202393e-01 -3.918850123882293701e-01 -4.682418704032897949e-01 1.088265851140022278e-01 3.435454368591308594e-01 -7.077615261077880859e-01 2.285356521606445312e-01 -6.919546127319335938e-01 -6.178860664367675781e-01 -1.294743716716766357e-01 -3.082571029663085938e-01 1.295059472322463989e-01 4.457746148109436035e-01 -5.058606863021850586e-01 7.431052327156066895e-01 2.468924783170223236e-02 -2.580383121967315674e-01 -3.552972078323364258e-01 -6.088200211524963379e-01 -4.058717787265777588e-01 -4.816635847091674805e-01 -5.789268016815185547e-01 -7.023307681083679199e-01 6.366567015647888184e-01 -3.730700016021728516e-01 -3.325816690921783447e-01 2.080415785312652588e-01 -4.758376628160476685e-02 -6.133916974067687988e-01 1.422058194875717163e-01 -6.509466767311096191e-01 -3.203348070383071899e-02 4.652414023876190186e-01 2.677299678325653076e-01 -2.990864813327789307e-01 6.998160481452941895e-01 9.670649468898773193e-02 9.563327580690383911e-02 -5.855094790458679199e-01 -3.142221271991729736e-01 -4.656341373920440674e-01 -9.826808422803878784e-02 2.454407364130020142e-01 -6.917392015457153320e-01 -2.990628480911254883e-01 -4.797677397727966309e-01 5.075949430465698242e-01 3.204355239868164062e-01 -3.574103415012359619e-01 -7.130350470542907715e-01 -5.125656723976135254e-01 1.226905509829521179e-01 -3.698763549327850342e-01 -4.617831707000732422e-01 -1.369395293295383453e-02 -4.333679378032684326e-01 -4.515775740146636963e-01 3.376110494136810303e-01 -4.021948277950286865e-01 -3.131152689456939697e-01
4.414943754673004150e-01 -3.782926201820373535e-01 -5.634467005729675293e-01 1.793608814477920532e-01 6.250258088111877441e-01 -3.133105933666229248e-01 8.221000432968139648e-01 -4.453408718109130859e-01 -6.997966170310974121e-01 -6.593631953001022339e-02 -6.757034659385681152e-01 -2.430317923426628113e-02 3.220405280590057373e-01 -3.681540787220001221e-01 5.642758607864379883e-01 5.385064333677291870e-02 1.189394146203994751e-01 -5.624170899391174316e-01 -4.445598423480987549e-01 -5.860595107078552246e-01 -6.426922082901000977e-01 -3.192544281482696533e-01 -3.711388707160949707e-01 8.790361881256103516e-01 -4.104859828948974609e-01 -5.098634958267211914e-01 -1.744876801967620850e-02 1.592273861169815063e-01 -6.115412116050720215e-01 1.757649928331375122e-01 -6.140738725662231445e-01 -9.494999051094055176e-02 7.343189716339111328e-01 5.616811513900756836e-01 -6.131902337074279785e-01 6.790878176689147949e-01 2.109178453683853149e-01 2.599959671497344971e-01 -4.333861172199249268e-01 -5.671075582504272461e-01 -5.007018446922302246e-01 2.686335705220699310e-02 3.043384850025177002e-01 -5.709386467933654785e-01 -3.846020102500915527e-01 -3.981894850730895996e-01 7.002841234207153320e-01 3.692160844802856445e-01 -4.857891201972961426e-01 -3.974469900131225586e-01 -6.003680229187011719e-01 2.571876049041748047e-01 -3.723527193069458008e-01 -4.229768812656402588e-01 2.269913554191589355e-01 -3.089864850044250488e-01 -4.755762815475463867e-01 -9.843752533197402954e-02 -5.249855518341064453e-01 -6.886073350906372070e-01
-9.424305558204650879e-01 -4.568862020969390869e-01 -3.272571563720703125e-01 9.776692837476730347e-02 -7.330588698387145996e-01 -4.439735710620880127e-01 -6.947537660598754883e-01 -4.243779480457305908e-01 -5.444080829620361328e-01 4.244227707386016846e-01 -5.348084568977355957e-01 -2.439389526844024658e-01 -1.161262392997741699e+00 -4.397961497306823730e-01 -8.903040885925292969e-01 -8.250346779823303223e-01 -6.110989451408386230e-01 -3.151137530803680420e-01 -4.793708622455596924e-01 -5.371247529983520508e-01 -4.845975637435913086e-01 -2.872993350028991699e-01 -4.984105825424194336e-01 -1.016470313072204590e+00 -3.451804518699645996e-01 -3.494921922683715820e-01 -2.626374661922454834e-01 -2.067018598318099976e-01 -4.174959063529968262e-01 1.278133392333984375e+00 -4.407142698764801025e-01 -1.408635973930358887e-01 -6.906997561454772949e-01 -6.647766232490539551e-01 -5.158730149269104004e-01 -9.736286997795104980e-01 -1.015987873077392578e+00 -3.544122725725173950e-02 -6.492795944213867188e-01 -6.012105345726013184e-01 -4.831688404083251953e-01 -7.735215127468109131e-02 -2.584767937660217285e-01 -3.465758860111236572e-01 -4.848822355270385742e-01 -4.430073797702789307e-01 -5.455977320671081543e-01 -3.523847758769989014e-01 -3.748390078544616699e-01 -3.341345787048339844e-01 -3.656760454177856445e-01 -3.655992448329925537e-01 -6.892597675323486328e-01 -6.197486519813537598e-01 -2.407504767179489136e-01 -3.862659633159637451e-01 -6.236950755119323730e-01 -9.160364270210266113e-01 -6.170845031738281250e-01 -3.330388963222503662e-01
3.746197223663330078e-01 -6.516990065574645996e-01 -5.568508505821228027e-01 -9.913548082113265991e-02 4.570714831352233887e-01 -4.867106378078460693e-01 5.611103177070617676e-01 -6.853325366973876953e-01 -6.254842281341552734e-01 -1.191958189010620117e-01 -2.948180139064788818e-01 3.657942712306976318e-01 5.042399764060974121e-01 -2.945646643638610840e-01 6.239452362060546875e-01 6.333169341087341309e-02 6.004720926284790039e-02 -6.628102660179138184e-01 -5.839829444885253906e-01 -4.080643057823181152e-01 -6.266162991523742676e-01 -2.979824841022491455e-01 -4.466069340705871582e-01 8.092373609542846680e-01 -5.101529359817504883e-01 -6.208834648132324219e-01 1.327768564224243164e-01 2.609418034553527832e-01 -6.466106772422790527e-01 3.885262012481689453e-01 -6.454480886459350586e-01 -5.306756868958473206e-02 5.227794051170349121e-01 7.792542576789855957e-01 -3.384571373462677002e-01 6.820798516273498535e-01 2.029322087764739990e-01 1.779707223176956177e-01 -5.489858388900756836e-01 -3.432502746582031250e-01 -2.815080881118774414e-01 5.512536317110061646e-02 1.560904234647750854e-01 -5.622900724411010742e-01 -4.593071043491363525e-01 -7.137626409530639648e-01 6.794781684875488281e-01 7.088541239500045776e-02 -4.004165232181549072e-01 -5.160149335861206055e-01 -2.892886698246002197e-01 6.294401288032531738e-01 -5.315101146697998047e-01 -6.708196401596069336e-01 9.774526208639144897e-02 -6.694290041923522949e-01 -5.674383640289306641e-01 4.042696058750152588e-01 -3.206086754798889160e-01 -5.311142206192016602e-01
-1.073293328285217285e+00 -4.979477226734161377e-01 -6.461957693099975586e-01 -9.209195524454116821e-02 -4.772781431674957275e-01 -2.862815856933593750e-01 -2.414237409830093384e-01 -6.467953324317932129e-01 -7.039140462875366211e-01 3.117268681526184082e-01 -4.682793319225311279e-01 -3.107174336910247803e-01 -9.579694271087646484e-01 -4.179896414279937744e-01 -7.708936333656311035e-01 -7.437877655029296875e-01 -6.384987235069274902e-01 -4.304664731025695801e-01 -4.617123603820800781e-01 -6.525675058364868164e-01 -3.270765244960784912e-01 -6.562298536300659180e-01 -4.416681826114654541e-01 -6.944850683212280273e-01 -7.017924189567565918e-01 -5.816338658332824707e-01 -1.988985687494277954e-01 -2.140187919139862061e-01 -6.605543494224548340e-01 1.143705964088439941e+00 -4.704770445823669434e-01 -1.553035974502563477e-01 -2.621532976627349854e-01 -5.882617235183715820e-01 -3.773690760135650635e-01 -5.360541939735412598e-01 -5.803589820861816406e-01 3.209228441119194031e-02 -4.112161099910736084e-01 -5.972316861152648926e-01 -3.974448144435882568e-01 -2.437101453542709351e-01 -3.210703432559967041e-01 -5.310616493225097656e-01 -3.068353831768035889e-01 -4.881491661071777344e-01 -6.858010888099670410e-01 3.501711040735244751e-02 -4.011293351650238037e-01 -4.598170816898345947e-01 -3.508294224739074707e-01 -3.636626303195953369e-01 -4.163518548011779785e-01 -4.958513379096984863e-01 -1.783779561519622803e-01 -4.814083278179168701e-01 -5.793601274490356445e-01 -7.226621508598327637e-01 -4.599432647228240967e-01 -5.274653434753417969e-01
-4.870653152465820312e-02 -4.888050556182861328e-01 -6.875956654548645020e-01 2.337985485792160034e-01 5.489677190780639648e-01 -6.640041470527648926e-01 7.098556756973266602e-01 -5.562920570373535156e-01 -2.891371250152587891e-01 -1.323911733925342560e-02 -3.831125199794769287e-01 4.322026073932647705e-01 3.297153115272521973e-01 -3.476845026016235352e-01 1.148648500442504883e+00 -1.819089353084564209e-01 -3.157825171947479248e-01 -2.964428365230560303e-01 -7.138968110084533691e-01 -3.619448840618133545e-01 -4.983616769313812256e-01 -3.077395856380462646e-01 -4.720788598060607910e-01 9.249570369720458984e-01 -6.303605437278747559e-01 -3.278713822364807129e-01 1.450179368257522583e-01 3.687907457351684570e-01 -4.555816054344177246e-01 -5.227646231651306152e-02 -4.139824509620666504e-01 5.542007088661193848e-02 6.315537691116333008e-01 8.445886373519897461e-01 -4.573448002338409424e-01 1.051909327507019043e+00 -1.459511220455169678e-01 2.208641469478607178e-01 -3.366995453834533691e-01 -2.776224613189697266e-01 -5.560219287872314453e-01 -1.214828267693519592e-01 2.405950725078582764e-01 -3.281860649585723877e-01 -3.306706845760345459e-01 -6.962671279907226562e-01 7.685103416442871094e-01 1.274121552705764771e-01 -5.291178226470947266e-01 -5.934084057807922363e-01 -4.023477137088775635e-01 4.982611238956451416e-01 -6.700890660285949707e-01 -4.534946978092193604e-01 2.913651168346405029e-01 -3.959163129329681396e-01 -4.302161037921905518e-01 9.603075683116912842e-02 -3.067610263824462891e-01 -7.085779309272766113e-01
-1.097702622413635254e+00 -6.738808155059814453e-01 -5.999354124069213867e-01 4.356270283460617065e-02 -6.356457471847534180e-01 -5.539662837982177734e-01 -5.667482018470764160e-01 -5.302979946136474609e-01 -7.061488032341003418e-01 1.964858472347259521e-01 -5.628971457481384277e-01 -2.952693998813629150e-01 -1.013090133666992188e+00 -4.101829230785369873e-01 -5.713579058647155762e-01 -8.671143651008605957e-01 -4.660941958427429199e-01 -2.864284813404083252e-01 -5.617831945419311523e-01 -6.420563459396362305e-01 -6.066536903381347656e-01 -6.100653409957885742e-01 -4.438195526599884033e-01 -5.999343991279602051e-01 -4.076341986656188965e-01 -4.196735918521881104e-01 -3.132186830043792725e-01 1.061265915632247925e-01 -3.062523603439331055e-01 7.623902559280395508e-01 -6.532875299453735352e-01 1.921616196632385254e-01 -3.143548369407653809e-01 -6.065021157264709473e-01 -5.459529757499694824e-01 -7.759853601455688477e-01 -4.986560940742492676e-01 -6.745162419974803925e-03 -3.550925552845001221e-01 -5.817041397094726562e-01 -5.059577226638793945e-01 -1.570362895727157593e-01 -3.364318609237670898e-01 -7.237347960472106934e-01 -7.149789929389953613e-01 -7.090358138084411621e-01 -7.090682983398437500e-01 -3.073146045207977295e-01 -5.271641612052917480e-01 -4.815540015697479248e-01 -4.165258407592773438e-01 -2.673129141330718994e-01 -5.819476842880249023e-01 -2.945812642574310303e-01 -1.592349857091903687e-01 -6.657156348228454590e-01 -6.152383089065551758e-01 -8.155471086502075195e-01 -4.225204288959503174e-01 -4.166544079780578613e-01
6.257102489471435547e-01 -3.764415383338928223e-01 -5.051615834236145020e-01 5.523751676082611084e-02 4.146355986595153809e-01 -4.032078385353088379e-01 5.504876375198364258e-01 -2.841373085975646973e-01 -5.899683237075805664e-01 -1.657585054636001587e-01 -2.878125309944152832e-01 3.093371354043483734e-02 7.955724596977233887e-01 -6.363829374313354492e-01 1.030368089675903320e+00 1.547847092151641846e-01 1.006223708391189575e-01 -6.547546386718750000e-01 -5.651564598083496094e-01 -7.106426954269409180e-01 -4.986437559127807617e-01 -2.857511937618255615e-01 -3.765947520732879639e-01 1.102304100990295410e+00 -5.876879096031188965e-01 -6.265138387680053711e-01 2.575269900262355804e-02 6.448163650929927826e-03 -4.533349871635437012e-01 -2.061386033892631531e-02 -4.096272885799407959e-01 -1.904913187026977539e-01 8.290440440177917480e-01 5.150458812713623047e-01 -7.153137922286987305e-01 8.733876347541809082e-01 3.932620882987976074e-01 4.611974954605102539e-02 -5.790705084800720215e-01 -3.093511760234832764e-01 -5.331769585609436035e-01 1.182735115289688110e-01 4.322983324527740479e-01 -3.802186250686645508e-01 -7.212463617324829102e-01 -2.789174616336822510e-01 6.660721302032470703e-01 3.922483921051025391e-01 -6.317720413208007812e-01 -4.192119538784027100e-01 -5.800853967666625977e-01 3.998036980628967285e-01 -6.766890883445739746e-01 -6.272541880607604980e-01 -1.642501540482044220e-02 -6.905971765518188477e-01 -5.631401538848876953e-01 3.442938625812530518e-01 -4.895795583724975586e-01 -6.682053804397583008e-01
3.037439584732055664e+00 -2.824856638908386230e-01 -7.152689099311828613e-01 2.414137572050094604e-01 1.182593345642089844e+00 -5.346351861953735352e-01 1.342280983924865723e+00 -5.740722417831420898e-01 -3.952594101428985596e-01 2.014825791120529175e-01 -3.519712388515472412e-01 1.631446778774261475e-01 2.983978271484375000e+00 -7.126146554946899414e-01 1.607004761695861816e+00 1.753473997116088867e+00 1.421676039695739746e+00 -2.938503921031951904e-01 -5.910387635231018066e-01 -4.466317892074584961e-01 -5.348505973815917969e-01 -6.298058629035949707e-01 -4.539792239665985107e-01 1.387872934341430664e+00 -4.878039956092834473e-01 -4.951922297477722168e-01 3.747403621673583984e-01 5.097710490226745605e-01 -6.934711337089538574e-01 1.924023628234863281e-01 -4.189277887344360352e-01 6.786553561687469482e-02 8.893324732780456543e-01 1.244052529335021973e+00 -4.606196880340576172e-01 1.312638521194458008e+00 2.033903598785400391e+00 4.719434380531311035e-01 -3.172657191753387451e-01 -4.702255427837371826e-01 -6.011555790901184082e-01 2.568448781967163086e-01 6.184964776039123535e-01 -4.020212888717651367e-01 -3.858892917633056641e-01 -3.085150718688964844e-01 1.169487237930297852e+00 2.863027751445770264e-01 -3.329086303710937500e-01 -2.808886766433715820e-01 -6.855471730232238770e-01 9.035332798957824707e-01 -3.761650025844573975e-01 -6.582236886024475098e-01 4.307380616664886475e-01 -6.222630143165588379e-01 -2.847635149955749512e-01 2.304522275924682617e+00 -4.802809357643127441e-01 -4.617023468017578125e-01
-2.094710826873779297e+00 -4.489631354808807373e-01 -3.824720978736877441e-01 -7.122738659381866455e-02 -1.359094738960266113e+00 -5.448382496833801270e-01 -1.121403336524963379e+00 -5.848776698112487793e-01 -4.330908358097076416e-01 3.590963780879974365e-01 -6.509599685668945312e-01 -5.178891420364379883e-01 -2.010894536972045898e+00 -3.274790942668914795e-01 -1.613414049148559570e+00 -1.865107536315917969e+00 -1.192068576812744141e+00 -3.790324926376342773e-01 -4.443409442901611328e-01 -2.997959256172180176e-01 -6.990017294883728027e-01 -5.128087401390075684e-01 -7.191616892814636230e-01 -1.827365636825561523e+00 -4.479869008064270020e-01 -4.711510241031646729e-01 -1.371900886297225952e-01 -1.548829376697540283e-01 -6.358883976936340332e-01 2.022498369216918945e+00 -5.757920145988464355e-01 -1.064029261469841003e-01 -1.080160498619079590e+00 -1.335477232933044434e+00 -2.780382037162780762e-01 -1.803128838539123535e+00 -1.461142063140869141e+00 -4.588522911071777344e-01 -7.074410915374755859e-01 -4.350950419902801514e-01 -3.732738792896270752e-01 -2.454044073820114136e-01 -3.719681799411773682e-01 -3.504130542278289795e-01 -6.264336109161376953e-01 -5.728632211685180664e-01 -1.407902121543884277e+00 -4.462366998195648193e-01 -6.881492137908935547e-01 -7.001412510871887207e-01 -4.437636733055114746e-01 -8.698080778121948242e-01 -5.853308439254760742e-01 -6.832022070884704590e-01 -3.074286580085754395e-01 -5.802260041236877441e-01 -4.878420233726501465e-01 -1.668812274932861328e+00 -4.002959430217742920e-01 -4.959502220153808594e-01
-3.389269709587097168e-01 -6.620393991470336914e-01 -3.324266672134399414e-01 -1.176017988473176956e-02 -5.165755748748779297e-02 -3.970470726490020752e-01 -2.755904495716094971e-01 -2.784127891063690186e-01 -5.137783885002136230e-01 1.981103271245956421e-01 -4.673983156681060791e-01 9.589527547359466553e-02 -2.204265445470809937e-01 -3.603322505950927734e-01 -1.698657572269439697e-01 -7.007856369018554688e-01 -4.979825615882873535e-01 -2.938969731330871582e-01 -3.640907108783721924e-01 -3.901008963584899902e-01 -3.680336475372314453e-01 -6.803342103958129883e-01 -4.849991202354431152e-01 -1.552104204893112183e-01 -2.926506996154785156e-01 -3.566738963127136230e-01 1.460346579551696777e-01 9.162339381873607635e-03 -6.761813759803771973e-01 6.999747157096862793e-01 -6.675364971160888672e-01 1.391735672950744629e-01 -2.244743704795837402e-02 1.389190703630447388e-01 -3.549075126647949219e-01 -2.745167016983032227e-01 -2.640938758850097656e-01 -4.411746188998222351e-02 -6.228474974632263184e-01 -4.753113985061645508e-01 -6.594032645225524902e-01 -3.800388053059577942e-02 4.201154410839080811e-02 -5.407727360725402832e-01 -5.714176297187805176e-01 -6.060667037963867188e-01 -2.635041475296020508e-01 6.436230149120092392e-03 -4.299354553222656250e-01 -6.579351425170898438e-01 -5.603836774826049805e-01 -7.115325331687927246e-02 -3.791192173957824707e-01 -3.205517828464508057e-01 -1.042288467288017273e-01 -4.004347920417785645e-01 -6.963557600975036621e-01 -1.673037111759185791e-01 -3.989017009735107422e-01 -6.427018046379089355e-01
-9.440439343452453613e-01 -3.950423300266265869e-01 -7.179102301597595215e-01 -1.556515246629714966e-01 -4.445959627628326416e-01 -5.463942289352416992e-01 -4.174717068672180176e-01 -4.832998216152191162e-01 -6.140292286872863770e-01 2.184107303619384766e-01 -5.547268390655517578e-01 7.506449520587921143e-02 -7.689977884292602539e-01 -4.478126168251037598e-01 -4.814128279685974121e-01 -9.385802745819091797e-01 -7.595604062080383301e-01 -2.819426655769348145e-01 -7.026509642601013184e-01 -5.049500465393066406e-01 -7.073104381561279297e-01 -3.013080656528472900e-01 -6.864792108535766602e-01 -6.159850358963012695e-01 -3.555203378200531006e-01 -5.755737423896789551e-01 -2.940151393413543701e-01 -1.087428852915763855e-01 -5.433049798011779785e-01 1.017318725585937500e+00 -4.365603029727935791e-01 1.343083567917346954e-02 -4.282721877098083496e-01 -4.084606468677520752e-01 -4.347891509532928467e-01 -4.044394493103027344e-01 -5.488043427467346191e-01 1.029225066304206848e-01 -4.557394087314605713e-01 -7.206246852874755859e-01 -4.977836310863494873e-01 -2.614088356494903564e-01 -3.104062080383300781e-01 -3.057696223258972168e-01 -7.077034115791320801e-01 -4.593508243560791016e-01 -5.086414813995361328e-01 1.318813860416412354e-01 -3.746511042118072510e-01 -5.851091742515563965e-01 -4.252301454544067383e-01 -4.917307496070861816e-01 -4.697186350822448730e-01 -6.346356272697448730e-01 -5.069187376648187637e-03 -5.617939233779907227e-01 -6.782064437866210938e-01 -4.805522859096527100e-01 -5.042454004287719727e-01 -5.551679730415344238e-01
8.134800195693969727e-01 -6.247872710227966309e-01 -5.831736922264099121e-01 -8.376627415418624878e-02 2.643376588821411133e-01 -5.512125492095947266e-01 7.018043994903564453e-01 -5.112980008125305176e-01 -3.105839788913726807e-01 2.603349387645721436e-01 -4.238856136798858643e-01 1.551910638809204102e-01 5.338265299797058105e-01 -2.929796874523162842e-01 6.630185246467590332e-01 2.081781476736068726e-01 2.846204936504364014e-01 -5.460045337677001953e-01 -2.828660011291503906e-01 -4.435088634490966797e-01 -4.654048085212707520e-01 -4.253968894481658936e-01 -2.883526384830474854e-01 6.147872209548950195e-01 -6.234523653984069824e-01 -7.189878225326538086e-01 2.286298722028732300e-01 2.072407603263854980e-01 -2.927788197994232178e-01 1.990428268909454346e-01 -6.975553035736083984e-01 1.276928782463073730e-01 6.699270009994506836e-01 4.984177350997924805e-01 -7.131788730621337891e-01 7.645077705383300781e-01 6.147080063819885254e-01 2.133783549070358276e-01 -5.967867374420166016e-01 -3.657216131687164307e-01 -4.696025848388671875e-01 1.785026863217353821e-02 1.495534926652908325e-01 -4.470568895339965820e-01 -6.614200472831726074e-01 -4.316766858100891113e-01 7.194299101829528809e-01 2.809490077197551727e-02 -3.363736867904663086e-01 -6.061353087425231934e-01 -6.763165593147277832e-01 3.505082726478576660e-01 -6.833015680313110352e-01 -6.155209541320800781e-01 5.785126611590385437e-02 -6.982256770133972168e-01 -4.520410299301147461e-01 3.727651536464691162e-01 -4.997682273387908936e-01 -5.850703716278076172e-01
-1.420243501663208008e+00 -3.079760670661926270e-01 -4.513868689537048340e-01 -2.313414663076400757e-01 -7.123099565505981445e-01 -4.496369957923889160e-01 -8.412228822708129883e-01 -4.464266002178192139e-01 -6.742248535156250000e-01 1.772327572107315063e-01 -3.828132152557373047e-01 2.300472185015678406e-02 -1.397799491882324219e+00 -4.959761798381805420e-01 -8.699998855590820312e-01 -1.145051002502441406e+00 -6.003195643424987793e-01 -2.913920283317565918e-01 -7.039186954498291016e-01 -3.645003139972686768e-01 -3.646204769611358643e-01 -4.680827856063842773e-01 -4.729705452919006348e-01 -8.906545639038085938e-01 -3.145489096641540527e-01 -4.523980915546417236e-01 -4.037485718727111816e-01 -3.200733661651611328e-01 -6.712235808372497559e-01 1.342291712760925293e+00 -5.097270011901855469e-01 9.652218222618103027e-02 -5.328072905540466309e-01 -5.354766249656677246e-01 -4.253939390182495117e-01 -1.071283817291259766e+00 -9.751784801483154297e-01 -2.145769447088241577e-01 -3.446787893772125244e-01 -5.617560148239135742e-01 -5.174946188926696777e-01 3.821220621466636658e-02 -1.679840087890625000e-01 -5.740614533424377441e-01 -3.613571226596832275e-01 -3.856996595859527588e-01 -7.898253202438354492e-01 -2.026073336601257324e-01 -7.133765220642089844e-01 -4.024482369422912598e-01 -4.952377378940582275e-01 -7.006898522377014160e-01 -3.841420710086822510e-01 -4.839143455028533936e-01 -3.411797285079956055e-01 -2.803941965103149414e-01 -4.739880859851837158e-01 -1.008066654205322266e+00 -5.304858684539794922e-01 -5.168045759201049805e-01
4.307392120361328125e+00 -5.973705649375915527e-01 -3.756629526615142822e-01 1.209046766161918640e-01 1.676152586936950684e+00 -4.972228705883026123e-01 1.716852664947509766e+00 -3.935095369815826416e-01 -3.236577212810516357e-01 3.756859526038169861e-02 -3.324819505214691162e-01 6.928778886795043945e-01 4.361394882202148438e+00 -4.016722142696380615e-01 2.140875577926635742e+00 2.839246988296508789e+00 2.395437002182006836e+00 -4.993680417537689209e-01 -5.349135994911193848e-01 -5.232305526733398438e-01 -6.552828550338745117e-01 -5.430816411972045898e-01 -5.267040133476257324e-01 1.949128150939941406e+00 -3.042707741260528564e-01 -6.159017086029052734e-01 7.673257589340209961e-01 2.804621458053588867e-01 -3.808207809925079346e-01 -1.629838645458221436e-01 -3.298036754131317139e-01 -1.746268719434738159e-01 1.311105608940124512e+00 1.860544919967651367e+00 -5.204325914382934570e-01 2.391999721527099609e+00 3.377215385437011719e+00 6.782205104827880859e-01 -4.631295800209045410e-01 -3.993676304817199707e-01 -2.853468060493469238e-01 -3.755820542573928833e-02 7.770568132400512695e-01 -5.746076107025146484e-01 -6.946948170661926270e-01 -5.090872049331665039e-01 1.982840299606323242e+00 6.212968230247497559e-01 -2.870936095714569092e-01 -4.425616860389709473e-01 -6.590516567230224609e-01 1.264139652252197266e+00 -6.308177709579467773e-01 -3.885615170001983643e-01 6.328271031379699707e-01 -6.455905437469482422e-01 -6.405893564224243164e-01 3.429037570953369141e+00 -6.200608611106872559e-01 -2.901625037193298340e-01
-2.074090205132961273e-02 -6.063745021820068359e-01 -4.155373871326446533e-01 1.521454006433486938e-01 3.501744270324707031e-01 -6.524579524993896484e-01 5.911387801170349121e-01 -6.280385851860046387e-01 -5.122972726821899414e-01 2.625745534896850586e-01 -3.856714367866516113e-01 7.162821292877197266e-02 -1.544238477945327759e-01 -3.877792358398437500e-01 4.924325048923492432e-01 -4.055477380752563477e-01 -2.389361709356307983e-01 -3.128356933593750000e-01 -4.642101824283599854e-01 -5.799773931503295898e-01 -4.576055109500885010e-01 -3.279186785221099854e-01 -6.587389707565307617e-01 7.618588209152221680e-01 -3.115282654762268066e-01 -3.783105313777923584e-01 1.721935123205184937e-01 -1.840449869632720947e-02 -6.987186074256896973e-01 3.822833895683288574e-01 -6.852678060531616211e-01 1.555692851543426514e-01 3.112424015998840332e-01 6.201592683792114258e-01 -5.755057930946350098e-01 6.588715910911560059e-01 5.786788836121559143e-02 1.691792160272598267e-01 -5.762068629264831543e-01 -3.086320757865905762e-01 -3.744206428527832031e-01 -1.575346291065216064e-01 4.340543746948242188e-01 -4.451478123664855957e-01 -2.898466885089874268e-01 -3.970012366771697998e-01 3.778489232063293457e-01 1.044248193502426147e-01 -4.321631193161010742e-01 -4.553890824317932129e-01 -3.449987769126892090e-01 2.045622467994689941e-01 -4.909424483776092529e-01 -5.733991861343383789e-01 1.427289694547653198e-01 -2.870731949806213379e-01 -4.528519511222839355e-01 -1.748946607112884521e-01 -4.097913205623626709e-01 -3.532936275005340576e-01
-1.286070197820663452e-01 -4.420290589332580566e-01 -6.989343166351318359e-01 -1.813600659370422363e-01 -4.501771554350852966e-02 -5.549700856208801270e-01 1.462677270174026489e-01 -2.938302457332611084e-01 -3.844721317291259766e-01 -5.933286156505346298e-03 -7.063012719154357910e-01 -6.249589845538139343e-02 -2.851022779941558838e-01 -2.866056263446807861e-01 1.325843185186386108e-01 -2.245146483182907104e-01 -2.027423232793807983e-01 -4.644681513309478760e-01 -4.203177690505981445e-01 -3.053693473339080811e-01 -4.991465210914611816e-01 -6.477760672569274902e-01 -3.293896019458770752e-01 3.493976294994354248e-01 -5.844732522964477539e-01 -4.025013148784637451e-01 1.720500290393829346e-01 -1.769605129957199097e-01 -3.900808691978454590e-01 7.044184803962707520e-01 -4.420982301235198975e-01 -1.813184767961502075e-01 3.546069934964179993e-02 -7.610739767551422119e-02 -7.086296081542968750e-01 -1.306514441967010498e-01 -2.955201566219329834e-01 2.096538394689559937e-01 -6.615536212921142578e-01 -4.940271973609924316e-01 -3.390377461910247803e-01 1.730767041444778442e-01 -3.059911541640758514e-02 -3.928321599960327148e-01 -3.754303157329559326e-01 -3.746241331100463867e-01 2.783413529396057129e-01 2.303389012813568115e-01 -6.064153313636779785e-01 -4.127605557441711426e-01 -4.681193530559539795e-01 2.638241350650787354e-01 -6.970198154449462891e-01 -7.044622302055358887e-01 -1.165633499622344971e-01 -5.583284497261047363e-01 -6.366739869117736816e-01 -1.387846916913986206e-01 -3.111185133457183838e-01 -5.014274716377258301e-01
-1.892382621765136719e+00 -6.052039861679077148e-01 -5.547183156013488770e-01 -2.564250826835632324e-01 -7.293291687965393066e-01 -6.502616405487060547e-01 -1.059921979904174805e+00 -6.084536314010620117e-01 -4.269546568393707275e-01 2.544156610965728760e-01 -5.959621667861938477e-01 -4.380623996257781982e-01 -1.731142163276672363e+00 -6.164762377738952637e-01 -1.381232142448425293e+00 -1.339596033096313477e+00 -1.061294078826904297e+00 -4.786753058433532715e-01 -4.539219141006469727e-01 -3.169030547142028809e-01 -4.842748343944549561e-01 -6.051744818687438965e-01 -5.317620038986206055e-01 -1.142101883888244629e+00 -6.011898517608642578e-01 -4.247590303421020508e-01 -3.181586861610412598e-01 -4.767669364809989929e-02 -5.532917976379394531e-01 1.319857478141784668e+00 -2.866553068161010742e-01 1.478911936283111572e-01 -8.425930738449096680e-01 -9.758312702178955078e-01 -3.056545853614807129e-01 -1.231116652488708496e+00 -1.341056704521179199e+00 -2.409174889326095581e-01 -5.563059449195861816e-01 -4.365799725055694580e-01 -6.046864390373229980e-01 -1.689218282699584961e-01 -1.243093758821487427e-01 -3.260264396667480469e-01 -3.349882066249847412e-01 -4.925989806652069092e-01 -1.351093173027038574e+00 -1.269852817058563232e-01 -4.235803484916687012e-01 -3.452848792076110840e-01 -3.668752908706665039e-01 -9.326775074005126953e-01 -5.704606771469116211e-01 -3.522817790508270264e-01 -4.106605052947998047e-01 -6.643787026405334473e-01 -5.761364102363586426e-01 -1.247470617294311523e+00 -6.577367186546325684e-01 -5.251548290252685547e-01
-1.400493621826171875e+00 -4.493431150913238525e-01 -5.242487192153930664e-01 1.277462542057037354e-01 -7.017446756362915039e-01 -5.637081265449523926e-01 -9.595757126808166504e-01 -3.887119591236114502e-01 -5.539594888687133789e-01 1.769010126590728760e-01 -4.257395863533020020e-01 -1.538608819246292114e-01 -1.613885879516601562e+00 -5.339756011962890625e-01 -9.639052152633666992e-01 -1.451174020767211914e+00 -6.725600361824035645e-01 -2.810938358306884766e-01 -6.163420081138610840e-01 -4.652430117130279541e-01 -3.725689947605133057e-01 -3.817533850669860840e-01 -3.092342913150787354e-01 -1.192193031311035156e+00 -3.142602443695068359e-01 -5.702906250953674316e-01 -2.420653402805328369e-01 -3.160538971424102783e-01 -6.679520010948181152e-01 1.321597933769226074e+00 -4.757122397422790527e-01 -1.380578279495239258e-01 -8.395091295242309570e-01 -9.774389266967773438e-01 -5.192326307296752930e-01 -1.339043498039245605e+00 -9.234591126441955566e-01 -4.240173399448394775e-01 -5.351182222366333008e-01 -7.011263370513916016e-01 -7.146942615509033203e-01 -3.002111315727233887e-01 -2.365984171628952026e-01 -3.048659861087799072e-01 -4.449854493141174316e-01 -3.827491104602813721e-01 -9.494689106941223145e-01 -3.092819154262542725e-01 -5.696495175361633301e-01 -4.866410195827484131e-01 -6.254556775093078613e-01 -5.130231976509094238e-01 -4.854540526866912842e-01 -3.983500599861145020e-01 1.311699277721345425e-03 -5.569436550140380859e-01 -4.098942577838897705e-01 -1.137285709381103516e+00 -7.039701342582702637e-01 -6.331758499145507812e-01
-1.719293147325515747e-01 -6.579835414886474609e-01 -5.127904415130615234e-01 -1.474400609731674194e-01 -6.996999029070138931e-03 -3.743566870689392090e-01 1.831479966640472412e-01 -4.895012378692626953e-01 -2.913547754287719727e-01 6.497714668512344360e-02 -7.238151431083679199e-01 -4.683765769004821777e-02 -4.542858004570007324e-01 -4.698376059532165527e-01 -7.123586535453796387e-02 -2.673476636409759521e-01 -4.236652255058288574e-01 -4.280992448329925537e-01 -3.148793876171112061e-01 -5.810293555259704590e-01 -4.723439514636993408e-01 -6.793081164360046387e-01 -6.002752780914306641e-01 -5.894371867179870605e-02 -5.712637901306152344e-01 -6.648299098014831543e-01 1.011229008436203003e-01 7.295092195272445679e-02 -3.376627862453460693e-01 7.369584441184997559e-01 -5.984895825386047363e-01 1.767805516719818115e-01 -3.243464231491088867e-02 -2.136107534170150757e-01 -3.364721834659576416e-01 -8.172278106212615967e-02 -7.086170464754104614e-02 5.154333636164665222e-02 -6.985062956809997559e-01 -5.728189349174499512e-01 -6.834666132926940918e-01 -5.944460630416870117e-02 -1.445722579956054688e-02 -5.179788470268249512e-01 -7.086571455001831055e-01 -4.231314659118652344e-01 -2.366869896650314331e-01 -1.711986511945724487e-01 -6.494954228401184082e-01 -3.992768228054046631e-01 -5.809458494186401367e-01 -1.243346408009529114e-01 -3.483749926090240479e-01 -2.834338843822479248e-01 3.821973875164985657e-02 -4.682090580463409424e-01 -5.246296525001525879e-01 -4.636012017726898193e-01 -4.718555212020874023e-01 -3.987979888916015625e-01
9.185376167297363281e-01 -6.124595403671264648e-01 -3.385455012321472168e-01 -1.528690159320831299e-01 6.031271219253540039e-01 -5.098614692687988281e-01 5.231475234031677246e-01 -3.209783732891082764e-01 -5.612372159957885742e-01 5.616408959031105042e-02 -4.703472852706909180e-01 6.210140138864517212e-02 5.858417749404907227e-01 -5.353593230247497559e-01 9.150868058204650879e-01 1.649797111749649048e-01 -3.813447058200836182e-02 -3.102788329124450684e-01 -3.576396405696868896e-01 -7.210119962692260742e-01 -4.945620298385620117e-01 -5.747498273849487305e-01 -6.448544263839721680e-01 9.530417919158935547e-01 -6.117081046104431152e-01 -2.850724756717681885e-01 1.363997459411621094e-01 -4.869183897972106934e-02 -6.016333699226379395e-01 5.660331621766090393e-02 -3.502117693424224854e-01 -1.613055169582366943e-01 4.137845635414123535e-01 3.852484524250030518e-01 -3.341922760009765625e-01 7.444156408309936523e-01 3.459842205047607422e-01 2.717393934726715088e-01 -6.011488437652587891e-01 -7.228424549102783203e-01 -3.034552931785583496e-01 7.315042614936828613e-02 2.927583158016204834e-01 -5.743889212608337402e-01 -6.183832883834838867e-01 -4.477702081203460693e-01 7.910889387130737305e-01 8.122318983078002930e-02 -5.910336375236511230e-01 -4.431885182857513428e-01 -7.163329124450683594e-01 6.016274690628051758e-01 -5.920513868331909180e-01 -5.200090408325195312e-01 2.258280813694000244e-01 -5.626208186149597168e-01 -6.491553783416748047e-01 5.314811468124389648e-01 -7.103080749511718750e-01 -6.085837483406066895e-01
9.402745962142944336e-01 -2.981156408786773682e-01 -3.396225571632385254e-01 1.828767061233520508e-01 1.521783828735351562e+00 -6.304584741592407227e-01 1.473291635513305664e+00 -4.401857852935791016e-01 -3.406274020671844482e-01 -1.100229751318693161e-02 -6.883591413497924805e-01 3.742443919181823730e-01 8.550042510032653809e-01 -3.197319805622100830e-01 2.259193181991577148e+00 4.238687157630920410e-01 -1.323710232973098755e-01 -4.709417223930358887e-01 -3.661005496978759766e-01 -4.180707037448883057e-01 -6.726476550102233887e-01 -4.412824213504791260e-01 -5.037222504615783691e-01 1.980161905288696289e+00 -7.192815542221069336e-01 -3.396809101104736328e-01 5.721484422683715820e-01 4.883536100387573242e-01 -7.240095734596252441e-01 -7.223812937736511230e-01 -6.401284337043762207e-01 -7.025630772113800049e-02 1.313436746597290039e+00 1.646381020545959473e+00 -5.900087952613830566e-01 2.260196208953857422e+00 4.338544011116027832e-01 5.729587674140930176e-01 -6.931830644607543945e-01 -3.418287932872772217e-01 -7.056451439857482910e-01 1.999222040176391602e-01 5.063190460205078125e-01 -3.305146992206573486e-01 -3.406899869441986084e-01 -3.844311237335205078e-01 1.830371379852294922e+00 4.187289476394653320e-01 -3.818551301956176758e-01 -5.713341236114501953e-01 -3.087419569492340088e-01 1.233696460723876953e+00 -5.244799852371215820e-01 -3.018653392791748047e-01 3.147129714488983154e-01 -3.788822889328002930e-01 -2.802409827709197998e-01 8.074891567230224609e-01 -3.829413056373596191e-01 -5.512314438819885254e-01
1.407694458961486816e+00 -6.710395216941833496e-01 -5.856941938400268555e-01 2.169669121503829956e-01 1.928794860839843750e+00 -2.832328975200653076e-01 2.008890151977539062e+00 -4.551341533660888672e-01 -5.881905555725097656e-01 -4.381940662860870361e-01 -5.637823939323425293e-01 7.875894904136657715e-01 1.314297080039978027e+00 -7.219294309616088867e-01 2.902714252471923828e+00 7.113474011421203613e-01 1.523497849702835083e-01 -6.365649104118347168e-01 -6.211522221565246582e-01 -4.809103310108184814e-01 -5.799226760864257812e-01 -5.863506793975830078e-01 -3.744690120220184326e-01 2.359835624694824219e+00 -5.503019094467163086e-01 -6.484057307243347168e-01 4.969355762004852295e-01 6.594424843788146973e-01 -3.654239773750305176e-01 -9.671797156333923340e-01 -4.097087979316711426e-01 -1.780862361192703247e-01 1.858697414398193359e+00 2.118332147598266602e+00 -3.664662837982177734e-01 2.810474395751953125e+00 1.098842740058898926e+00 6.288719177246093750e-01 -6.103045344352722168e-01 -5.875321030616760254e-01 -5.600081086158752441e-01 -6.183807924389839172e-02 9.452852010726928711e-01 -4.020368456840515137e-01 -3.053431808948516846e-01 -4.540035426616668701e-01 2.414335489273071289e+00 9.695987105369567871e-01 -3.635681569576263428e-01 -3.993437290191650391e-01 -4.125070273876190186e-01 1.477893114089965820e+00 -5.648080706596374512e-01 -5.520268678665161133e-01 6.239294409751892090e-01 -2.964412271976470947e-01 -5.812275409698486328e-01 9.946107864379882812e-01 -4.818125069141387939e-01 -7.140160202980041504e-01
-7.577132582664489746e-01 -5.686721205711364746e-01 -3.787252008914947510e-01 -1.105109229683876038e-01 -6.312171220779418945e-01 -4.309886395931243896e-01 -4.361672699451446533e-01 -4.647597372531890869e-01 -6.042982935905456543e-01 3.283425569534301758e-01 -6.653857231140136719e-01 -1.370103936642408371e-02 -1.117103219032287598e+00 -3.703399598598480225e-01 -8.635783195495605469e-01 -9.137290716171264648e-01 -7.722576260566711426e-01 -3.968436717987060547e-01 -4.075864255428314209e-01 -4.900304675102233887e-01 -3.563390672206878662e-01 -3.505231440067291260e-01 -3.680315911769866943e-01 -6.164436936378479004e-01 -4.965371787548065186e-01 -4.181203246116638184e-01 -3.626592084765434265e-02 2.922552451491355896e-02 -6.822470426559448242e-01 1.093752622604370117e+00 -3.167083561420440674e-01 4.416895564645528793e-03 -3.531047701835632324e-01 -5.858479738235473633e-01 -5.402907729148864746e-01 -7.368087172508239746e-01 -4.985208213329315186e-01 2.165335463359951973e-03 -3.043012320995330811e-01 -4.291659891605377197e-01 -4.883894622325897217e-01 -4.244792833924293518e-02 -2.267487794160842896e-01 -4.219223558902740479e-01 -4.709993004798889160e-01 -4.676919579505920410e-01 -5.211629271507263184e-01 -1.965164840221405029e-01 -6.593478322029113770e-01 -2.804372310638427734e-01 -4.607793390750885010e-01 -3.743164837360382080e-01 -4.521378576755523682e-01 -3.156760036945343018e-01 2.282149903476238251e-02 -2.909590005874633789e-01 -6.393530368804931641e-01 -5.456520915031433105e-01 -5.534185171127319336e-01 -4.287029802799224854e-01
-4.934273958206176758e-01 -5.732733011245727539e-01 -6.997258067131042480e-01 3.706676512956619263e-02 9.740422666072845459e-02 -5.675173401832580566e-01 9.777154773473739624e-03 -6.556589603424072266e-01 -5.259061455726623535e-01 2.825671136379241943e-01 -4.466224312782287598e-01 -2.500085346400737762e-02 -2.839408516883850098e-01 -3.543928265571594238e-01 -3.020332455635070801e-01 -3.648121356964111328e-01 -4.760527908802032471e-01 -5.847924947738647461e-01 -5.119335651397705078e-01 -5.157614350318908691e-01 -5.900161266326904297e-01 -4.923458099365234375e-01 -6.003490090370178223e-01 2.323003858327865601e-02 -2.775868177413940430e-01 -4.248832762241363525e-01 1.134838908910751343e-01 -9.750263392925262451e-02 -5.071773529052734375e-01 3.968724608421325684e-01 -5.878973007202148438e-01 -1.248948555439710617e-02 -1.199535094201564789e-02 -6.329316645860671997e-02 -3.320161700248718262e-01 -1.394702121615409851e-03 -3.088111281394958496e-01 -9.339710325002670288e-02 -3.307969570159912109e-01 -3.760126531124114990e-01 -6.840534806251525879e-01 -1.362319290637969971e-01 -1.912210881710052490e-01 -4.934628009796142578e-01 -4.951809048652648926e-01 -5.633459687232971191e-01 5.283852294087409973e-02 -1.174936145544052124e-01 -5.626896023750305176e-01 -2.806027829647064209e-01 -3.556686341762542725e-01 1.434081196784973145e-01 -3.109026849269866943e-01 -4.663801193237304688e-01 1.614837199449539185e-01 -5.460115671157836914e-01 -3.581427037715911865e-01 -4.734554290771484375e-01 -3.930709660053253174e-01 -6.193628907203674316e-01
-1.487801074981689453e+00 -6.282831430435180664e-01 -5.075325965881347656e-01 -6.777783483266830444e-02 -6.548453569412231445e-01 -3.320023715496063232e-01 -5.198374390602111816e-01 -6.032574772834777832e-01 -3.975184857845306396e-01 2.678978145122528076e-01 -6.558345556259155273e-01 -4.873762372881174088e-03 -1.188353776931762695e+00 -3.112056553363800049e-01 -1.079024910926818848e+00 -1.242908716201782227e+00 -7.837435603141784668e-01 -4.992243051528930664e-01 -2.908352017402648926e-01 -6.977939605712890625e-01 -3.454543948173522949e-01 -5.116993188858032227e-01 -3.362618982791900635e-01 -7.665602564811706543e-01 -5.748836994171142578e-01 -4.183717072010040283e-01 -1.253100633621215820e-01 -1.163022220134735107e-01 -6.492316126823425293e-01 1.141390562057495117e+00 -3.596195280551910400e-01 3.600687533617019653e-02 -5.382594466209411621e-01 -7.740546464920043945e-01 -5.366864800453186035e-01 -1.027865648269653320e+00 -8.725813627243041992e-01 -2.213865965604782104e-01 -3.596880435943603516e-01 -5.247541666030883789e-01 -4.910385906696319580e-01 6.312275677919387817e-02 -3.295100331306457520e-01 -6.565121412277221680e-01 -4.459662735462188721e-01 -4.479305446147918701e-01 -7.987226247787475586e-01 -3.165606260299682617e-01 -3.570797741413116455e-01 -3.928563296794891357e-01 -5.714336633682250977e-01 -7.178084254264831543e-01 -6.912000179290771484e-01 -3.344029784202575684e-01 -3.760305941104888916e-01 -4.193987548351287842e-01 -3.971937596797943115e-01 -1.001707792282104492e+00 -6.855142712593078613e-01 -5.994557142257690430e-01
-7.243380546569824219e-01 -7.067129611968994141e-01 -4.664652645587921143e-01 4.405115172266960144e-02 -1.678480207920074463e-01 -6.155937910079956055e-01 -2.979355156421661377e-01 -4.822472333908081055e-01 -4.107411205768585205e-01 -3.658280149102210999e-02 -7.082139849662780762e-01 -2.509073019027709961e-01 -6.305595636367797852e-01 -6.075389385223388672e-01 -3.811126351356506348e-01 -6.260694265365600586e-01 -6.313418149948120117e-01 -7.159838080406188965e-01 -4.254800677299499512e-01 -6.684147715568542480e-01 -5.420612096786499023e-01 -6.553996801376342773e-01 -4.396568238735198975e-01 -3.870240747928619385e-01 -3.679634630680084229e-01 -4.083634614944458008e-01 -2.463982626795768738e-02 5.644461140036582947e-02 -4.731506705284118652e-01 9.877105951309204102e-01 -3.199552595615386963e-01 -1.629408895969390869e-01 -1.780790984630584717e-01 -4.355683177709579468e-02 -5.138199329376220703e-01 -4.739749133586883545e-01 -6.290437579154968262e-01 1.510939449071884155e-01 -4.343060553073883057e-01 -5.254630446434020996e-01 -2.883290052413940430e-01 -1.673650294542312622e-01 -5.534493923187255859e-02 -7.082611322402954102e-01 -3.103049695491790771e-01 -5.773591995239257812e-01 -3.854212164878845215e-01 1.127064451575279236e-01 -3.524283170700073242e-01 -3.859745562076568604e-01 -6.716309785842895508e-01 -2.554436922073364258e-01 -3.317208886146545410e-01 -6.556424498558044434e-01 -1.613042503595352173e-02 -3.203267753124237061e-01 -3.305142223834991455e-01 -5.819688439369201660e-01 -6.309004426002502441e-01 -6.943468451499938965e-01
-4.146203994750976562e-01 -6.866074800491333008e-01 -5.744017958641052246e-01 -5.457470938563346863e-02 4.715116228908300400e-03 -3.605864346027374268e-01 1.185809522867202759e-01 -6.772273182868957520e-01 -3.529477119445800781e-01 -8.553716540336608887e-02 -6.476619243621826172e-01 -2.280105650424957275e-01 -5.512431859970092773e-01 -2.909669876098632812e-01 3.663962334394454956e-02 -5.100740194320678711e-01 -5.520278215408325195e-01 -2.999161481857299805e-01 -3.372702300548553467e-01 -6.581187248229980469e-01 -4.297479391098022461e-01 -4.259240627288818359e-01 -2.998073697090148926e-01 -1.580422520637512207e-01 -7.236825823783874512e-01 -5.017740726470947266e-01 1.765335649251937866e-01 1.706460267305374146e-01 -6.561041474342346191e-01 7.479666471481323242e-01 -6.982464194297790527e-01 -1.956107318401336670e-01 -1.833932995796203613e-01 -4.730668663978576660e-02 -4.149919152259826660e-01 -2.415754050016403198e-01 -2.047635614871978760e-01 -6.789319962263107300e-02 -3.896403908729553223e-01 -3.130244016647338867e-01 -3.007185459136962891e-01 1.256382763385772705e-01 2.858998440206050873e-02 -6.023098230361938477e-01 -3.089218735694885254e-01 -3.033348321914672852e-01 -2.407747656106948853e-01 1.436526775360107422e-01 -5.926546454429626465e-01 -5.061494708061218262e-01 -6.426312327384948730e-01 -4.592097830027341843e-03 -4.688948392868041992e-01 -4.132476150989532471e-01 -1.746555417776107788e-01 -6.398661136627197266e-01 -4.209273457527160645e-01 -3.454466462135314941e-01 -3.241539597511291504e-01 -6.731029748916625977e-01
1.864922046661376953e-01 -5.137386918067932129e-01 -4.693814218044281006e-01 8.440758287906646729e-02 1.147862911224365234e+00 -6.367871165275573730e-01 1.301140546798706055e+00 -4.564864039421081543e-01 -3.348966240882873535e-01 -1.421672254800796509e-01 -6.147630810737609863e-01 2.910927832126617432e-01 2.317819595336914062e-01 -6.121956706047058105e-01 1.552260875701904297e+00 2.932435832917690277e-02 -3.587789833545684814e-01 -3.703794181346893311e-01 -6.534349322319030762e-01 -3.247816860675811768e-01 -5.458664298057556152e-01 -3.760479688644409180e-01 -6.372564435005187988e-01 1.524093270301818848e+00 -6.056110262870788574e-01 -6.461400389671325684e-01 4.361364543437957764e-01 8.841026574373245239e-02 -4.773888289928436279e-01 -2.775712013244628906e-01 -6.197746396064758301e-01 -1.890150755643844604e-01 9.526161551475524902e-01 1.097593545913696289e+00 -3.604905009269714355e-01 1.654899835586547852e+00 1.061835885047912598e-01 4.283665418624877930e-01 -6.037864089012145996e-01 -6.080679893493652344e-01 -3.793609738349914551e-01 -6.962185353040695190e-02 5.182739496231079102e-01 -3.189253211021423340e-01 -4.794830679893493652e-01 -7.132623791694641113e-01 1.481469392776489258e+00 5.461969971656799316e-01 -4.338596463203430176e-01 -3.552411496639251709e-01 -3.389644920825958252e-01 1.049328923225402832e+00 -2.956850230693817139e-01 -3.585338294506072998e-01 7.100855559110641479e-02 -3.502658009529113770e-01 -5.615798234939575195e-01 4.723829403519630432e-02 -3.967934548854827881e-01 -2.857747972011566162e-01
-1.122236371040344238e+00 -4.487893283367156982e-01 -4.277949631214141846e-01 3.886124119162559509e-02 -7.665950655937194824e-01 -3.961092829704284668e-01 -8.557686805725097656e-01 -4.814959764480590820e-01 -6.408315896987915039e-01 8.480747044086456299e-02 -5.911434292793273926e-01 -1.612847149372100830e-01 -1.528371334075927734e+00 -5.542608499526977539e-01 -1.024241089820861816e+00 -9.286448359489440918e-01 -9.626532793045043945e-01 -5.528420805931091309e-01 -3.431728184223175049e-01 -3.486863374710083008e-01 -5.873849391937255859e-01 -4.238474965095520020e-01 -5.835647583007812500e-01 -9.485187530517578125e-01 -4.721510112285614014e-01 -5.946776270866394043e-01 -8.682657778263092041e-02 -3.687099814414978027e-01 -5.984025001525878906e-01 1.194220066070556641e+00 -5.382888913154602051e-01 1.611687391996383667e-01 -4.752744734287261963e-01 -8.001329302787780762e-01 -4.925238788127899170e-01 -1.088964581489562988e+00 -8.021961450576782227e-01 -2.309268862009048462e-01 -3.897816240787506104e-01 -4.039870500564575195e-01 -2.874675691127777100e-01 -2.794438004493713379e-01 -2.399784326553344727e-01 -4.356575012207031250e-01 -5.703428387641906738e-01 -6.451297402381896973e-01 -9.891539812088012695e-01 -3.621191680431365967e-01 -3.456446528434753418e-01 -4.039580225944519043e-01 -3.736014068126678467e-01 -4.431821703910827637e-01 -6.336917877197265625e-01 -3.105962574481964111e-01 -2.381683140993118286e-01 -7.098847627639770508e-01 -5.251257419586181641e-01 -1.087290883064270020e+00 -6.330125331878662109e-01 -6.712141036987304688e-01
3.969212472438812256e-01 -3.439469337463378906e-01 -2.816817462444305420e-01 -1.574498265981674194e-01 1.032002806663513184e+00 -6.253317594528198242e-01 9.429596662521362305e-01 -3.059322834014892578e-01 -7.014591097831726074e-01 1.397170722484588623e-01 -5.651258826255798340e-01 1.637607961893081665e-01 4.006127417087554932e-01 -6.398577094078063965e-01 1.535322308540344238e+00 -1.829868704080581665e-01 -1.370704919099807739e-01 -4.574719667434692383e-01 -5.129881501197814941e-01 -6.708478927612304688e-01 -3.298380672931671143e-01 -3.698051571846008301e-01 -5.446020960807800293e-01 1.092993974685668945e+00 -4.515787959098815918e-01 -5.655462145805358887e-01 2.453555911779403687e-01 4.835363011807203293e-03 -5.613468885421752930e-01 -4.432356357574462891e-01 -3.400675058364868164e-01 -1.761296987533569336e-01 9.692912697792053223e-01 9.175502657890319824e-01 -4.484933614730834961e-01 1.412962436676025391e+00 3.183978497982025146e-01 4.738272428512573242e-01 -3.529194295406341553e-01 -4.654600024223327637e-01 -4.308060407638549805e-01 7.547274231910705566e-02 3.918210566043853760e-01 -3.637553155422210693e-01 -4.738489985466003418e-01 -3.783962726593017578e-01 1.204509258270263672e+00 5.584844350814819336e-01 -3.532259464263916016e-01 -7.061226367950439453e-01 -4.545432925224304199e-01 8.278242945671081543e-01 -4.018905162811279297e-01 -3.381444215774536133e-01 2.249591648578643799e-01 -6.571339964866638184e-01 -4.405058324337005615e-01 -1.546460390090942383e-02 -3.900131285190582275e-01 -3.669824898242950439e-01
-4.832055270671844482e-01 -4.924110472202301025e-01 -3.422095179557800293e-01 9.291153401136398315e-02 -1.190673112869262695e-01 -5.943481922149658203e-01 -1.543383598327636719e-01 -3.010185956954956055e-01 -3.303916752338409424e-01 2.577525675296783447e-01 -6.282953619956970215e-01 1.989966928958892822e-01 -1.554292142391204834e-01 -4.030677080154418945e-01 -1.806429773569107056e-01 -4.938304424285888672e-01 -3.583182990550994873e-01 -2.856023609638214111e-01 -2.900381386280059814e-01 -5.760679841041564941e-01 -6.425244808197021484e-01 -5.233679413795471191e-01 -5.047240257263183594e-01 -1.888107806444168091e-01 -3.206998705863952637e-01 -6.683638691902160645e-01 1.257697492837905884e-01 5.626152455806732178e-02 -3.924495279788970947e-01 7.564267516136169434e-01 -5.190325975418090820e-01 1.725572794675827026e-01 2.967104129493236542e-02 -1.832124292850494385e-01 -5.560587644577026367e-01 -2.059296965599060059e-01 -8.481585234403610229e-02 -2.116522751748561859e-02 -6.244945526123046875e-01 -6.479187607765197754e-01 -4.644949138164520264e-01 -1.655887626111507416e-02 2.082747593522071838e-02 -3.135198354721069336e-01 -2.929548621177673340e-01 -5.057496428489685059e-01 -1.718437820672988892e-01 -5.807432159781455994e-02 -3.002654314041137695e-01 -6.537662744522094727e-01 -5.839990377426147461e-01 3.381548076868057251e-02 -5.231155157089233398e-01 -4.303794205188751221e-01 -2.019832581281661987e-01 -6.635208725929260254e-01 -3.926087617874145508e-01 -3.222843110561370850e-01 -3.174570202827453613e-01 -4.762272536754608154e-01
5.831292152404785156e+00 -6.073057651519775391e-01 -3.419330120086669922e-01 3.108780980110168457e-01 2.273136615753173828e+00 -4.858658611774444580e-01 2.306502580642700195e+00 -3.613413572311401367e-01 -4.801781773567199707e-01 -1.624508202075958252e-01 -4.499087035655975342e-01 9.348566532135009766e-01 5.700409412384033203e+00 -7.042676806449890137e-01 3.362830638885498047e+00 4.187576293945312500e+00 3.283697605133056641e+00 -5.435426235198974609e-01 -4.942978620529174805e-01 -3.945816457271575928e-01 -3.590755164623260498e-01 -5.361070632934570312e-01 -6.157297492027282715e-01 2.764673709869384766e+00 -3.572090268135070801e-01 -4.400009512901306152e-01 8.916687369346618652e-01 6.297671794891357422e-01 -4.482026398181915283e-01 -5.719595551490783691e-01 -3.223587572574615479e-01 8.568911254405975342e-02 1.934519171714782715e+00 2.250531435012817383e+00 -5.669761300086975098e-01 3.268371105194091797e+00 4.440057754516601562e+00 4.807658493518829346e-01 -3.677126467227935791e-01 -6.444802880287170410e-01 -3.874233961105346680e-01 1.168384999036788940e-01 9.686660170555114746e-01 -4.787733256816864014e-01 -3.618339896202087402e-01 -3.064109683036804199e-01 2.978051662445068359e+00 8.589451909065246582e-01 -3.633781969547271729e-01 -5.368978977203369141e-01 -3.948189020156860352e-01 1.844228506088256836e+00 -2.688258886337280273e-01 -5.808942317962646484e-01 6.089025735855102539e-01 -7.131385803222656250e-01 -5.705993771553039551e-01 4.662228107452392578e+00 -4.347294569015502930e-01 -4.245116114616394043e-01
1.229515194892883301e+00 -6.300977468490600586e-01 -7.014048099517822266e-01 1.414959430694580078e-01 8.219969272613525391e-01 -7.135578393936157227e-01 7.739292979240417480e-01 -5.289564728736877441e-01 -5.743867158889770508e-01 4.649209976196289062e-02 -6.617444753646850586e-01 3.257666230201721191e-01 8.857299685478210449e-01 -5.461753606796264648e-01 1.031113028526306152e+00 5.944676399230957031e-01 3.001265823841094971e-01 -5.563821792602539062e-01 -4.859300851821899414e-01 -4.597040414810180664e-01 -6.049186587333679199e-01 -7.229614257812500000e-01 -6.100613474845886230e-01 1.098970890045166016e+00 -6.834208965301513672e-01 -5.692186355590820312e-01 1.245683729648590088e-01 3.273305296897888184e-01 -5.922438502311706543e-01 2.009701877832412720e-01 -3.587716221809387207e-01 -1.728555113077163696e-01 4.186504781246185303e-01 6.661235690116882324e-01 -5.401204824447631836e-01 8.423659801483154297e-01 4.930277168750762939e-01 1.687486916780471802e-01 -4.349889755249023438e-01 -5.346956253051757812e-01 -4.975875020027160645e-01 -1.328525543212890625e-01 1.786947399377822876e-01 -3.776929974555969238e-01 -4.852207601070404053e-01 -4.264733195304870605e-01 9.083537459373474121e-01 1.205826327204704285e-01 -6.238735914230346680e-01 -3.003786802291870117e-01 -5.437141060829162598e-01 5.430957674980163574e-01 -6.958971023559570312e-01 -4.454185366630554199e-01 7.503582537174224854e-02 -5.859574675559997559e-01 -2.838599383831024170e-01 4.501960873603820801e-01 -6.257816553115844727e-01 -2.963997721672058105e-01
-3.719611406326293945e+00 -5.308256149291992188e-01 -6.660026907920837402e-01 -3.010523021221160889e-01 -2.060334920883178711e+00 -5.212570428848266602e-01 -2.335111141204833984e+00 -3.135693669319152832e-01 -4.838809370994567871e-01 8.347520828247070312e-01 -3.394755423069000244e-01 -5.946284532546997070e-01 -3.777175188064575195e+00 -3.911329209804534912e-01 -3.120242834091186523e+00 -2.796950578689575195e+00 -2.218892812728881836e+00 -2.829424738883972168e-01 -3.339746892452239990e-01 -4.096475839614868164e-01 -5.686088800430297852e-01 -4.298062324523925781e-01 -3.841338455677032471e-01 -3.096224784851074219e+00 -6.881924867630004883e-01 -4.805995523929595947e-01 -3.840521574020385742e-01 -4.157217442989349365e-01 -3.385019302368164062e-01 3.421997070312500000e+00 -4.652064442634582520e-01 -1.787291094660758972e-02 -2.083279132843017578e+00 -2.348357439041137695e+00 -3.031758368015289307e-01 -3.193681716918945312e+00 -2.645623922348022461e+00 -3.505901694297790527e-01 -6.454597711563110352e-01 -5.093778967857360840e-01 -3.059124946594238281e-01 -3.148541748523712158e-01 -9.860658049583435059e-01 -2.828457653522491455e-01 -5.057545304298400879e-01 -4.878652691841125488e-01 -2.761411428451538086e+00 -7.845107316970825195e-01 -3.835703134536743164e-01 -5.641127824783325195e-01 -4.358098208904266357e-01 -1.613392829895019531e+00 -5.013658404350280762e-01 -5.386810302734375000e-01 -4.358896017074584961e-01 -3.548000752925872803e-01 -4.407895803451538086e-01 -2.521372318267822266e+00 -7.012900710105895996e-01 -4.719259142875671387e-01
2.234040796756744385e-01 -4.333371818065643311e-01 -3.927767574787139893e-01 1.532380878925323486e-01 5.017935037612915039e-01 -6.503028869628906250e-01 8.404016494750976562e-01 -3.444909751415252686e-01 -5.096277594566345215e-01 3.029018267989158630e-02 -5.925327539443969727e-01 3.374715447425842285e-01 3.323336243629455566e-01 -5.214930772781372070e-01 9.951220750808715820e-01 -1.657426953315734863e-01 -8.137714117765426636e-02 -5.323535203933715820e-01 -5.325769782066345215e-01 -2.896367013454437256e-01 -5.956050157546997070e-01 -5.444831848144531250e-01 -3.051150143146514893e-01 9.849430918693542480e-01 -6.683889031410217285e-01 -4.992539584636688232e-01 2.803154289722442627e-01 1.186470985412597656e-01 -5.149818658828735352e-01 3.936102986335754395e-01 -7.226984500885009766e-01 1.219815090298652649e-01 7.497770786285400391e-01 6.343165040016174316e-01 -5.320785045623779297e-01 8.651486039161682129e-01 3.229421675205230713e-01 3.874846100807189941e-01 -5.978809595108032227e-01 -5.137087702751159668e-01 -3.038452267646789551e-01 6.122945249080657959e-02 8.529792726039886475e-02 -6.313402652740478516e-01 -3.437854647636413574e-01 -6.351686716079711914e-01 7.943512797355651855e-01 5.778474360704421997e-02 -5.683079361915588379e-01 -6.775479912757873535e-01 -3.015763461589813232e-01 5.099219679832458496e-01 -5.825995206832885742e-01 -3.741052448749542236e-01 5.150622501969337463e-02 -5.892333984375000000e-01 -5.197320580482482910e-01 3.945765793323516846e-01 -6.787375807762145996e-01 -4.818331897258758545e-01
-3.118637949228286743e-02 -6.926492452621459961e-01 -4.721485972404479980e-01 -4.506488889455795288e-02 1.095481440424919128e-01 -5.334428548812866211e-01 1.608214229345321655e-01 -6.579166054725646973e-01 -5.493590831756591797e-01 1.460290420800447464e-02 -3.656701147556304932e-01 9.144235402345657349e-02 8.528424799442291260e-02 -5.210205316543579102e-01 -5.503312498331069946e-02 -4.167228937149047852e-01 -5.961076915264129639e-02 -3.392483592033386230e-01 -4.154590070247650146e-01 -4.549070000648498535e-01 -5.969383120536804199e-01 -7.016838192939758301e-01 -5.537564158439636230e-01 2.070387601852416992e-01 -2.879398465156555176e-01 -4.011577367782592773e-01 3.294287621974945068e-02 9.923297166824340820e-02 -4.046884179115295410e-01 3.467251956462860107e-01 -6.199145913124084473e-01 1.135499328374862671e-01 4.442203789949417114e-02 3.551345765590667725e-01 -4.584476947784423828e-01 2.253521233797073364e-01 1.660228967666625977e-01 2.807192876935005188e-02 -5.531433820724487305e-01 -3.852431774139404297e-01 -4.725334048271179199e-01 -4.944884032011032104e-02 3.270531296730041504e-01 -7.234069108963012695e-01 -6.089968085289001465e-01 -4.700088202953338623e-01 1.657072454690933228e-01 2.707363069057464600e-01 -5.246906280517578125e-01 -4.859796464443206787e-01 -3.246489465236663818e-01 5.206231400370597839e-02 -5.776533484458923340e-01 -3.771629035472869873e-01 2.738722860813140869e-01 -5.151141881942749023e-01 -5.626615881919860840e-01 -8.636229671537876129e-03 -6.590919494628906250e-01 -5.780603289604187012e-01
